nep4 5 Ti Al Mo Zr V 
cutoff 6 5 146 84
n_max 4 4
basis_size 8 8
l_max 4 2 0
ANN 30 0
 -3.0735390e-02
  1.1175746e-01
  2.4019923e-02
 -3.3503839e-01
  5.0542897e-01
  6.4973399e-02
  1.5295096e-01
  6.3684791e-01
 -9.1892786e-02
 -2.6001330e-02
 -5.1269368e-03
  8.2557254e-02
  8.4522076e-02
  3.0982681e-03
 -3.8135901e-01
 -1.4743546e-01
  1.9253828e-01
  1.8884797e-01
  5.2952617e-02
  1.3819280e-01
 -6.2620157e-01
  1.0964063e-01
  3.7280612e-02
  4.5145225e-02
 -8.9157522e-03
  7.2732987e-03
 -6.3048363e-02
 -2.1977942e-02
  1.8022738e-01
 -1.7547028e-02
  1.4031177e+00
  4.1943833e-01
 -9.2556238e-01
 -1.3666724e+00
 -5.1725186e-02
  4.2369941e-01
  3.7138335e-02
 -2.9991117e-01
  6.7410976e-01
  4.1921195e-01
  1.1165653e+00
  2.8795922e-01
  6.9569886e-02
  4.1840714e-01
  5.5435307e-02
  2.0455134e-01
  6.7682660e-01
  5.2427411e-01
  6.1419231e-01
  1.2695083e-01
  7.2303079e-02
  1.2801109e-01
  2.5090945e-01
  1.9154255e+00
  2.2933263e-01
 -5.3178512e-02
 -5.3269271e-02
  7.3449247e-02
  2.5519985e-01
  1.4900407e-01
 -5.5043769e-01
  7.0876741e-01
 -2.5771925e-01
  1.1939712e+00
  4.6159717e-01
 -2.1313291e+00
  1.0978983e-01
 -6.1964566e-01
 -1.2263993e-02
 -6.4887375e-01
  3.3843398e-02
 -3.7292536e-02
 -4.9197259e-03
  7.8937179e-01
 -2.9941161e+00
 -1.3868222e-01
  6.5015721e-01
 -1.0594996e+00
  4.1177765e-01
 -9.6576822e-01
 -6.0717559e-01
  4.7562528e-01
 -1.4667477e-01
  5.3002650e-01
  5.9257525e-01
 -3.4623262e-03
  2.5578362e-01
 -1.7334742e-02
  1.0695182e-02
 -8.5762061e-02
 -1.7537929e+00
  1.2391287e-01
 -8.3642560e-01
 -3.2231450e-01
 -1.7544293e+00
  1.6502026e+00
 -1.0136087e-01
 -5.5217040e-03
 -7.5261945e-01
 -2.3138160e-01
 -1.3306552e+00
 -5.1078463e-01
 -5.2709049e-01
  9.0993240e-02
  2.6051139e-02
 -6.6711050e-01
 -9.4846539e-02
 -1.0934490e-01
 -1.0811125e+00
  9.1298836e-01
 -5.2212036e-01
  5.6405485e-01
 -1.2215747e+00
 -3.5507984e-02
  5.7692009e-01
 -2.3934160e-01
  7.5923824e-01
 -3.1155294e-01
  2.0350076e-02
  2.2015711e-02
  6.1517078e-01
 -8.1620403e-02
 -1.8321557e+00
  1.9565249e-02
  9.1006380e-01
  1.4632953e+00
  4.8999405e-01
  9.2495334e-01
 -1.3016578e-02
 -1.6490921e+00
  1.7014301e+00
  7.4985904e-01
  6.4489655e-02
  2.0135511e-01
 -1.4218465e+00
  4.3686497e-01
 -1.4680457e+00
  5.1734958e-02
 -1.0596297e-01
 -1.9244537e+00
  8.8941383e-01
 -3.7876967e-01
 -9.1503257e-01
 -1.6888474e-01
 -2.7331181e+00
 -1.5306315e-01
 -4.9915295e-02
 -4.5071043e-02
 -2.0359155e-02
 -8.4208709e-01
  1.8704483e-02
  2.6140845e+00
  3.8864937e-01
 -1.0619290e+00
  5.6403005e-01
 -6.9137111e-02
 -1.3274874e-01
 -9.7726226e-01
 -5.8984947e-01
 -1.3847089e+00
 -1.0738064e-02
 -9.7662825e-03
 -1.4830682e-01
  2.3037819e-02
 -7.5142823e-02
 -9.9697191e-01
  7.5133240e-01
  5.1188934e-01
 -1.6974582e-01
  5.0443810e-01
  1.2273450e+00
  6.4629680e-01
  1.5544181e+00
 -4.9532630e-02
  1.3336339e+00
  1.5879506e-02
  5.0869871e-02
 -1.0888128e-01
  3.6682870e-02
 -5.0697255e-01
 -2.4856414e-01
  5.5475932e-02
  1.3302669e-03
 -1.0925407e-01
 -4.5346886e-02
  2.2387577e-02
 -4.1401517e-02
  2.6869725e-02
  4.2674290e-03
 -2.2888318e-02
 -1.0804480e-01
 -6.0652945e-02
 -3.0443503e-02
  1.8013152e-01
 -2.6916999e-02
 -1.6197684e-01
 -5.8986410e-02
 -1.6702691e-01
  1.1333172e-01
 -5.9002038e-02
 -9.6027958e-01
  9.5548257e-03
  1.5630318e-01
  5.5686299e-02
 -7.2852463e-02
 -5.0229892e-02
 -7.4907471e-03
 -7.7818455e-03
  8.0133379e-02
 -1.1348149e-01
  6.2938190e-01
 -4.6165583e-01
 -1.7070180e+00
 -1.9039965e+00
  9.4003552e-01
 -1.5047139e+00
  3.9209196e-01
  2.9411817e-03
  3.7349641e-02
  2.3423047e+00
  1.4334613e-01
  3.0018148e-01
  2.7559618e-02
 -1.6628353e-02
  8.4109360e-01
 -5.9179187e-01
 -2.4288207e-02
 -3.6137853e-02
 -2.3412696e-01
  1.4444755e+00
 -1.3058873e+00
  1.8911089e-01
 -1.0885403e+00
 -1.0970982e+00
  9.9745214e-01
 -7.7205759e-01
 -4.2685337e-02
  1.9462144e-01
  3.1780537e-02
  1.8848291e-01
 -3.3426374e-01
  1.5033629e+00
  1.3837304e+00
  1.7248738e+00
 -1.1141174e+00
 -3.5894342e-02
  2.0236839e-03
  2.0475967e-01
 -5.5780184e-02
  3.8699463e-02
 -1.4720143e-01
  1.4411542e-01
  1.8855946e-02
  1.6323004e-02
 -6.0416430e-02
  1.0846146e-01
 -1.0173626e-02
 -5.6038119e-02
  1.2826028e-01
  3.0811208e-01
 -4.9066541e-01
 -1.7651426e-02
  1.5492874e-01
 -2.8202909e-01
 -2.9429147e-02
  2.4970591e-03
 -3.3211436e-02
  1.4395882e-01
  1.6985614e-02
  1.4086947e-01
 -1.0673591e-02
 -6.2578127e-02
 -6.8761952e-02
  2.1381555e-01
  2.6425877e-01
 -8.0477141e-02
  5.4850414e-02
 -1.7658278e-01
  1.5758112e-01
 -5.4449510e-02
 -3.1250838e-02
  7.4267648e-02
 -9.1378100e-02
 -1.2893295e-01
  4.0030101e-01
  1.9220859e-01
 -1.8609370e-01
  9.4867475e-02
 -2.5862381e-02
 -6.4356133e-02
 -9.4848001e-01
 -1.0661058e-01
 -4.0501915e-02
 -6.6984326e-02
 -1.3999905e-03
 -4.4073496e-02
  7.9441649e-01
 -1.2835557e-02
  5.4585863e-02
  4.8425969e-02
  4.1853321e-01
  7.2353240e-03
  1.2306837e+00
 -1.2739237e-01
  4.3210335e-02
  6.2319267e-01
  1.6115981e-01
  1.8558627e+00
 -1.9758128e-02
 -7.4672168e-03
 -2.9289844e-02
 -2.2092376e-02
 -3.5396304e-02
 -2.2110371e-02
 -1.1356334e-03
  3.5666314e-01
 -1.0917960e-02
  1.2987739e-01
 -2.7063012e-02
  7.4453456e-03
  1.4906577e+00
  1.0138100e-01
  1.6243046e-02
 -7.1764868e-03
 -1.3172539e-01
 -9.5204569e-02
 -5.6112833e-02
  4.9382400e-02
 -2.7676841e-02
 -1.7601484e-02
  2.3936650e-02
 -2.4453731e-01
 -1.0932057e+00
  9.3157135e-02
 -2.8218859e-01
  7.9146829e-03
  1.1162123e-02
  1.2023159e-01
  1.5866453e-02
  4.9401339e-02
 -1.0564675e-01
  9.9094056e-02
  8.3933391e-02
  6.2936112e-02
  4.7661833e-02
 -1.7021921e-01
 -1.7253560e-01
 -4.3656752e-02
  9.3549319e-02
  6.4073198e-02
 -3.8817901e-02
  7.6308109e-02
  7.0345163e-02
  1.7708224e-01
 -5.3349044e-02
  5.4344311e-02
  9.1990340e-01
  1.4355221e-01
  5.5856989e-03
  7.0203431e-02
 -3.4509280e-01
  2.9913864e-01
 -6.4012492e-03
 -2.0154272e-01
  1.0486334e-03
 -1.3147713e-02
  3.9848484e-02
  3.5504524e-02
 -1.3213284e-01
  8.5143760e-02
 -5.6071512e-02
  2.0851886e-02
  2.9091892e-01
  2.2364670e-01
 -4.4440988e-02
 -2.0640634e-02
 -1.4900374e-01
  9.1807775e-02
 -5.3365223e-02
  1.8363214e-01
 -8.1812131e-01
  1.1319628e-03
  6.0324352e-02
  1.3946266e-01
 -1.4116688e-01
  1.1920828e-01
  1.2292611e-01
 -1.0247566e-02
  8.2631916e-02
 -8.7706178e-02
 -2.2240801e+00
  1.3599192e+00
  4.8840332e+00
  3.5625315e+00
 -1.4196544e+00
 -4.2851442e-01
 -5.5928385e-01
  2.9534760e-01
  6.0077542e-03
  2.9972833e-02
 -3.8869523e-02
 -1.7014446e+00
 -6.6916347e-01
 -2.8910950e-01
 -1.6559221e+00
 -2.1713068e+00
 -2.2717476e-02
  4.8845261e-01
 -9.1811472e-01
 -1.9268225e+00
  1.3302294e+00
  1.5367211e-02
 -1.3465393e-01
 -7.9700089e-01
 -2.0281251e-01
 -3.1911206e-01
  5.9968449e-02
 -7.0656203e-02
  2.0713530e-02
  7.3569953e-02
 -1.4788818e-01
 -2.4425609e-02
  5.9035022e-02
  1.0704827e-02
 -9.2078947e-02
 -1.4690492e-01
 -2.1955801e-02
  1.5431082e-01
 -1.1352320e-02
 -8.1625599e-03
  4.0746927e-03
 -1.1814516e-02
  4.0980350e-02
  4.6604499e-03
  1.4186965e-01
 -1.5214996e-02
 -1.2859331e-01
 -5.6945119e-02
 -2.9051950e-02
 -6.8386555e-02
 -4.9680166e-05
 -1.7358681e-02
  1.3460514e-01
 -2.7251208e-01
 -6.3331679e-02
  4.1292910e-02
  1.2359316e-02
 -1.9982719e-01
 -2.3473561e-01
 -1.6865882e-01
  1.5849423e-01
 -6.5540060e-02
  5.8013868e-01
 -5.0534976e-01
 -5.6325024e-01
  1.4474767e-01
  2.9763466e-01
 -2.4315149e-02
  4.2637218e-02
  2.6099244e-02
  1.3155152e-02
 -1.2574654e+00
 -1.4509259e-01
 -2.3684023e-02
  3.6717076e-02
  4.4306260e-02
 -3.8403329e-02
  2.7030263e-02
 -4.0160835e-02
  9.3592636e-02
 -5.6701671e-02
 -6.7317314e-02
  3.6312759e-02
  5.2537471e-02
 -7.1780197e-02
 -9.6538998e-02
  1.2559898e-01
 -1.0678755e-01
  5.1992748e-02
 -2.8246595e-02
 -5.4103422e-01
 -2.3154354e+00
  1.1147788e+00
 -1.9539587e+00
  5.2107871e-01
 -1.4380727e+00
 -2.6814133e-02
 -5.7436889e-01
  1.1417355e-01
  1.3161836e+00
 -9.4660348e-01
 -4.0182844e-01
 -1.2392122e-01
 -4.4122612e-01
  2.4934618e-01
 -8.2530457e-01
  1.4469789e-01
  2.0789832e-02
 -4.7271657e-01
  9.2920166e-01
 -8.0376214e-01
  1.4503382e+00
 -1.0874658e+00
  1.6895373e-01
  3.1004480e-01
 -5.8847822e-02
 -7.2238438e-02
  9.0680204e-02
 -1.2408667e-02
  5.1945782e-01
 -1.6848525e-02
 -6.5799427e-01
 -5.5746579e-01
 -1.9291886e+00
  8.9009571e-01
 -4.9036294e-02
  8.8070696e-03
 -2.5413272e-01
  1.3100992e-01
 -3.2399772e-03
  2.2757757e-01
 -1.3865288e-01
  3.8790283e-01
 -2.2855356e-01
 -2.2228232e-02
  1.3658932e-01
  8.7654002e-02
  1.4193111e-02
  1.3086224e-01
  2.5352933e-02
  2.0775104e-01
  3.6300238e-02
  3.0355057e-02
  6.8409818e-01
  5.1412761e-01
 -1.5869003e-02
 -5.2912857e-02
  8.0959193e-02
  2.3612180e-01
  1.3621074e-01
  7.9142682e-02
  3.5179354e-02
 -1.0847673e+00
  7.9731829e-02
 -3.8317177e-02
 -4.5020275e-02
  3.3670913e-02
  8.8598602e-02
  4.3874733e-02
  1.3663076e-02
  5.1531292e-02
 -1.5900722e-02
 -2.4789022e-02
 -5.4616675e-02
 -3.5221637e-03
 -9.5582753e-02
  1.4003674e-03
  8.1510402e-02
 -5.7102874e-02
 -6.4692557e-02
 -1.8172202e-01
  3.7494086e-02
 -7.3140562e-02
  4.9027838e-02
  1.9078438e-01
  1.8727776e-02
 -4.2155094e-02
 -1.7002583e-02
 -1.6755350e-01
  1.4387975e-02
 -9.4798274e-02
  2.9305553e-03
 -2.2045204e-01
 -3.4813285e-02
  5.0789449e-02
 -4.1821916e-02
  2.4059078e-02
 -8.7250896e-02
  3.3294622e-02
  7.6741278e-02
 -1.2455246e-02
 -7.1869195e-03
 -3.0101424e-02
  1.8438819e-03
  1.3872609e-02
  2.0755729e-01
 -9.5404917e-03
 -2.0186159e-01
 -1.0828198e-01
  3.7611268e-02
 -2.5437944e-02
  1.7096971e-01
  4.3325368e-02
 -1.0906810e-01
  5.8454308e-03
  8.1451274e-03
 -1.8733558e-01
 -3.6236219e-02
 -4.3538515e-02
  7.7276200e-02
 -4.5205680e-01
  1.3722842e+00
  1.9997256e-02
 -1.0061142e+00
 -4.1283715e-01
 -1.0316323e+00
 -1.6251636e-01
  2.3967109e-03
 -5.0374821e-02
 -1.3136885e+00
  1.4536637e-01
  1.2511815e-01
 -1.0660108e+00
 -7.5345397e-02
  2.3250968e+00
 -2.0511906e-01
  7.1364105e-01
 -6.0845733e-01
  2.1893106e-01
  3.9847171e-01
 -4.8586306e-01
  1.2366863e-01
 -5.1224458e-01
 -8.4891260e-02
 -9.9363279e-01
  2.4618808e-02
  1.3063538e-01
 -7.1464926e-02
  4.0734265e-02
 -2.4252512e-01
 -2.1087579e-02
  5.6250278e-02
 -5.3571887e-02
 -1.2672476e-01
 -8.6485684e-02
  6.2584211e-03
 -1.2836871e-01
  2.7226416e-02
 -1.1353302e-01
  1.8149551e-02
 -7.7488698e-02
  1.1110133e-01
 -6.8356112e-02
  3.8218264e-02
 -2.7367044e-02
  3.5388547e-01
 -1.8345011e-02
  1.9190388e-02
  4.7659818e-02
 -5.9014276e-02
  1.3181101e-01
 -1.1517979e-01
 -1.8893661e-01
  1.0730747e-01
  1.0767273e-02
  6.8980537e-02
  1.9761837e-01
 -1.6740391e-02
  2.0209058e-04
  2.3233769e-02
 -1.2158545e+00
  2.8090119e+00
 -5.0899261e-01
 -2.3167352e-01
  1.7115225e+00
  7.9732138e-01
 -1.2629684e+00
  1.7818114e-01
  2.7005514e-02
 -1.3435668e+00
 -1.4527845e+00
 -8.1345910e-01
 -7.7227217e-01
 -2.4629624e-01
 -7.8639582e-02
 -3.0264650e-02
  1.3174117e-01
  6.6837865e-01
  5.8083600e-01
  4.6906880e-01
 -1.7181015e+00
 -5.6880265e-02
 -1.4994193e+00
  4.7567287e-03
 -2.6301565e-02
 -2.0575315e-02
  2.3861805e-01
 -1.8782238e-02
 -6.3951492e-02
  1.0569778e-02
  2.2427109e-01
  7.3633216e-02
 -2.9697099e+00
 -1.7274435e+00
  6.0925126e-01
  9.3465352e-01
  2.8726046e+00
 -1.1498691e+00
 -1.4334637e-01
  3.9922741e-01
  7.0433348e-01
  2.7250031e-01
 -5.8648311e-02
 -2.0917142e-02
  2.2767272e+00
 -9.3538958e-01
 -1.3104322e+00
  2.0949723e-01
  9.1255814e-01
  1.1347184e+00
 -2.1167497e-01
  8.0567116e-01
 -3.9957660e-01
  5.1656151e-01
  9.5388371e-01
  3.8363987e-01
  2.2541267e-01
 -1.1075993e-01
  8.4125543e-01
 -2.6545085e-02
 -2.5356994e+00
 -2.0551028e+00
 -8.2988662e-01
 -3.8125160e-01
 -1.3799561e+00
  3.2668427e-01
  2.3978997e-02
 -3.5028443e-01
  1.9943558e-02
  5.7722971e-02
 -9.6293360e-01
 -1.0053726e-01
  3.0892405e-01
  1.7423138e-01
  1.2577366e+00
  2.6078662e-02
  2.0456998e-02
  3.9157188e-01
  1.1301715e+00
  1.5531731e-01
  7.2172952e-01
  8.9326549e-01
 -4.8544791e-02
  9.3595636e-01
 -2.9976383e-01
 -3.5209113e-03
 -4.8363864e-02
  5.6403909e-02
  4.5123529e-01
  1.3102908e-01
  8.4409183e-01
  5.2202899e-02
 -1.6431365e+00
  3.3563268e-01
  1.2843294e-01
 -1.5175103e-01
 -1.1621615e-01
 -2.2168705e-02
  3.1523886e-01
  4.7119025e-02
 -1.0388596e-01
 -1.3610540e-01
  3.8758653e-01
  2.0474267e-01
 -5.8478630e-01
 -5.8622133e-02
 -2.1861075e-01
 -1.3765478e-01
  6.4033619e-03
 -4.2190266e-01
 -6.5796512e-01
  3.2815409e-01
 -5.6609191e-02
 -2.2724673e-02
 -1.1379921e-02
  1.6408129e-02
  1.7433994e-03
  3.7000193e-03
 -1.1253827e+00
  1.0176069e-02
  1.1835231e-01
 -1.0053449e-03
 -5.6563918e-02
  3.2148117e-03
 -3.5008829e-02
 -1.1204820e-02
 -1.7662803e-02
  7.9891819e-01
  6.5827183e-02
  4.0829446e-02
  8.8104485e-03
  8.7016504e-03
  7.0184767e-02
 -6.4414525e-03
  1.3418445e-01
 -2.3866382e-03
  2.4960440e-01
 -9.4690233e-02
 -2.8808936e-02
  1.6818869e-01
  6.0566172e-02
 -1.1606022e-02
 -1.4195916e-01
 -1.3385516e-02
 -4.5889258e-02
  4.4440165e-02
  3.8308922e-02
 -2.8846613e-01
 -6.5600567e-02
 -1.7064795e-02
  4.1514978e-02
 -8.7017201e-02
 -1.2311695e-01
  1.7283052e-01
 -7.1886249e-02
  2.3421775e-01
  3.1214397e-02
 -1.4759443e-03
  1.2594626e-02
  1.9577849e-01
  1.2668569e-01
 -9.7566289e-01
  8.3915904e-02
 -9.1202140e-02
 -4.6606321e-02
  2.6564252e-01
  1.9312233e-01
  7.7955057e-03
 -2.1301214e-01
  5.9674823e-01
  9.3032559e-03
 -4.2756706e-01
 -2.3522602e-01
  2.7736986e-02
  1.4513206e-01
  8.8624492e-02
 -1.6059428e-02
 -4.6997354e-03
 -8.6392164e-02
 -9.5824614e-02
  1.1297644e-01
  2.4896853e+00
 -1.6308953e-01
  1.5985041e+00
  2.5540647e-01
 -1.0597961e-02
  5.7067367e-04
  1.7831590e-02
 -1.9780621e-02
  5.7899922e-02
  3.5168830e-01
 -2.0663910e-01
  2.5662759e-01
 -2.1420426e-03
  8.9923412e-01
 -2.4306539e-01
 -1.1208811e+00
 -1.1438083e-02
 -1.2062153e+00
 -8.4736252e-01
  8.4021193e-01
 -3.1237569e-01
  1.1213993e+00
  1.3599958e+00
  6.1040062e-01
  3.5986289e-02
 -2.7683241e-02
  2.5359754e-02
  6.4721829e-01
  2.5117490e-01
 -2.9363461e-02
  2.6422793e-01
  8.6194021e-01
  7.6481920e-01
 -3.4769602e-02
 -1.1520799e-01
  5.7856385e-02
  1.6160676e-02
  2.0350769e-04
 -7.2319932e-02
 -8.5161198e-03
 -1.6595092e-01
  1.3143753e-02
 -1.1388851e-01
  1.0512898e-01
 -3.8534295e-02
 -8.8961489e-02
 -1.6814975e-02
  3.1442288e-02
  5.5403151e-02
 -1.5231472e-01
 -1.1091229e-01
 -2.1598808e-02
 -1.2321862e-01
 -5.4258309e-02
 -2.3055200e-01
  6.6885136e-02
 -5.2055341e-01
  7.9851769e-02
  1.3995579e+00
  1.0643754e+00
  1.7591333e+00
 -3.5467416e-01
 -9.7397226e-01
 -5.7615745e-01
  5.7830602e-01
  1.1587697e+00
  2.0982864e+00
 -2.8728867e+00
 -3.7071753e-01
  6.9456959e-01
  4.1534808e-01
  1.3058505e+00
 -1.8857378e-01
  1.0662588e+00
  6.2105858e-01
  8.6391300e-01
  2.4580815e+00
  3.3440772e-02
  9.8228282e-01
  2.7160189e-01
 -2.8648314e-01
  9.7968352e-01
  2.3651509e-01
  1.0945194e+00
 -1.4940920e-01
 -1.3943297e+00
 -1.5259440e+00
  9.1506350e-01
 -1.2671803e+00
 -4.5689663e-01
  9.1242033e-01
 -1.9096476e+00
 -1.5031140e+00
 -1.5164242e+00
 -1.2481619e+00
 -7.9709285e-01
  1.2143111e+00
 -9.1052955e-01
  2.8502035e-01
 -4.6818006e-01
  2.2609244e-01
 -1.1885564e+00
  2.6735575e+00
  1.5000187e-01
 -2.9866165e-01
  1.1613450e+00
  6.0198456e-01
  2.0550142e-01
  1.9534311e-01
 -1.2484788e+00
 -9.7096391e-02
 -1.0883021e+00
 -2.4605243e+00
  1.4929415e+00
  8.7733400e-01
  4.3472406e-01
  1.2248608e+00
  1.9773796e+00
 -4.2544189e-01
 -9.2189312e-02
  1.3521385e-01
 -8.0833405e-02
 -3.9966412e-02
 -5.1261116e-02
  2.4075583e-02
 -2.0565359e-02
  7.5377934e-02
  4.7251385e-02
  1.0363278e-01
 -3.2168265e-02
 -7.1090199e-02
 -3.7992958e-02
 -1.0102049e-01
  4.5802132e-03
  4.3660323e-03
  1.0772461e-02
 -5.9691284e-02
  4.2114985e-01
  1.4176475e-03
  5.3505547e-02
  9.7753461e-03
 -7.6210283e-02
 -1.0694193e-01
  1.4383921e-01
  1.0642493e-01
  4.3018451e-03
  4.1044913e-03
  1.1811393e-01
 -1.1123636e-01
  4.7448009e-02
 -2.3490895e-02
  1.7332437e-02
 -6.7248099e-02
 -3.6028009e-02
 -1.1709441e-01
  7.2813690e-02
  1.2644460e-04
 -4.3972533e-02
 -1.3598340e-02
  2.6326135e-03
 -1.2463618e-01
 -4.2136073e-02
  1.2024209e-01
 -2.4302576e-02
  7.6593906e-02
 -9.5786482e-02
 -6.4234711e-02
 -1.0260165e+00
 -6.3741855e-02
 -4.0089700e-02
 -1.3773459e-01
  3.1217894e-02
  3.5420349e-01
  7.0058562e-02
 -1.3431171e-02
  7.3453799e-02
 -7.8260887e-01
 -1.0877428e-02
  3.0020108e-02
 -1.4709032e-01
  9.8748527e-02
 -6.0778535e-03
  6.6566467e-02
  9.2317872e-02
  4.7904488e-02
  1.4485073e-01
 -5.7066437e-02
 -3.1224886e-02
  7.8997865e-02
  1.4642704e-01
  4.3225873e-02
 -9.1802580e-03
 -2.9138837e-02
 -4.1544486e-02
 -1.6526507e-01
 -9.1787919e-02
 -1.6759109e-02
  7.6065445e-01
 -1.4296523e-01
  7.8643635e-02
  8.5324392e-02
  2.0327203e-01
 -6.9182903e-02
  4.7647297e-02
  5.8318611e-02
  3.2533932e-01
  4.9554050e-02
 -1.4955582e-02
 -2.4098985e-02
 -2.3827188e-02
 -5.6825507e-01
  3.4643123e-01
 -5.4889977e-01
  1.2118693e-02
  3.0209381e-02
  2.7072477e-01
 -2.6568931e-02
 -4.7233427e-01
 -8.8057600e-02
 -4.7395740e-02
  1.4996010e-01
 -1.4601831e-01
  1.9482334e-01
  1.4378810e-01
 -1.0121746e-01
 -2.4177900e-01
 -2.6034772e-01
 -3.0303502e-01
 -7.1697317e-02
 -5.2798605e-01
  1.0001684e+00
 -1.2151521e-01
  3.0713588e-01
 -3.2432668e-02
  1.4350607e-01
 -9.1426402e-02
 -1.6450629e-01
  1.0161591e-01
 -3.8445875e-01
  2.2063403e+00
  6.4305520e-01
  1.0223373e+00
  9.6892530e-01
 -4.0665212e-01
  8.5473156e-01
  9.9897310e-02
 -1.2141124e-02
  6.1577268e-02
  2.4498492e-01
  4.6360606e-01
 -1.0873247e-02
  5.1383621e-01
 -4.7443742e-01
  4.4093862e-02
  2.5408933e-01
 -1.3032881e+00
  1.6015958e-02
 -6.0623008e-01
  2.3342983e-01
  5.0576979e-01
 -6.9746572e-01
  2.3277855e-01
  3.9264125e-01
  1.7534535e-01
  1.5565312e-01
 -6.2934482e-01
 -1.0367398e+00
  3.1654280e-01
 -9.8530799e-02
 -2.3113005e-01
  4.7708261e-01
 -6.1638290e-01
  1.5345957e+00
  1.0655456e+00
  5.2988476e-01
  4.0471101e-01
  8.7137043e-02
 -4.8141908e-02
  2.7931666e-01
  5.9920043e-01
 -3.5388365e-01
  3.1176242e-01
 -1.1742003e-01
  8.2365222e-02
  5.5228539e-02
  3.3037256e-02
  5.6780863e-01
  6.6099012e-01
  7.5495750e-01
  2.4094874e-01
 -1.6466677e-03
  3.1091550e-01
 -3.1179073e-01
  1.9075105e-01
 -1.0818886e-03
 -1.6438836e-01
  3.3707810e-03
 -1.5901432e+00
 -3.0018729e-01
 -1.5426344e+00
  6.1693434e-02
  2.3930025e-01
  3.1007704e-01
  3.9522573e-01
  6.3765555e-04
  4.8652065e-01
 -6.7268312e-03
 -3.7935503e-02
 -7.0769727e-01
  9.2790321e-02
 -2.4881244e-02
  1.6644573e-01
 -1.7943169e-01
 -3.7618045e-02
  7.4948920e-03
 -8.5694835e-02
 -1.5648748e+00
  3.3985788e-03
 -1.4475584e-01
 -7.6970253e-03
 -1.4120175e+00
  1.6781955e+00
 -2.6328018e-01
  2.1460166e-02
 -1.4517359e-02
 -4.7137480e-02
 -4.3678817e-01
 -5.3445127e-02
  1.0796448e-02
 -2.4716961e-03
 -1.8368246e-01
  3.0671772e-02
 -5.0044946e-02
 -7.5459769e-03
  2.2166045e-01
 -4.0316943e-02
  2.2483919e+00
 -1.2704895e-01
 -5.2831065e-02
  1.5777771e-01
  1.5539917e-01
  9.0340391e-02
  5.3910471e-02
  8.2160771e-02
  7.9627760e-02
 -5.8351597e-03
 -1.3856131e-01
  4.6292726e-02
  2.0853428e-02
 -8.3134286e-02
 -2.4667379e-02
 -4.8967108e-02
 -1.0235216e-01
 -1.5646556e-01
 -1.3985193e-01
 -1.3958581e-02
 -9.0738744e-01
 -1.4615214e-01
  4.6061225e-02
  8.5021025e-01
  1.9272448e+00
  1.2837199e+00
 -2.8017303e-01
  3.5761461e-01
  2.2998345e-01
 -1.7031792e-01
  5.8797222e-01
 -1.1626583e-01
  4.8340645e-01
  1.5038260e+00
  1.9633971e-01
  1.0984051e+00
  6.1149795e-02
  7.5225741e-01
  2.9668102e-01
  1.8155603e+00
  2.3893881e+00
  2.6279998e-01
  5.2619916e-01
  5.8784831e-01
 -8.8614114e-02
  5.9579706e-01
 -3.5721242e-02
 -7.1835093e-02
 -6.8535626e-02
 -3.8410872e-02
 -1.2470369e-01
 -4.0526547e-02
  2.8156415e-02
 -1.4469774e+00
  1.9436124e-01
 -8.6301631e-01
  3.7946978e-01
  1.2755406e+00
  1.7614574e+00
  5.2186228e-02
  2.3666945e+00
 -6.4750850e-02
 -8.0189544e-01
  1.1433927e+00
 -4.6752268e-01
  1.8309305e+00
 -1.8667057e-01
  1.7303039e+00
  6.5575399e-02
 -1.8557644e-01
  1.9223123e+00
 -5.3377646e-01
 -1.4267232e-01
  2.7010712e-01
 -2.7155593e-01
  1.5501213e+00
 -7.5712615e-01
  2.7762149e-02
  2.7751094e-01
  7.3216063e-01
 -1.7586206e-01
 -2.5109733e-03
  3.7677863e-01
  3.5936248e-02
 -6.9795929e-02
  6.5718256e-02
 -5.6937832e-01
 -3.4131059e-01
 -1.4528711e-01
 -5.1126730e-02
 -3.0746039e-02
 -5.3594440e-02
 -8.0212288e-02
  2.1746083e-01
  3.9697227e-01
 -2.4881901e-01
 -3.8043596e-02
 -1.1477432e-01
 -2.8349625e-02
 -1.2539131e-02
  1.0697403e-01
 -4.1476890e-02
  8.9707673e-02
 -4.4607393e-02
 -6.3724652e-02
 -1.2828273e-01
 -1.4194682e-01
 -9.1715857e-02
 -2.7586406e-02
  3.1198496e-03
  5.0631788e-02
 -7.8092986e-03
 -1.2069097e-02
 -7.7339798e-01
 -2.0692372e-01
 -1.5584440e+00
 -3.2524151e-01
  1.0343871e+00
 -2.5859442e-01
  2.1575160e+00
 -5.4389555e-02
 -2.6966058e-02
 -1.6688517e-01
  4.2413600e-02
  7.9374379e-03
 -3.6331880e-01
  1.5415767e-02
 -1.8590838e-02
 -1.0755847e-01
 -1.1463773e+00
  3.8544405e-02
 -1.2314843e-01
 -5.9380734e-01
 -1.4003336e-01
 -9.6323347e-01
 -6.0349014e-02
  6.7672722e-02
 -1.9937648e-01
  2.5892425e-02
  5.8231172e-03
  9.0957537e-02
 -2.3275545e-01
  1.2830045e-02
 -2.7202196e+00
 -3.8925937e-01
  6.5913242e-01
 -1.1440715e+00
  2.1543553e-01
 -2.0441440e-01
 -2.5776589e-01
 -7.1605915e-01
  1.1231753e-01
 -2.3274532e-02
 -6.5942252e-01
 -1.2281853e+00
 -1.8693924e-01
  7.5798649e-01
 -2.3585187e-01
 -3.2845560e-01
 -5.3739089e-01
  7.7926195e-03
  6.0084563e-01
 -8.6937025e-02
 -5.6477213e-01
  6.8673080e-01
 -1.0997956e-01
 -8.1889385e-01
 -8.1435341e-01
 -1.2669297e-01
 -5.4371726e-02
  1.3577297e-01
 -1.3882903e-02
 -1.4958817e-01
  8.6912222e-02
  6.1553031e-02
 -3.9273355e-02
 -3.7639260e-02
 -1.6214558e-01
  5.7440441e-02
 -1.0171082e-01
 -9.7349033e-02
 -1.8547124e-01
  2.1340352e-02
 -2.4000408e-01
  1.8098715e-01
  1.2466317e-01
 -1.4102248e-02
  3.5783801e-02
 -8.4035978e-02
 -1.8460213e-01
  2.0591015e-02
  3.6076363e-02
 -1.3646613e-01
 -2.6030847e-01
 -4.4007618e-02
 -3.5498893e-01
  2.8638533e-04
  6.0355263e-03
 -9.0186685e-02
  6.7855310e-01
 -1.1940427e-01
 -1.8047938e-02
 -8.5713781e-02
 -1.0911629e+00
 -3.0772346e-01
  9.7355211e-01
 -6.9240588e-01
 -1.0652133e+00
 -2.5941509e-01
 -1.4034019e-02
 -1.5669789e-02
 -5.0345395e-02
  1.1788883e-01
 -4.2428493e-01
  2.8988668e-01
 -3.1740837e-02
 -1.4137979e-02
  9.4636261e-02
  1.0727804e-02
 -2.7177840e-01
 -8.3617136e-02
 -7.3752351e-02
 -8.6977690e-02
 -2.0415314e-02
  8.6223856e-02
  1.6948892e-01
  2.9834002e-01
 -5.0804764e-02
 -2.1557575e-02
  9.1824666e-02
 -1.2470510e-01
 -1.1376403e-01
 -1.6024798e+00
 -2.4798708e+00
 -9.1980293e-02
  4.9067974e-01
 -1.4464043e+00
  2.4503894e-01
 -1.8957046e+00
  2.4083415e-02
  3.7311485e-01
 -3.7085018e-03
 -9.1776252e-01
 -7.2446424e-01
 -7.3182428e-01
 -1.5694630e-01
 -1.1073177e+00
 -1.3066021e-01
 -1.3116928e+00
  3.4558550e-01
 -4.7962672e-01
  6.9101608e-01
 -5.8951348e-02
 -3.9512636e-03
  3.7240967e-01
  1.4197016e+00
 -6.4658904e-01
  8.2317239e-01
 -7.7716157e-02
 -1.0462353e-01
 -4.5844439e-01
  1.1140547e+00
 -2.9024363e-01
 -1.5921744e+00
 -1.1082599e+00
  3.8029337e-01
 -1.3991618e+00
 -6.0145175e-01
 -1.7600586e+00
 -7.6898110e-01
 -6.8892014e-01
 -2.1635140e-01
  5.7932962e-02
 -1.2127198e-01
  1.0776002e+00
 -3.8441527e-01
  7.4177012e-02
  4.4563907e-01
 -1.4581320e+00
  1.5530310e+00
 -7.6379514e-01
  3.9472988e-01
 -1.4227189e+00
 -7.8594834e-01
  3.9864126e-01
 -2.7072225e-02
  1.9763583e-02
  4.5910650e-01
  1.7083162e-02
 -3.7908036e-01
  3.5477962e-04
 -2.8280592e-02
 -2.8450879e-01
  6.7394167e-01
  5.7630006e-02
  9.5717806e-01
  7.1459585e-01
  6.5244079e-02
 -6.7513937e-01
  1.0457507e-01
  7.5167902e-02
 -6.9077659e-01
 -4.3514527e-02
  5.6389995e-02
 -1.0766233e-01
  1.0340679e+00
  1.1390448e-01
 -1.7768377e-02
  3.4201674e-02
 -2.9598081e-01
 -3.1355251e-02
  4.7914204e-03
  1.4689378e-01
  4.4411849e-03
  2.8565187e-02
  1.9092934e-02
 -2.3807403e-02
  2.1290797e-01
  2.4211967e-01
  1.1424740e-01
  1.2063032e-01
  1.5035617e-01
  1.7672426e-01
  9.6396632e-02
  2.3183690e-01
  1.1316916e+00
  1.5276940e-01
  5.4958498e-01
 -1.5491523e-01
  1.3948765e-01
  8.4883168e-02
  3.6983779e-01
  4.1402793e-01
 -2.6558502e-02
  7.1328156e-02
  9.7912118e-02
 -1.1039147e-01
  1.6985875e+00
  1.0147873e-01
  1.4875336e-01
 -1.2384802e-02
 -1.7880563e-02
  4.3931115e-02
  1.5052895e-02
  4.6825886e-01
  5.9286433e-01
 -6.7453705e-02
  8.2965903e-02
  7.5705215e-02
  4.6439830e-02
 -1.3313294e-02
 -5.3963911e-02
  4.2355558e-01
 -3.3453187e-01
  3.1308687e-01
 -3.7175095e-01
  4.0385169e-01
 -1.6988090e-01
  1.8985642e-01
 -5.8148766e-01
  8.6613454e-02
 -4.7522373e-03
 -2.8113195e-01
  1.7941412e-01
  1.6871491e-01
  4.7314188e-01
  3.0122277e-01
  9.7584210e-02
  1.0601575e-01
 -1.6269175e+00
  1.9884688e-01
 -2.0185772e-01
  1.1856000e-02
 -3.0496156e-02
  1.0873044e+00
  3.0511206e-02
 -1.9429397e-03
  3.1736714e-01
  3.5036169e-02
 -2.6490307e-01
  2.1025553e-01
  1.2166125e-01
  1.5075374e-01
 -1.3850391e-01
 -9.0073407e-01
 -1.7527787e-01
  1.5703276e-01
 -2.1203947e+00
 -1.9458763e-01
 -9.3563296e-02
 -2.1644683e-01
 -8.6599231e-02
 -6.5404293e-03
 -6.6449332e-01
 -7.9916269e-01
 -9.3677479e-01
  7.0197061e-02
  2.4417112e-02
 -2.5926197e-01
 -9.2899209e-01
 -6.6964847e-01
 -2.8302830e-01
 -5.3896487e-01
  1.2443471e-01
 -2.5243993e+00
 -4.2400426e-01
 -8.5835087e-01
  2.0694181e-01
 -4.7633074e-02
  1.9723855e-01
  2.7851734e-02
  5.7868650e-03
 -3.3762673e-01
  2.7115755e+00
 -3.5288543e-01
  3.8854156e+00
  9.6254998e-01
 -1.8200470e+00
  2.0592818e-01
 -9.8389378e-03
  9.3586877e-02
  7.1196949e-01
  1.6549767e+00
  2.0384642e-01
  1.4752059e+00
 -4.4219866e-01
 -1.5439298e+00
 -6.0912305e-01
  1.1413137e+00
 -1.5637133e+00
 -1.4068447e-02
  1.1292955e+00
 -1.0718215e-01
  1.6018207e-01
  1.1403159e+00
  1.8094121e-01
 -1.9805485e-01
 -2.5467420e-01
  1.8568024e-01
 -2.7775535e-01
 -3.2281455e-02
 -1.1021987e-01
 -1.1862642e-02
 -5.3377235e-03
 -1.5290336e-01
 -9.7648442e-02
 -4.2035416e-01
  1.5166779e-01
 -2.1847491e-03
  1.0596180e-02
 -1.4490519e-01
 -2.9031403e-02
  1.1458540e-01
 -1.8367141e-01
  2.5621879e-01
 -1.8411997e-01
 -3.2462191e-02
  1.8282991e-02
  8.3833992e-02
 -6.6018007e-03
 -1.0556985e-01
  5.6494242e-03
 -9.0502417e-03
 -4.4683356e-02
  4.7143172e-02
  3.0532217e-02
  7.3812343e-02
 -3.5035443e-01
  4.5435119e-02
  1.7575640e-02
  1.7867647e-01
 -1.6703761e-01
 -2.2672980e-01
  3.5663304e-01
  5.0268465e-01
  3.7036586e-01
  1.3961701e+00
  1.8037050e+00
  5.2533954e-01
  2.6433410e-02
  6.2527293e-01
  6.1364368e-02
 -1.1685213e-01
  9.4911653e-01
 -8.5878462e-01
  4.5797968e-01
 -6.0031164e-01
 -6.0074985e-01
  1.5208914e+00
 -1.3367295e+00
  8.5607314e-01
  8.2679087e-01
  1.7412944e+00
  6.0764998e-01
 -1.2209310e-01
  6.4346576e-01
 -9.9521375e-01
  1.7499410e+00
  2.9688919e-01
 -7.2600521e-02
 -1.1723018e+00
  1.6023996e-01
  6.5591341e-01
  2.4127445e-01
 -2.4211140e-01
  6.2114812e-02
 -9.0956324e-01
 -8.6156197e-02
 -2.6561948e-02
 -3.1201762e-01
 -2.1768430e-02
 -5.8610636e-01
  1.6495645e-02
 -5.5773664e-02
 -9.5718108e-02
 -4.1254379e-02
 -3.3916745e-03
  1.8474254e-01
 -8.6874940e-02
 -7.2737712e-01
 -1.8319078e-02
  4.9530394e-02
 -2.7730569e-02
 -5.1432215e-02
  1.4119610e-01
 -7.7021539e-02
  5.9423778e-02
  1.1403103e-01
 -9.4506621e-02
  1.0363037e-01
 -6.5752551e-02
  2.0804031e-01
  2.9367706e-02
  1.6240185e+00
 -6.2532187e-01
 -1.0191551e+00
 -1.6157312e+00
 -7.3791945e-01
 -6.3005108e-01
  5.0456166e-01
 -6.1111957e-01
  1.4481954e-01
  5.7108539e-01
 -5.5739039e-01
 -1.6525191e-01
 -8.0503452e-01
 -3.7907243e-01
 -3.2313772e-02
 -1.7383473e-01
 -4.4610995e-01
 -1.2405115e+00
 -3.8074809e-01
 -1.7087283e-02
 -7.6571530e-01
 -3.7984587e-02
 -1.3071034e+00
 -3.7964749e-01
 -2.1887276e-01
 -1.3877497e-02
 -1.1216608e-01
 -6.4710863e-02
 -9.6546555e-01
 -4.0152696e-01
 -7.5777173e-02
  2.3391459e+00
 -2.1791020e-01
  7.0795387e-01
  1.3625178e+00
 -1.8413945e-01
  4.5705531e-02
 -9.2537500e-02
 -8.6719923e-02
 -6.5967143e-02
  4.6303928e-01
 -8.1800357e-02
  3.7308696e-03
 -4.2195368e-01
  5.4608446e-02
 -7.7869013e-02
  5.2488393e-01
  1.9619127e-01
  1.1663347e-01
  1.0978787e-01
 -2.6895475e-02
 -1.9794235e-01
  1.0964695e+00
  7.3244244e-02
 -1.2720791e-01
  3.8566481e-02
  1.3840809e-02
  1.9270778e-01
  6.7527190e-02
  7.6952137e-02
 -8.1978500e-02
  4.6564728e-01
 -2.4617990e-02
  6.2270451e-01
  3.3652791e-01
  1.3997449e-01
 -4.8427305e-01
  3.2111418e-02
  3.1396016e-02
 -3.3875719e-02
  1.7664160e-01
  1.6611947e-02
 -4.9330253e-02
  1.9584174e-01
  2.9059923e-01
 -3.9494252e-01
 -6.8992466e-02
 -2.5381939e-02
  4.2983599e-02
  1.2261099e-01
 -1.1353816e-01
 -1.0566383e-01
 -4.5263134e-03
 -3.0856080e-02
  1.1738518e-02
 -4.8914887e-02
 -2.2369475e-04
 -2.8821561e-01
  2.3993134e-01
 -2.1098649e-02
 -2.1783236e-01
 -1.7031446e-01
 -1.8215507e+00
 -5.9094203e-01
 -1.3302335e+00
 -4.9841020e-01
 -1.0955234e+00
 -9.9935460e-01
 -8.3504373e-01
 -4.8728028e-01
 -1.5069835e-01
 -1.0237113e+00
 -7.2669148e-01
 -4.9468714e-01
  1.7240398e-01
 -1.0769968e+00
 -7.7613169e-01
  2.3405175e-01
  7.6242369e-01
 -4.0737178e-02
 -6.1442912e-01
  1.0161321e+00
 -7.3389626e-01
  2.7159885e-01
  1.6432256e-01
 -1.0556626e-01
  5.4933019e-02
  2.9575521e-02
 -1.0467570e-01
  1.1357045e-01
 -2.5413197e-02
 -7.3104990e-01
  5.2011902e-03
 -9.1691867e-02
 -9.0840822e-03
 -2.8401658e-01
 -1.4262415e-01
 -3.9858907e-02
  8.7361194e-02
  2.5840184e-02
  4.3450102e-02
 -7.5842962e-02
 -8.0475785e-02
 -1.0409518e-01
 -2.3566089e-03
  2.5988959e-02
  1.4941830e-02
 -7.3147997e-02
  8.9436002e-02
 -3.3492792e-02
  8.2516921e-01
  5.3286955e-02
 -1.9195057e-01
  1.2410460e-01
 -3.2734558e-02
 -1.2286771e-01
 -2.5490387e-03
 -2.9344291e-03
  1.2121482e-01
 -2.0056361e-01
 -1.6559096e-02
 -2.8440377e-01
 -4.9686611e-01
  8.7402469e-01
  2.4028125e+00
 -7.5918931e-01
  4.0994492e-01
  1.2770275e+00
  1.4484800e+00
  3.3414472e-02
  1.4348980e+00
 -2.2096119e+00
 -1.6920271e+00
  1.7691298e-01
  4.1701958e-01
 -1.7812626e+00
  8.6485493e-01
  1.6787829e+00
  2.8431907e-01
 -1.2402309e+00
 -3.1268612e-02
 -1.5607211e-01
  1.0584952e+00
  3.6931977e-01
  1.3080484e+00
  9.9930644e-01
  5.0480004e-02
 -9.7030175e-01
 -9.6836746e-01
  1.0280845e+00
  3.4228515e-02
 -3.4245923e-02
  1.2358086e-01
 -5.0849319e-01
  1.1424367e+00
  4.6936515e-01
  6.0220212e-01
 -2.6961988e-01
  1.2171563e+00
  2.0433738e+00
 -9.4333893e-01
 -8.0775368e-01
 -1.1207172e+00
 -1.6700482e-01
 -3.9072299e-01
 -2.0994906e+00
 -1.6532919e+00
  3.3367077e-01
  2.8085664e-01
  1.5193602e+00
 -1.0810032e+00
 -2.4346974e+00
 -4.0310946e-01
  2.3993077e+00
 -8.9109093e-01
 -1.4024638e+00
  7.0802939e-01
  5.3993869e-01
 -1.0249223e+00
 -4.5087525e-01
  1.8372774e+00
 -1.5819968e-01
 -4.2520275e+00
 -2.5286785e-01
  4.8451338e+00
  2.1282070e+00
 -2.1872692e+00
 -3.5946064e-02
  2.4120936e-01
 -1.6641277e-01
  8.9347994e-01
 -5.1256627e-01
 -1.2748944e+00
 -2.6465902e+00
  9.9797593e-03
  6.3197303e-01
 -1.2079583e+00
 -1.3849454e+00
 -2.0452315e-01
  3.6532299e-03
  1.6576604e+00
 -1.6150299e+00
 -5.2582729e-01
 -3.3588192e+00
  6.1712277e-01
 -3.1203768e-01
 -2.9708359e-02
  8.0941349e-02
  3.8244549e-02
 -1.1143783e-01
  1.1335473e+00
 -3.7611765e-01
  7.0195657e-01
  5.6806564e-02
  1.5586638e-01
 -4.7443237e-02
  1.6651914e-01
  3.1550564e-02
 -2.0034995e-02
  9.3176708e-02
  3.0994350e-02
  5.9681022e-01
  3.2171667e-02
  2.7786043e-01
  4.0068343e-01
  2.0262048e-01
 -1.0443430e-03
  3.0111226e-01
 -8.0730304e-02
  1.4913057e-02
  1.0069083e+00
 -7.3868963e-03
  9.2044300e-01
 -1.0805239e-01
  5.6090802e-01
 -5.4262228e-02
  8.4908843e-02
  2.0443162e-01
  8.1817836e-02
  6.9630153e-02
  1.0544889e+00
 -4.2699543e-01
 -1.3305006e+00
 -2.1709569e+00
 -1.2913419e-01
  1.6308134e+00
 -4.4916356e-01
 -7.9813683e-03
 -3.1246093e-01
  1.5358968e-01
  1.2683848e+00
 -3.5417688e-01
  5.0486618e-01
 -1.0929419e-02
 -5.1421218e-02
  1.5513061e+00
 -1.0039940e+00
  4.0858883e-01
  1.5268624e-01
 -1.5780739e+00
 -2.7774256e-01
 -8.3629386e-03
  2.6743937e-01
  2.2588618e+00
 -6.3591801e-02
 -2.4059224e-01
  4.0804897e-03
 -6.8755753e-02
  7.3789679e-02
 -4.4745695e-02
  2.3989342e-01
 -1.2193099e-01
 -1.2727861e+00
  1.3701539e+00
  1.6955471e+00
  1.3022439e-01
  1.0468065e-02
  2.8421801e-01
  6.3809782e-01
  2.6870298e-01
 -1.8894631e+00
  2.9019573e-01
 -5.8116925e-01
  9.3254857e-02
  4.8765622e-02
 -1.0106288e+00
 -1.5469038e+00
  5.0312936e-01
  1.0620912e+00
  3.9352965e-02
 -3.7904146e-01
 -3.2078922e+00
  3.1089652e-01
  2.1624281e+00
 -1.1054385e+00
 -1.5322024e-01
  9.0530358e-02
 -9.7512558e-02
  1.5048797e-01
 -1.5858319e-01
 -1.0803753e-01
 -1.3064171e-01
 -9.9157624e-02
 -2.1174850e-02
  3.1253997e-02
  2.4192014e-03
  1.3585007e-02
  1.7911902e-02
  3.5396755e-02
  2.1491842e-02
 -6.2056758e-02
 -7.0201479e-02
  2.1899427e-01
  7.9002053e-02
  1.6585845e-01
  6.5055050e-02
 -2.6574709e-02
  1.7108180e-01
  3.8408160e-02
 -1.2240382e-01
 -1.6697676e-01
 -5.3595837e-02
  2.1948051e-02
  3.3014260e-02
  1.1108037e-01
 -5.0477754e-02
 -6.4674555e-04
  2.9288108e-02
  5.2560937e-01
  1.1334943e-01
  4.6120581e-01
 -1.7277411e-01
  5.1169281e+00
 -1.7059491e+00
 -2.7920372e+00
  1.3212015e-01
 -1.0852424e+00
  1.3159747e+00
  8.9875203e-01
  2.9680097e-01
  3.6779100e-01
  6.5471309e-01
  2.5835487e-01
  4.9668455e-01
 -5.8180857e-01
  8.8011749e-02
 -7.2909623e-01
  2.1858068e+00
 -5.2405447e-01
 -1.5809549e-01
  1.6198714e+00
 -1.3704616e+00
 -3.3529662e-02
  5.8939075e-01
  4.1108352e-01
  5.3436883e-02
  2.3498517e-01
  1.3898808e-01
 -4.7918054e-01
 -2.9484661e-02
  1.3607386e-01
  9.5711984e-02
 -2.2879384e-02
 -4.4539756e-01
  2.6169303e-01
 -1.0006015e-02
 -6.0087465e-02
  1.1632929e-03
 -1.1874418e-04
 -2.9000783e-02
 -3.2499366e-02
  2.9368117e-01
 -8.7357575e-01
 -7.2894534e-03
 -2.5904876e-01
  3.8309067e-01
  3.0683117e-02
  4.6452824e-03
 -1.2906536e-02
 -7.0621394e-02
  1.4187873e-03
 -1.0021855e-01
  3.5132624e-02
  8.8953927e-02
 -5.1104881e-02
 -2.5732098e-02
  3.1766970e-02
  1.9797719e-01
  2.8203316e-02
  1.7275979e-01
  3.8409293e-01
 -1.5402017e+00
 -1.3435415e+00
  3.4395871e-01
  1.0869205e+00
  2.1851579e-02
  1.5179858e+00
 -2.7750354e-02
  1.2159469e+00
  1.0638804e-01
 -2.7383366e-01
  1.7718185e-01
 -7.9768993e-02
 -4.5963008e-02
 -4.1702083e-01
 -7.9569489e-01
  5.4210670e-02
 -7.4842542e-01
  6.7051910e-02
 -1.0196679e-02
  1.4278404e-01
  5.8491683e-01
 -1.3504660e+00
 -1.4490064e-02
 -5.6999165e-01
 -2.1765807e-01
  9.0545667e-03
 -6.0462618e-01
 -5.4449555e-02
 -6.7097887e-02
 -2.2280352e+00
  2.2180240e-01
  1.2451809e-01
 -7.9976894e-02
  1.1597239e-01
  4.4727519e-01
  6.8426907e-01
 -2.4947554e-02
  4.4643781e-01
 -2.5029075e-01
  1.2525483e+00
 -1.7218729e-02
  6.6990846e-01
  9.6811518e-02
  1.3772476e+00
  6.7105168e-01
  1.4961430e-01
  3.3402377e-01
  8.6752459e-02
 -1.7000711e-01
 -2.3054516e+00
  6.4198412e-02
  2.0079575e-01
 -8.6465674e-03
  6.6981919e-02
  2.2482842e-01
  3.0648459e-02
  5.9304878e-02
 -4.1533694e-02
  2.9502772e-02
  7.6877013e-02
 -3.9188132e-01
  1.7183840e-01
  2.9404372e-01
 -2.1125732e-01
 -2.7967164e-02
  3.3239581e-02
  3.7626758e-02
 -1.7575552e-01
  5.5788709e-03
  2.6958013e-01
 -2.9224979e-03
 -2.9466802e-01
  1.2752238e-02
 -1.6072696e-01
 -3.9767861e-02
 -6.9664538e-02
  1.5799870e+00
  3.1459127e-02
  9.1219656e-02
  8.3977711e-01
  4.0456213e-02
 -7.0427179e-02
 -9.2148468e-02
  1.1032150e-01
 -1.2855855e-01
 -2.1140855e-02
  2.8246552e-01
 -2.1219231e-02
 -3.0566331e-02
  2.3007257e+00
 -1.3554271e+00
 -1.0869370e-01
 -1.2588645e+00
  1.5794328e+00
  1.8163034e+00
 -1.6676914e-02
  1.0712636e-01
 -7.0786172e-01
 -1.6574841e+00
 -1.9515805e-01
  1.2193865e+00
  3.4163460e-02
  2.9615436e-02
 -3.8497724e-02
  5.0472564e-01
  6.0807693e-01
  1.5900472e-01
 -1.8858311e+00
 -1.1931970e+00
  2.3138964e+00
  3.1086497e+00
 -5.7991201e-01
 -8.9877772e-01
 -5.8306575e-01
  3.1246704e-01
  9.5555745e-03
  7.1129777e-02
  9.3459263e-02
 -7.7730767e-02
  3.0796194e-01
 -1.1217657e+00
 -1.2095106e+00
 -6.3848996e-01
  2.1954519e-01
 -1.5933588e+00
  2.0529632e-01
 -1.5784904e+00
  5.8455414e-01
 -7.0128018e-01
  1.6769879e-01
 -9.2151386e-01
  4.6687964e-01
  2.2656765e-02
 -1.5845757e+00
 -5.9804320e-01
 -2.1470603e-02
 -6.1424345e-02
  3.3635640e-01
 -6.5916252e-01
  7.4899040e-02
 -5.4160154e-01
 -4.3941367e-01
  2.2315495e+00
 -5.7067358e-01
 -1.2944835e-01
  1.6467663e-02
 -3.2191235e-01
  1.2702103e-01
  2.2084166e-01
  5.1764649e-01
 -3.6261398e-02
  4.6710598e-01
  4.9187773e-01
 -3.7048247e-02
 -6.7166662e-01
 -1.1923613e-01
 -6.2698233e-01
 -4.1357748e-02
  5.4479133e-02
 -1.2186707e-01
  1.1446619e-01
 -1.7435318e-01
 -4.3295898e-02
 -1.4116419e-02
 -2.0373194e-02
  5.0175905e-01
 -2.8552588e-02
  1.3576375e-01
 -2.9951142e-02
  2.8388661e-01
  1.7326657e-01
 -7.8918718e-02
 -5.6907251e-03
 -1.0962304e-01
 -3.4007274e-02
  3.9241139e-02
 -1.0697153e+00
  2.0112158e-01
  4.0676753e-04
 -1.4352027e-01
 -3.2832932e-01
  4.1395623e-02
 -6.4160734e-02
 -1.6116999e-01
  2.5512382e-01
 -1.2707162e-01
 -4.3231074e-02
  8.1586726e-03
 -2.9188502e-01
  7.7586359e-01
  4.5007393e-01
 -2.3061873e-01
  1.5355688e-01
 -1.0276661e-02
 -1.2150217e-01
 -7.2889537e-02
  3.7125882e-02
  6.6607690e-01
 -1.0607067e-02
  1.8099943e+00
 -1.8787540e-01
 -2.2077010e+00
  1.2690623e-03
  2.4732701e-01
  2.4514483e-01
  1.3099225e-01
 -2.9648678e-02
  1.1068925e-01
  2.4851803e-01
  1.1901665e+00
  2.5422007e-01
  1.1187320e-02
  6.3780606e-01
 -1.8772119e+00
 -4.9028382e-01
  5.0871521e-01
  1.9821703e-02
  1.5447938e-01
 -2.0047863e-01
  5.8421988e-02
 -1.2111579e-03
  1.1004521e-01
  1.5422684e-01
  1.0943695e-01
 -9.9477790e-02
  2.2046762e-02
 -1.9539835e-02
  1.5813284e-02
  5.5957694e-02
 -3.6808472e-02
 -1.8541338e-02
  3.2078752e-01
 -7.4153721e-02
  1.5910083e-01
  2.6653305e-02
 -5.3263742e-02
 -1.4578741e-02
  8.7575488e-02
  9.5807262e-02
  4.6175691e-01
  2.2351572e-01
 -1.3741383e-01
 -9.1692008e-02
 -2.0698862e+00
 -1.7410107e-01
  1.0103723e-01
  3.6048737e-01
  7.1586468e-03
 -1.8764952e-01
 -3.9199142e-05
 -2.7741505e-02
 -1.1979126e-02
 -6.1061338e-02
  1.4299752e+00
 -1.3555567e+00
  9.5831424e-02
 -6.5122491e-01
  2.4359907e-01
  5.6283418e-02
 -3.3077127e-01
  1.2883195e+00
  7.4096149e-01
 -1.4750084e+00
 -3.8988882e-01
 -2.1070765e-02
  5.3524785e-02
  2.7636018e-02
 -2.4688731e-01
  1.5064503e-01
 -4.1811422e-01
 -5.2236128e+00
 -4.0360742e+00
 -1.6733378e+00
 -1.7509165e+00
 -1.9506905e+00
  4.9156398e-01
 -5.1077032e-01
 -6.5791737e-03
  6.4095125e-02
 -9.5208108e-01
  9.4973586e-02
 -1.5194218e+00
 -1.7566241e-03
 -7.7383626e-01
 -5.5882114e-01
 -1.1962370e-01
 -1.8811888e+00
  4.3086097e-01
  2.8852400e-01
 -3.2094076e+00
 -3.4945488e+00
 -1.7996147e+00
 -3.1576544e-01
 -1.1090613e-01
  7.3973364e-03
  3.6876968e-03
 -1.3162649e-01
  1.1391784e-02
  5.6204725e-02
  1.0066416e+00
  2.8607023e-01
 -2.7175410e+00
 -1.5241033e-01
  2.0372155e+00
 -2.5967258e-01
 -1.3968366e+00
 -7.3498756e-01
 -1.6250950e+00
 -2.3732473e-01
  4.1657895e-01
 -1.1243116e+00
  4.5801666e-01
 -2.2164708e-02
 -1.5002679e+00
 -3.0584359e-01
  6.6675532e-01
 -1.4640953e-01
  7.9649681e-01
 -1.4791161e+00
 -5.6777066e-01
 -4.5012581e-01
  1.3567475e+00
 -3.2762849e-01
 -1.1864080e+00
 -9.9085324e-02
 -1.0161210e-01
  1.6432843e-01
  4.7190610e-02
  3.6422810e-01
 -2.3965649e-01
  6.9305528e-04
 -9.7719975e-02
  2.5871301e-02
  2.1694666e-02
  5.0578006e-02
  4.7005832e-02
  3.1008837e-01
  3.4502304e-01
 -6.4571150e-02
  1.4841753e-01
  5.5293884e-02
  7.6965258e-02
 -9.2523739e-02
  2.6990356e-02
  3.1492737e-01
  4.3519083e-01
  3.6125191e-02
  3.5770303e-01
  8.8743530e-02
  1.2837137e-01
  1.8935618e-01
 -1.3839118e-01
  3.0240605e-03
  2.0413091e-02
  6.7866713e-02
  1.2734507e-01
 -1.5281221e-02
 -2.7811650e-02
 -1.0982439e-02
 -4.7727156e-01
 -5.1375431e-01
  1.1299877e-02
 -2.6117134e-01
  1.4633849e-01
 -2.6356711e+00
 -4.0862852e-01
 -2.0336760e-03
 -4.0491286e-01
 -3.3252187e-02
  2.2190019e-01
 -9.1073290e-02
  1.2846887e+00
 -1.4462939e-01
  4.2678240e-01
  1.1449052e+00
 -9.6463747e-02
  3.0627133e-02
 -3.8694102e-01
  4.5275893e-02
 -2.1477845e+00
  1.0166299e+00
  8.3740282e-01
  5.2793503e-02
  2.5704253e-01
  2.0744110e-02
 -1.1766502e+00
 -3.1389032e-02
  1.4458749e-02
 -2.0207182e-02
  1.2879646e+00
 -1.0967557e+00
  6.8598562e-01
  1.0500141e+00
  1.2104651e+00
  1.5979363e+00
 -2.2521554e-02
 -6.8891756e-02
  1.7920922e-01
 -1.6700567e-01
  7.4731123e-01
  2.7281231e-01
  5.3672343e-01
  1.6235057e-01
  5.6302357e-02
  4.0881503e-01
 -6.7005962e-02
  5.1865017e-01
 -3.4425519e-02
  1.3924784e-03
  1.7083611e+00
  3.1960838e-02
  6.8689549e-01
  1.0905801e-01
  1.5449107e-01
 -6.4796221e-01
  5.8782890e-02
  3.0830121e-01
  3.6581915e-02
  1.7408306e-02
  4.8659430e-03
  2.3749640e-02
 -1.7747271e-01
  1.2779935e-01
  5.1308181e-03
  2.0252995e-01
  1.0128985e-01
 -4.7457363e-02
 -2.7686374e-03
 -9.7807027e-02
 -7.9260185e-02
 -6.5955728e-02
  5.4411221e-02
 -2.9059222e-02
  1.5396303e-02
  2.0636733e-01
  6.3549772e-02
 -2.0640327e-02
  4.2400762e-01
  4.0794425e-02
  7.6810762e-02
  1.7181890e-01
 -3.7536171e-01
 -1.1353618e-02
 -2.2440981e-03
 -5.0977960e-02
 -1.5226960e-02
 -3.7278272e-02
 -1.0477557e-01
 -5.7127744e-02
  6.6920459e-02
 -1.7588946e-01
  9.7449028e-01
 -1.0228739e+00
 -3.8226154e+00
  6.9397050e-01
  7.1616128e-02
 -1.1266345e+00
  7.3096150e-01
  9.6286255e-01
 -1.5950341e+00
 -2.4329066e-02
  1.1039555e+00
  4.3586075e-01
  7.7160755e-03
  1.0925734e+00
 -5.7486558e-01
 -5.9690458e-01
  1.3733310e-02
 -9.1751643e-02
 -7.7334905e-01
  1.3783529e+00
  2.7279964e-01
 -1.4736143e+00
  6.3946880e-02
 -3.0694921e-02
 -5.6294363e-02
  2.4094472e-02
  7.0629694e-02
 -3.1133629e-02
  5.1267838e-01
 -2.3940694e+00
  1.6188345e+00
  7.8804001e-02
  4.1101303e-02
 -1.2466999e+00
  1.0202349e+00
 -5.5521023e-02
  1.2784534e+00
  2.2734241e-01
  3.7391600e-01
  1.1736923e+00
 -7.9058126e-02
  1.1042657e+00
  9.2540270e-01
 -1.8550380e-01
  7.6008260e-01
 -1.2194674e-01
  3.2015443e-02
  1.2010709e+00
 -7.4165565e-01
  5.9948814e-01
  5.8276510e-01
  1.3684845e-01
  4.2980376e-01
  1.9369598e-01
 -1.2830640e-03
 -6.0009401e-02
 -9.2591977e-01
  3.1372704e-02
 -3.2317692e-01
 -4.2058239e+00
 -3.9409053e+00
 -2.8427172e+00
 -1.7659321e+00
 -1.6628840e+00
  7.5905734e-01
 -6.2634778e-01
  1.2752618e+00
  4.6928045e-03
  1.1888839e-01
 -4.0818635e-01
 -9.8605026e-03
  1.9823776e+00
 -9.7856385e-01
 -5.8554403e-02
  1.2886438e+00
 -3.0713212e+00
  1.0390943e+00
 -7.5103259e-01
  3.3371302e-01
 -1.5252670e+00
 -8.5253805e-02
  1.6846550e+00
 -1.8813077e+00
 -6.8072832e-01
 -5.9871089e-02
  1.2626451e-02
 -1.4053565e-01
  4.7389530e-02
  1.5260168e+00
 -2.5156114e+00
 -1.4763877e+00
 -2.2750576e+00
 -9.2533761e-01
  1.4320455e-01
 -1.9229177e-02
 -2.5197828e-01
  4.3987882e-01
 -7.9693392e-02
  8.1843561e-01
  3.1987822e-01
 -8.9686960e-01
 -2.1721303e-01
  4.1628265e-01
 -4.2187640e-01
  5.5576676e-01
 -8.5446310e-01
  5.2978951e-02
 -1.8747000e-01
 -9.9154508e-01
  3.0101216e-01
 -9.3619237e-05
  1.7249018e+00
 -1.0977659e-01
  3.7620343e-02
 -1.2662387e-01
  2.6129533e-02
  2.7362972e-01
 -3.3765081e-02
 -6.0928601e-01
 -1.4527023e+00
 -8.0244374e-01
 -1.2568353e-01
  1.1934842e+00
  5.7050198e-01
 -1.0246733e+00
 -2.1767547e-02
 -4.2991761e-02
 -3.3382699e-01
 -2.7369118e+00
  1.7786128e-02
 -1.1740875e+00
 -1.2819661e-01
  8.0665290e-02
 -3.3186958e+00
  6.0901023e-02
 -9.1163129e-01
  2.8697896e-01
 -6.4813485e-04
 -5.0907836e+00
 -4.8333904e-01
 -1.2055081e+00
 -2.4740654e-01
  1.0554895e+00
  4.7284830e-02
 -1.5095641e-01
  2.8029840e-02
  7.9741053e-02
  2.2548744e-01
  8.4655082e-01
  2.7195919e+00
  2.2591335e-01
  3.9321494e-01
 -2.0222037e-01
 -1.3549462e-01
  5.5808268e-02
  6.3645102e-02
 -2.0290197e-01
 -2.4203733e-01
  2.5572726e-01
  6.1076289e-01
  8.1385517e-01
 -8.7770723e-02
 -1.9046329e-02
 -7.6116109e-01
 -1.1001385e-01
  2.9717529e-01
 -2.2107048e-02
 -1.1004412e-01
  1.0842510e+00
 -1.3020682e-01
 -2.6810329e-02
 -7.0940912e-01
  3.2249198e-03
  2.8037438e-01
 -3.9330304e-02
 -7.8960294e-01
 -1.1224807e-02
 -2.7773014e-01
 -9.1639712e-02
  1.2266616e-02
  1.5388933e-01
 -1.4686891e-01
  8.7103536e-03
  6.1664980e-02
 -7.0051588e-02
  3.7141256e-02
 -1.0196588e+00
 -1.4150789e-01
  3.2723809e-03
 -1.3813417e-02
 -3.2438669e-02
 -9.6261367e-02
  5.4518920e-01
  5.8485318e-02
  1.6848140e+00
  4.9901102e-03
  1.8853892e-01
  8.0280341e-02
  1.5684076e-01
 -2.0386772e-02
 -1.1972082e-01
 -1.8720657e-01
 -2.8565189e-02
  1.2280535e-01
  5.8042072e-02
 -3.8768936e-02
 -2.2794424e-01
 -1.2501512e-01
 -1.6913088e-01
 -2.4498583e-01
  3.1911621e+00
 -1.5042284e-01
 -2.3083773e+00
  2.0305984e-01
  2.1764302e-01
  1.1464145e+00
  1.3398156e-01
  9.0657526e-01
 -3.1839487e-01
  1.9548525e-01
  1.6954182e+00
  1.0575304e+00
  1.6317081e+00
 -1.1286892e-01
  1.4531469e+00
  1.5232221e+00
  6.5228778e-01
  9.9585015e-01
 -5.3174853e-02
  5.2826101e-01
  1.2520361e+00
  8.1058943e-01
  8.1841016e-01
 -5.5671453e-01
  5.7561618e-01
  1.1961566e+00
 -2.4436171e-01
 -1.5351248e-01
 -2.0104752e+00
  1.4415426e+00
 -1.3302912e+00
  1.2567425e+00
  5.9529334e-01
  9.0915012e-01
  7.0948148e-01
 -2.0754633e+00
  5.6368554e-01
 -2.8073150e-01
  1.9041151e-01
 -1.7381719e+00
  4.3911123e-01
  8.0055743e-01
  1.3583243e+00
  3.4958670e-01
 -4.6865669e-01
  2.7183738e-01
  4.7119740e-01
  1.9950345e-01
 -7.7223219e-02
  1.8250754e+00
 -1.2018301e+00
 -3.2278705e-01
 -3.7727803e-01
 -2.9769874e-01
  6.3301146e-02
  5.1539278e-01
 -2.8130779e-01
  1.7485173e+00
 -3.4067566e+00
  5.5708236e-01
 -8.5853410e-01
 -2.8075731e+00
 -8.2526550e-02
  2.0032163e+00
 -3.3555430e-01
 -9.7876292e-01
 -4.2725593e-01
  2.5309584e-01
 -7.7141595e-01
 -1.6040494e+00
  2.4684204e-01
 -5.4518569e-01
  3.9773145e-01
  9.6892452e-01
  1.9635308e+00
 -1.6417631e+00
 -1.3548866e-01
 -4.6166274e-01
 -5.5148476e-01
 -1.7006316e+00
  1.1004092e+00
  9.9418026e-01
  1.9386208e+00
  8.1976551e-01
  7.8982174e-01
 -3.7501436e-01
 -1.0658064e-01
  2.7097154e+00
  3.2997955e-02
 -1.2487359e-01
 -1.0762335e-01
  7.4680012e-01
  2.0563236e-01
  7.6724552e-02
 -1.7982991e-01
 -5.2099679e-02
  5.6082737e-02
  2.8066320e-02
 -2.8606465e-01
 -8.7311834e-02
 -1.9488317e-01
 -3.5885984e-01
 -1.5392713e-01
  1.1818819e-01
  3.0609927e-01
 -1.4015657e-01
 -1.2367219e-01
  5.4307932e-01
 -1.9706166e-01
 -1.5023497e-01
  1.2261271e+00
 -2.8891870e-01
  1.0279688e-01
 -1.1456370e-01
  2.4819405e-01
 -5.7086277e-01
 -7.3486462e-02
  2.3489211e-01
 -1.2332751e+00
  8.9309746e-01
  7.9283297e-01
  6.4749163e-01
  9.1386175e-01
 -3.8967971e-02
  9.4579376e-02
  2.1742730e-01
 -5.6591594e-01
 -5.1300012e-02
  1.6581485e-01
  1.7210993e-01
  1.0017802e+00
 -3.1990477e-01
 -3.6148559e-02
 -7.0504636e-02
  2.0937711e-01
 -3.7768029e-02
  3.1302533e-01
 -8.0949360e-01
 -2.4244353e-01
 -1.0024587e-02
  4.5305505e-02
 -6.3300863e-02
 -5.1204580e-01
  8.2943298e-02
 -1.9768986e-01
  2.5782189e-01
 -1.9777180e-01
  7.6244272e-02
 -1.4922745e+00
 -2.8757950e-02
  2.0188582e+00
 -6.7383416e-02
  5.0827932e-02
  9.5225044e-02
 -8.7762311e-02
  1.1124943e-01
 -9.0836920e-02
 -3.6299158e-02
 -1.9148222e-01
  2.2783637e-01
 -2.8760498e-02
  1.5121233e-01
  3.1809032e-01
  9.4307430e-02
 -1.0513294e-01
 -1.9204763e-01
 -1.3832003e-01
  9.2755869e-02
 -5.4022875e-03
 -1.7833285e-01
  6.0858335e-02
  1.5743575e+00
 -7.0147347e-03
  8.1333071e-02
  1.2294146e-01
 -9.7716995e-02
 -6.8965137e-02
 -2.8680557e-01
  1.7607745e+00
 -4.0158877e+00
  8.1244570e-01
  4.3958914e-01
 -7.3376757e-01
  2.5885931e-01
 -3.4214433e-02
  2.3927709e-01
  2.5335675e-01
  1.8052790e-01
 -1.0538895e+00
  2.0935550e+00
  1.0865023e+00
 -3.6280760e-01
  6.8927169e-02
 -7.9993999e-01
  1.4308861e-02
 -8.3357327e-02
 -5.8082309e-02
 -4.2875935e-03
 -9.2950195e-02
  5.3627884e-01
  7.3232615e-01
  8.8536143e-01
 -7.8857547e-01
 -1.1138662e-01
 -1.7205891e-01
  1.7506883e-02
  1.6333412e-01
 -7.3082927e-03
  1.6215153e-01
  3.1347814e-01
  3.2123721e-01
  1.0080587e-01
  2.8828792e-03
 -1.6410422e-01
  1.6284900e-02
  9.2040926e-02
  9.3788236e-02
  5.9648532e-02
 -1.9107136e+00
  2.3800556e-01
  2.1637116e-01
 -3.1153911e-03
  2.4400182e-01
  1.6368128e-02
  7.3730119e-02
  1.6831480e-01
 -1.9648913e-02
  1.9821483e-01
  4.3046497e-02
 -7.3779500e-03
 -6.1216690e-02
 -2.4892131e-02
  9.9227786e-02
  1.5271617e-01
  3.3713970e-03
  1.9820172e-03
 -3.9136048e-02
 -8.1916898e-02
  2.1795174e-01
  6.0423929e-02
  6.5967716e-02
 -3.4996331e-01
  3.9950304e-02
 -5.2501958e-02
  1.3215123e-01
  4.5120910e-02
  6.1340517e-01
 -4.1799847e-02
  4.5234328e-03
 -9.3059577e-02
 -9.6738137e-02
  1.4658941e+00
  8.3647776e-01
 -1.0287712e-02
 -9.6373916e-02
  1.3684087e-01
  9.8412082e-02
  4.1477036e-01
  5.1591933e-01
  5.1997781e-02
  4.6473977e-01
 -4.1299972e-01
  2.0327063e+00
  4.4577900e-02
  2.2418201e-01
 -8.5853515e-03
 -6.9762480e-01
  1.7870267e-01
  2.3994434e-01
 -2.6296404e-01
  1.3531109e+00
 -8.2111135e-02
 -5.7108283e-01
 -1.1065642e-01
  5.0226909e-01
  7.1537673e-01
 -2.3835240e-02
 -7.0472369e-03
 -1.9956568e-01
 -1.4682089e-01
 -1.6764168e-01
 -2.4701436e-01
  7.4652590e-02
 -5.7581645e-01
  9.2237860e-02
 -9.9658883e-01
 -9.2690460e-02
 -1.5707219e-01
 -1.2132342e+00
 -4.1000015e-01
 -3.6443764e-01
 -9.0957664e-02
 -1.5095261e-01
 -1.7448468e+00
  1.2908688e-01
  1.0980032e-01
 -9.2230231e-02
  5.6858435e-02
 -1.2122104e+00
  2.3504782e+00
  4.6532735e-02
  3.0382073e-01
  2.0053518e+00
 -4.0416521e-01
 -4.0366465e-01
 -8.3861515e-02
 -2.7472031e-01
 -3.6682662e-01
 -2.1921635e+00
 -8.4274340e-01
  1.0146352e+00
  5.4323173e-01
 -5.9436494e-01
 -1.2715704e+00
 -1.8507753e-01
  1.4012729e-01
  1.2811042e-01
 -1.3439395e-01
  5.9310341e-01
 -7.9332076e-02
  9.4431072e-01
 -1.4156051e-01
  7.5612342e-01
 -1.9795282e-01
  4.6381477e-01
  4.7764070e-02
 -1.3838027e-01
  1.2611052e-01
 -8.5708596e-02
  2.1355365e-01
 -6.1571885e-02
 -5.1440763e-01
 -1.1050931e-01
  1.4246966e-01
 -2.2392876e-03
  3.1743243e-01
  5.8152215e-03
  1.1143462e-01
 -3.8112551e-02
 -7.3082428e-03
 -2.4922490e-01
  2.4521083e-01
  4.9560986e-02
  2.9862833e-01
  9.1276102e-02
  2.8006536e-01
 -3.5415590e-02
  1.4633197e-01
 -1.2290398e-01
 -8.9145660e-02
  4.1986102e-01
 -2.0075628e-01
  2.0804313e-01
  1.6028720e-01
  1.6046518e-01
 -5.8982376e-02
 -2.3018788e-01
  1.2151321e-01
 -1.7915893e+00
  1.0438737e+00
 -2.0187335e+00
  1.1682632e-02
  1.0701103e+00
 -1.2466377e+00
 -7.5208741e-01
  1.2125015e-01
 -8.5618854e-01
 -5.6392771e-01
 -7.2293830e-01
 -9.2960680e-01
  2.6967365e-01
  1.3748367e-01
 -4.9693059e-02
  2.0435227e-02
 -5.4688752e-01
  4.9664114e-02
 -8.7111080e-01
 -6.9072086e-01
 -6.2702015e-02
 -5.6562316e-01
 -6.0760164e-01
 -1.7979047e+00
  3.9691660e-01
  2.2140230e-01
  6.0246730e-01
  2.8051056e-02
 -9.7883210e-02
  1.1523924e-01
 -1.6603284e+00
  3.2992131e-01
  1.9662631e+00
 -3.8634187e-01
 -1.2785054e-02
 -3.3527753e-01
  5.4082537e-01
 -2.6570810e-02
  1.9201760e-01
  1.9104749e-02
 -1.3805167e-01
 -1.6926971e-01
 -1.6651995e-01
 -7.4895196e-02
 -1.0720827e-01
  3.2056227e-02
 -3.6886367e-01
 -8.5351080e-01
 -1.1220266e+00
  8.2162768e-02
  1.6283570e-01
 -1.5965879e-01
  2.7804596e-02
 -2.5566649e-01
  1.4259847e-01
  1.4193662e-01
  4.1854587e-01
  1.1370269e-01
  8.3163463e-02
  2.2104627e-01
 -8.4573591e-01
  1.0531612e-01
 -1.9871481e-01
  3.3282433e+00
 -1.1726432e-01
  2.1897109e-01
  1.9230120e-02
 -1.0899700e+00
  9.6391356e-01
  3.5856273e-02
 -1.3421072e-01
  4.6069753e-01
 -3.4085524e-01
  2.7325273e-01
  4.3720075e-01
  1.8219751e-01
  2.4849896e-01
  9.1117896e-02
  4.4554779e-01
  4.6758607e-02
 -1.7655516e-01
  1.4451729e+00
  3.5733876e-01
  8.1320256e-01
  1.1156949e-01
 -2.3707286e-01
 -2.6056015e-01
 -5.7928401e-01
 -1.4814116e-02
  6.2838353e-02
 -7.2188544e-01
 -1.8014675e-01
 -2.1488165e-02
  7.6540494e-01
  3.8647875e-02
 -1.2027493e+00
  4.5588739e-02
 -2.8880188e-01
 -3.7053733e-03
  9.2331327e-02
 -8.2733043e-02
  1.8244378e-01
 -1.3013190e-01
  2.4847482e-01
  4.2180497e-02
  8.7318070e-02
  3.6332928e-02
  6.8793274e-02
  3.2003450e-01
  8.3317988e-02
 -7.8646228e-02
 -4.2653315e-02
 -1.4531077e-02
 -6.7103565e-02
  5.9629433e-02
  1.8759392e-01
  8.8529661e-02
 -1.9381765e-01
  2.0394884e-02
 -2.3816831e-01
 -3.8403171e-01
 -2.0655589e+00
 -6.6731286e-01
 -3.9852819e-01
 -6.2509191e-01
  3.2772702e-01
 -5.5315690e-03
  5.5758470e-01
  2.2763739e+00
  2.5744367e-01
  4.2512944e-01
 -2.4535716e+00
  1.1071271e+00
  1.9955815e+00
  6.9629550e-01
 -3.5578221e-01
 -1.3219267e+00
 -8.1367189e-01
  3.1324632e-02
  5.6643322e-02
  1.7719085e+00
 -3.2018197e-01
 -4.9357513e-01
 -5.9604234e-01
  2.0347512e+00
 -3.2602085e-04
  3.0689217e-02
 -6.3609183e-02
  2.0041594e-01
  3.8695827e-02
  7.7106726e-01
 -3.5208962e+00
 -1.5119420e-01
  8.5644305e-01
 -1.2050326e+00
 -3.8870242e-01
 -1.5151305e-01
  2.6953423e-01
  1.8106917e-01
 -1.0411360e-01
 -1.0029811e-02
  6.1449069e-01
  1.1343546e-01
 -5.8293745e-02
 -5.3322863e-02
  7.8663461e-02
  3.9071965e-01
  2.2740062e-01
 -1.2801105e-01
  1.3059292e+00
 -3.2307345e-02
  1.0384699e+00
 -6.7163324e-01
 -4.2119217e-01
  3.9022185e-02
 -9.7958177e-02
 -5.0816327e-01
  2.1965757e-01
 -1.8926910e-01
  2.6879696e-02
  1.0532763e+00
 -5.4028714e-01
 -5.8624023e-03
  2.8000865e+00
  4.1141564e-01
  4.0409073e-02
 -4.7502879e-02
  5.8260292e-01
  2.6257856e-02
  2.5726807e-01
 -2.7383870e-01
  2.6099306e-01
  1.0744730e-01
 -3.9049542e-01
  6.6093220e-03
  1.0186053e-02
 -2.0076378e-01
 -5.9909001e-03
  1.7647227e-02
  5.6221813e-02
  1.2500311e-01
 -2.2049789e-01
 -4.7701793e-03
  1.3885295e-01
 -1.2892252e-01
 -2.8811960e+00
  8.7566879e-03
  1.7033198e-01
  4.9545273e-02
 -2.0712267e-01
 -9.5416421e-01
 -3.2879705e+00
 -1.2173260e+00
  1.5872076e-01
 -1.1748782e+00
  5.9532195e-01
  2.2065417e-01
 -2.6942980e-01
 -4.5995533e-02
  1.1517955e-01
  2.2671257e-01
 -6.7600891e-02
  3.9865595e-01
  4.0356761e-01
  3.8804707e-01
  6.8642661e-02
  5.3287423e-01
  4.1968039e-01
  4.4952607e-01
  7.6563668e-01
  6.7048758e-01
 -5.1323450e-01
 -5.2199069e-02
 -3.8881823e-01
 -4.1075566e-01
 -1.4773759e-01
 -5.1673736e-02
 -1.0624542e-01
 -6.9042690e-02
 -2.8493246e-02
  9.9787831e-01
 -1.5812974e+00
 -7.3930472e-02
  1.1185867e-03
  4.9096808e-01
 -1.5450828e-02
  1.5303463e-01
  4.3178427e-01
  1.6175897e+00
  8.1256531e-02
 -3.5001072e-01
 -7.0931353e-02
  3.4801882e-02
 -1.5093703e-02
 -1.7862387e-01
  1.8866379e-02
  5.8094084e-02
  2.0579562e-01
 -4.1628146e-01
 -2.2178124e-01
 -2.6398718e+00
 -5.2125025e-01
  4.4206660e-02
 -8.5974288e-01
 -1.9627979e-01
  1.8911844e-01
 -6.7612203e-03
 -2.5078906e-02
 -6.4753748e-02
  1.0183375e-01
 -7.1182019e-01
  1.1376319e+00
 -7.2652265e-02
 -8.3117175e-01
 -3.6405611e-01
 -1.0019332e-01
  3.5615504e-01
  1.0566355e+00
 -1.0761056e+00
 -2.5699954e-02
 -5.1060542e-02
 -3.9285406e-02
  2.0063047e-01
 -1.5211776e-01
 -1.4881220e-01
 -2.6371619e-01
 -6.9315262e-02
 -1.4733900e+00
  1.1753979e+00
 -1.1224739e-01
 -4.6048004e-02
 -9.8674007e-02
  8.1801790e-01
  1.0807437e-01
  6.7854933e-02
  2.7236331e-01
  1.7887689e-01
 -2.8017940e-02
  1.2588127e-01
  1.6466262e-02
 -3.0604309e-01
  4.8099570e-05
 -1.0054118e-02
  1.4206845e-01
  4.3668795e-01
  2.2933906e-02
  3.0995611e-02
 -8.5979074e-02
  9.1302373e-02
  2.0675769e-01
 -6.6232765e-01
 -1.3138215e-01
 -1.3780269e-01
  7.9225175e-02
  4.0516395e-02
  8.9455712e-01
  5.3097006e-02
 -3.4357961e-02
  1.1500195e-01
  2.9833800e-01
  3.7371557e-02
  3.3785643e-03
  5.5016834e-01
 -7.5663840e-03
  4.3741302e-03
  2.1225682e-01
  1.8443209e-01
 -2.4396773e-02
 -4.4330709e-02
 -1.1569424e-01
  1.0234467e+00
 -6.7610288e-01
  6.3262716e-02
 -1.6211702e+00
  3.1068268e+00
 -1.2723295e-02
 -5.1966184e-01
 -2.9163992e-01
 -1.1969689e-01
 -4.4645809e-02
  4.1919151e-01
  4.4214642e-01
 -1.2470821e-01
  6.5295272e-02
 -5.2677625e-01
 -1.3300724e-01
 -1.5896078e+00
  4.7776586e-01
 -3.2788944e-01
  2.9570360e-03
 -3.7757948e-01
 -1.2473076e-01
  1.5130116e-01
 -1.5682881e-01
  1.1046774e+00
 -1.0826223e-01
 -1.5184832e-01
  1.7500228e-01
 -8.6065799e-02
  6.8046398e-02
 -1.0839461e+00
  2.2142115e+00
 -2.2100062e+00
  2.7862889e-01
  4.9785730e-01
 -1.9445173e-01
 -1.6096419e-02
  2.4327283e-01
 -4.7132674e-01
  1.9007669e-01
  1.7199907e-01
  2.4790327e-01
  2.7303818e-01
  4.6542052e-02
 -3.9418739e-01
 -1.6613072e-02
  1.8943494e-04
 -1.6401194e-01
 -3.9781906e-02
  5.4306574e-02
  8.7023660e-04
 -3.3309060e-01
  1.2079966e+00
  2.0210227e-01
  9.5656775e-02
  1.0061489e-01
  1.6136872e-02
 -4.9778610e-02
  2.3114142e-01
 -3.2848692e-01
 -4.3203279e-02
 -9.8349445e-02
 -1.8266241e-01
 -9.7228691e-02
  1.3691354e-01
  2.5223285e-01
  6.9616720e-02
 -3.2781564e-02
  8.7219074e-02
  3.5208270e-01
  4.1662771e-02
 -1.0242125e-01
 -4.7088701e-02
 -2.9969113e-02
 -2.3176740e-01
 -2.7466118e-02
 -2.2056381e-01
  4.2308226e-01
 -1.6130938e-03
  7.7658527e-02
 -4.3113410e-02
  9.8763712e-02
 -6.9388673e-02
  6.4919017e-02
  5.5647980e-02
 -5.4896254e-02
 -1.0583253e-02
  1.4636935e-03
 -1.5495614e-02
  2.7059045e-01
  2.4846673e+00
 -1.1460378e+00
 -2.0148783e+00
  3.3711622e+00
  4.0937238e+00
  2.3266380e-01
  1.0488254e-01
  1.7482355e+00
 -1.1263779e-01
 -8.4994830e-02
  7.8681014e-02
 -2.8302214e-01
  1.2781614e+00
  1.3553690e+00
  2.1806867e-01
 -1.3912219e-01
  6.4184725e-01
 -9.0961200e-01
  4.2668942e-02
 -4.3833582e-03
 -1.5519208e-01
  4.5306918e-01
 -3.8137871e-01
  1.2939086e+00
  1.4519091e-03
 -4.6837696e-01
  3.3800888e-01
 -1.3643311e-01
  1.4118251e-01
  3.7323900e-02
  2.6953408e-01
  6.5077507e-01
  2.3681853e+00
  2.2035559e-01
  2.1169891e+00
 -1.9508167e-01
 -7.2620010e-01
 -1.6111525e-02
 -1.4088783e+00
 -1.7100768e-01
 -5.2776899e-02
  4.8944570e-02
  3.2452205e-01
 -2.0556428e-01
 -2.7858382e-01
 -8.0775656e-03
 -1.2693508e-01
  7.0679313e-01
  1.5900457e-01
  1.0890836e-02
  1.0982841e-01
  7.9252243e-02
  2.2566298e-02
 -3.6551625e-01
  4.6244333e-03
  8.9554600e-03
  1.1961713e-02
  1.1468576e-01
  1.4882787e-01
  6.0317639e-02
  1.6109312e+00
 -1.4660693e+00
 -5.5026156e-01
  7.9018915e-01
  5.7786244e-01
 -8.2205519e-02
 -4.0909298e-02
  4.7612533e-02
  1.2603179e-01
  1.8051844e-02
  8.4952619e-03
  2.8921476e-02
  1.7222147e-01
  3.2754319e-03
  9.4163060e-02
  2.0224860e-01
  5.4108131e-01
  6.8730108e-02
  4.0289062e-01
 -1.3807973e-01
 -2.9451373e-01
  2.3794180e-02
  1.7876787e+00
  1.0341708e-01
 -1.3874966e-01
 -1.3112227e-03
  4.6278894e-02
 -1.2129279e-01
  1.4793448e-01
  2.2340757e-01
  2.2009771e-01
 -3.4853637e-02
 -3.4498389e+00
  1.2039967e+00
  1.9959541e-01
 -1.8583730e+00
 -1.0073952e-01
  7.3050312e-03
 -8.8844627e-02
 -4.1087979e-04
 -1.1951414e+00
 -1.5109570e+00
  2.2188208e+00
  1.6390224e-01
 -1.3444385e-01
 -5.0231761e-01
 -7.3871337e-02
  1.2209229e+00
  1.0962045e-01
 -1.3484889e-01
 -4.0743132e+00
 -3.0994391e-01
  1.7005807e-01
  4.3012205e-01
 -9.1136158e-01
  1.0926505e+00
 -3.0238360e-02
  1.2927350e-01
  1.0736961e-01
  3.1411123e-01
 -5.8454558e-02
 -9.8187905e-03
 -2.1738622e-02
 -1.7373417e-01
  2.7612278e-01
 -4.5590214e-02
  1.4380562e-01
  2.3261279e-01
 -2.6556712e-02
  2.1106459e-01
  3.3104091e-03
  2.8007749e-01
 -2.6712472e-02
  9.0039611e-02
  9.4215199e-02
 -3.5047684e-02
  2.9587410e-02
  1.2916003e-01
 -5.9175082e-02
  1.6607229e-01
  6.8878032e-02
  2.3811926e-01
 -1.7649395e-02
  4.4959150e-02
  7.7204488e-02
 -1.1617254e-02
  1.7264831e-01
 -3.1917119e-01
  6.1988682e-02
 -3.8962923e-02
 -5.6562537e-01
  9.7797386e-02
 -2.8329039e-01
  4.6839684e-01
 -1.4536861e+00
 -2.8517166e-01
  3.4878656e-02
  3.8243863e-01
  1.8695846e-02
 -2.3123289e-02
 -5.1863737e-02
  2.5070384e-02
  1.1136591e-01
 -1.3367768e-01
 -3.5813424e-01
 -3.1477384e-02
 -3.0673651e-02
  1.2701560e+00
  1.1842413e-01
 -3.0963767e-01
 -5.5840665e-01
  1.8195793e-02
 -3.3415329e-02
  3.2717425e-02
 -2.3020798e-01
 -5.2476621e-01
  8.3306640e-02
  2.5408898e-02
  1.7331418e-01
  2.8105015e-01
  3.1802990e+00
  4.4448021e-01
 -1.2471839e+00
  1.6642859e+00
  2.2890489e+00
 -1.6024383e+00
 -1.3379061e+00
  2.0270038e+00
  3.9747947e-01
  8.2653746e-02
 -1.9507964e+00
 -4.2761818e-01
  2.4982193e+00
  1.4187433e-01
  5.5778593e-02
 -8.2289249e-01
  4.7563630e-01
 -6.2221962e-01
 -2.0347773e-01
 -6.3140225e-01
 -7.8155631e-01
 -1.1038788e-01
  1.9396058e-01
  3.3414084e-01
 -3.1413987e-01
  4.6025887e-01
  1.3487642e-01
  9.1707759e-02
  2.4617589e-01
 -4.9921563e-01
 -1.4613190e+00
  7.3765792e-02
  1.5555160e-01
  2.9529872e+00
  1.8257264e+00
 -1.1341490e+00
 -1.0164291e+00
 -1.1218381e+00
  1.4951767e+00
 -8.0483937e-01
 -8.8966593e-02
  3.5722038e-01
 -1.8467940e-01
  2.1811461e-01
  2.5316989e+00
 -9.8340832e-02
  1.0552661e+00
 -2.0854686e-01
 -1.1854364e+00
  2.1108752e-01
  1.5717168e+00
  3.4662884e-01
  2.2535150e+00
 -3.2792855e-02
  3.5589010e-01
  2.3736317e+00
 -5.0165153e-01
 -1.4758142e+00
  1.1342059e+00
  1.3668476e-01
  1.4724302e+00
 -8.9633471e-01
  5.3035033e-01
  2.0772059e+00
 -1.9240539e+00
  1.2122413e+00
 -1.0225929e+00
 -2.8048303e+00
 -9.5687461e-01
 -1.7130862e+00
  6.5326166e-01
  1.0293589e+00
  2.8937033e-01
  1.8424333e+00
  1.2194210e+00
 -4.3652675e-01
  2.0057700e+00
 -6.4063191e-01
 -1.5780675e+00
  8.9221328e-02
 -1.3264369e+00
 -3.6285853e-01
 -2.1842222e+00
 -3.4466941e+00
 -7.8306842e-01
  1.0642003e+00
 -1.9055735e+00
  6.9584531e-01
 -7.7618009e-01
 -2.9075315e+00
  1.8815085e-01
  1.3422550e+00
  2.2447307e+00
  4.0665874e+00
 -2.6638925e-01
 -1.9297397e+00
 -1.0086197e-01
  1.3322103e-01
 -9.0328373e-02
 -1.3848171e-02
 -1.2942926e+00
 -8.1365180e-01
 -2.3883286e-01
 -6.4871438e-02
 -4.5460156e-01
 -3.9778584e-01
 -6.9031301e-03
  3.7546250e-01
 -2.0830563e-01
  1.6996782e-02
  1.2084834e-01
 -8.8511699e-01
  1.0590031e+00
 -8.7987864e-01
  3.1301618e-01
 -1.4773431e+00
 -3.0218029e-01
 -6.9979683e-02
 -5.0106758e-01
  2.2497085e-01
  1.3869504e+00
 -1.8129674e-01
  3.5147958e-02
 -6.8028051e-01
  1.8053603e+00
 -1.3433741e-01
  1.0745866e-01
 -2.5030103e-01
 -1.2226642e+00
 -3.1437322e-01
  2.2643974e+00
 -1.6884893e-01
  2.9189613e-02
 -7.3294491e-03
 -1.0354884e+00
  4.4573084e-01
 -4.3015188e-01
  8.0493283e-01
  8.2920027e-01
 -1.2253580e+00
  2.1437614e+00
 -5.6570840e-01
 -7.9605222e-01
 -1.2227725e-01
  2.9691708e-01
  2.0029495e+00
  8.9874668e-03
  9.7942445e-03
  3.1803623e-02
  1.4404055e-01
 -2.1803372e-01
 -9.3360111e-02
 -1.0444541e-01
 -6.6470951e-02
  4.5540404e-01
 -1.9271398e-02
  7.9666004e-02
  2.0979960e-01
 -2.3139030e-01
  9.7296429e-01
  1.0968127e-02
  3.5215046e-02
  2.7432507e-01
  9.9176191e-02
  7.3358074e-02
 -5.3400088e-02
  2.0161245e-02
  9.5056944e-02
 -2.4374403e-01
 -4.1262202e-02
 -1.2112321e-01
  4.5421308e-01
  1.6526619e-01
  1.9770864e-01
 -1.5108871e-01
 -7.5563729e-02
 -1.7552651e-02
  1.7384101e-02
 -1.7157000e-01
 -1.3752085e-01
 -4.2418078e-01
 -1.5534608e-01
  5.7031222e-02
 -4.8953969e-02
 -1.5863465e-02
 -1.8564470e-01
  5.6850079e-02
 -2.6278151e-02
 -2.8904244e-02
  2.7268133e-01
  3.9383343e-01
 -1.9095653e-01
  6.5158769e-02
  1.3041500e-03
  2.5087798e-01
  7.4450828e-02
  2.0144504e-01
  3.0132031e-01
 -3.2473141e-01
  3.1862769e-02
 -5.0535321e-02
  9.2607372e-02
 -2.0540249e-02
  6.8665159e-01
  2.8054703e-02
 -5.4883122e-01
  1.9196239e+00
  1.3674560e-01
 -1.3563457e-01
 -4.4016745e-02
 -1.5983784e+00
  3.1113011e-01
 -7.9984850e-01
 -2.0935385e+00
  7.5209600e-01
  4.0819727e-02
 -1.5812905e-01
  6.3052648e-01
 -2.8596532e-01
  7.9310966e-01
 -1.3147235e+00
  3.1545067e-01
 -2.8125787e-01
  2.1742256e-01
 -1.9834894e-01
 -1.1555237e-01
  2.7518159e-01
  5.8172160e-01
 -1.8536079e-01
 -1.1092897e-01
  1.8703544e-01
  1.5944849e+00
 -4.5773610e-02
 -2.9448864e-01
  1.0039342e-01
 -4.0013418e-01
  1.4240545e-01
  1.1809637e-01
  2.9491907e-02
  3.2878330e-01
  4.2407289e-01
 -3.4290627e-02
 -1.1902592e+00
  3.7591618e-01
  2.7694512e-02
 -1.3624978e-01
 -3.2135293e-02
 -1.7063649e-01
  1.3926560e-01
  7.9514839e-02
 -3.0536741e-01
 -2.0945936e-01
 -1.6031751e-01
 -7.1973003e-02
 -4.0429470e-01
 -3.7752129e-02
  3.4883566e-02
 -9.7458281e-02
  4.5454621e-01
  2.7921999e-01
  1.0303912e+00
 -6.6606350e-02
 -1.5380506e-01
  1.3199732e+00
  5.5319750e-01
 -2.6096857e-01
 -8.9970358e-02
 -7.4766733e-02
 -8.2995547e-03
 -3.2178295e-01
 -1.1902963e+00
  2.0075537e-01
  6.0766999e-02
 -3.8206375e-01
 -1.5086979e+00
 -1.5268536e-01
  4.0693642e-03
  1.1275446e-01
 -9.9867836e-02
  1.5538530e-01
 -3.6247352e-01
  1.9888423e-01
  2.3772053e-01
  6.5035135e-02
 -1.3234927e-01
  1.2718434e-02
 -6.4283818e-02
 -1.1537160e-03
 -1.9017148e-01
 -9.1360492e-01
  4.4615570e-01
  1.2851441e-01
 -1.2434949e-02
 -3.3941972e-01
 -9.1267323e-01
 -5.5823177e-01
  1.1963187e-01
 -2.8149800e-02
 -1.0435545e-02
 -2.0312862e-01
  1.6090329e-01
 -1.3836521e-01
  3.2523933e-03
 -3.1811810e-01
 -9.3179834e-01
  5.1983260e-03
 -9.1854756e-04
 -6.2966675e-02
  6.7223126e-01
 -7.1627676e-02
 -8.3512608e-03
 -1.2908106e-02
 -1.2728046e-03
  2.3398241e-01
  2.3002987e-01
 -5.8594812e-02
  4.2095028e-02
 -2.2121575e-03
 -4.2243835e-02
 -4.2593233e-02
  6.5896727e-02
 -4.6632820e-01
  4.7827635e-02
  1.4714837e-01
  9.6595280e-02
 -1.1353189e-01
  5.7823066e-02
 -2.1829101e-01
  1.0669888e-02
  3.5955310e-02
 -4.5839906e+00
 -6.0867047e-01
 -7.3938829e-01
  4.6951431e-01
 -1.7354928e+00
  9.9132645e-01
 -5.1843263e-02
  3.5592926e-01
 -3.0049723e-01
  1.2381923e+00
 -4.8786944e-01
  8.3471127e-02
 -4.2701934e-02
  2.2142085e-01
  2.2656839e+00
 -2.7481872e-01
  8.7350208e-01
 -6.2611797e-03
 -3.7770995e-01
  2.4590816e-01
  1.4136362e-01
  4.1411361e-01
  1.1900917e+00
  5.8905073e-02
 -2.6281741e-01
 -3.3980787e-02
  1.1036685e-01
 -3.2666698e-01
 -5.7741381e-02
  4.4573769e-01
 -3.1689718e-01
  8.2007796e-02
  4.3846297e-01
 -2.3671682e+00
  6.5441573e-01
  1.4549239e-01
 -2.2857603e-02
 -1.0304461e-01
  1.8755744e-01
  1.5442324e-02
  3.0308189e-03
 -9.5456848e-03
 -8.5299319e-01
 -3.3583766e-01
  1.4083430e-01
 -2.3234788e-01
  9.0837553e-02
  2.2097141e-02
 -7.2456589e-03
 -1.1477747e-01
  6.3419378e-01
 -8.8363990e-02
 -9.9496007e-02
 -2.2397947e+00
  2.0340271e-01
 -3.8988575e-01
  1.6071174e+00
 -1.2109815e-01
  8.3772793e-02
  1.2389156e-01
  2.1184868e-01
 -1.6040689e-01
  8.5462399e-02
  1.8047692e-01
  8.5886538e-01
 -7.7612311e-02
  1.9910170e-01
  1.3113050e-01
  3.1701569e-02
 -3.1752061e-02
  4.3081824e-02
 -7.0654482e-01
  1.0581987e-01
  9.0419814e-02
 -1.9661641e-01
 -4.9446974e-02
  1.2428208e-01
 -1.9514071e-02
 -4.0372506e-02
  4.2173166e-02
 -1.1172770e-02
 -7.4011236e-02
 -5.8076937e-02
  1.9312214e-02
  8.1298925e-04
  6.6501653e-04
  2.3895765e-02
 -1.3267773e-01
 -2.2145809e-01
 -3.2541791e-03
 -2.9156093e-02
 -2.6166612e-01
  6.6055916e-02
 -9.3355879e-02
 -2.8025410e-01
  8.2826734e-02
  1.4104426e-01
 -1.2340355e-01
 -1.3609613e-01
 -3.1282201e-01
 -6.5925777e-02
 -8.0272123e-02
  7.9797097e-02
 -7.6691371e-01
 -6.0271216e-03
  5.1462315e-02
 -1.6192387e-01
 -1.3559970e+00
 -1.8097917e-02
  1.3195848e-01
  3.5924863e-02
 -1.6772935e-01
  1.8742807e-01
 -1.7316526e-01
 -1.9498665e-02
 -9.2996573e-03
  2.9773414e-02
 -1.9634511e-02
 -2.1600392e-01
  2.0109065e-02
 -1.7640768e-01
 -7.2858191e-01
  2.5420899e+00
  1.9783828e-01
 -3.4839255e-01
  1.7099157e-02
  2.1784749e-02
 -3.6791727e-01
  1.2723411e+00
  3.4232682e-01
 -1.5405017e-01
 -4.1965067e-01
  1.4610447e-01
 -5.5168915e-01
  3.2186604e-01
  1.6157432e-01
 -6.1342023e-02
  8.9841045e-02
 -9.2187828e-01
  8.9737788e-02
  1.1049321e-01
 -1.1222366e+00
  8.4731549e-02
 -3.3171993e-01
  5.8371049e-01
 -7.5047971e-03
  2.0318121e-01
  1.6502678e-01
  5.9654601e-03
  1.5915100e-02
 -2.2616165e-03
  1.6585402e+00
  6.9883846e-02
  1.1856496e+00
  1.6160251e-01
  1.4265157e+00
 -2.0175266e+00
 -1.1279032e+00
  2.9885987e-02
  1.1353786e-01
 -4.5203108e-01
 -3.0087194e-01
 -1.7295420e+00
 -9.3697742e-02
  1.0617323e+00
 -1.7675654e+00
 -2.7490144e+00
 -1.5794954e+00
  1.6955698e-02
  1.2318385e+00
 -8.5354322e-01
 -1.0595965e+00
  2.4748479e-01
 -5.9072328e-01
  2.7213448e-01
  1.2363673e-01
 -1.4365630e-01
  6.6398305e-01
  5.8302820e-01
 -3.7552884e-01
  2.3123196e-01
  6.3445829e-02
  5.8352560e-02
 -3.8741622e-02
 -6.8627251e-03
 -7.3969378e-03
  3.7044379e-01
  1.9347151e-01
  1.2465919e-01
  1.8367380e-02
  4.5298034e-01
  2.9022111e-02
 -4.5899626e-02
  2.1036637e-01
  3.1047015e-02
 -4.4510998e-02
  4.0714419e-01
 -3.6344755e-02
  5.8049154e-02
 -2.2549210e-02
 -5.6443270e-03
 -1.0073298e-02
 -5.1274307e-02
 -9.4680473e-02
  3.3218160e-02
  1.2858312e-01
 -2.6567725e-03
 -3.2531348e-01
 -9.7375751e-02
  1.9101307e-02
  3.0892491e-01
  1.1616534e+00
  2.1540512e-01
  7.6216739e-01
  2.2315331e+00
  3.7919152e-01
  6.6794658e-01
  1.2033284e+00
  2.5896104e-03
  1.5513670e+00
  1.2127976e+00
  1.6535582e-01
  1.1844815e-01
  9.5267184e-03
  1.5103500e-01
 -2.1193299e-01
  6.2797517e-02
  1.5792885e+00
  1.6217388e-01
 -2.5905472e-01
  4.8331013e-01
  3.9675412e-01
  1.3030114e+00
  6.0921341e-01
  7.0963842e-01
  2.5948735e-02
 -7.9449989e-02
  1.6026359e-02
  1.4471650e-02
  3.0615425e-01
 -1.2940232e+00
 -2.4118441e-01
 -1.2683818e+00
 -1.3413341e+00
 -2.9550937e-01
  3.0690736e-01
  4.4616207e-01
  1.3119044e+00
  9.8094177e-01
 -7.1047491e-01
 -7.4624186e-03
  1.3466154e+00
  1.5035647e+00
  1.2173315e+00
 -3.3871964e-01
  1.5245424e-01
  8.3714157e-01
 -1.1100917e-01
  3.2893005e-01
  1.1580805e-02
  7.5012243e-01
  9.0184706e-01
  6.4066374e-01
 -1.4006099e+00
  2.5859970e-01
 -3.8720438e-01
  1.2532085e-01
 -1.6646610e-01
 -3.9703868e-02
 -5.5452000e-02
  1.4312500e-01
  2.8042099e-01
 -9.4539702e-02
 -1.8631737e-01
  1.8328969e-01
  6.5928385e-02
 -1.8532090e-03
 -8.0290012e-02
 -5.1414810e-02
 -1.0276362e-01
 -3.8572279e-01
  5.8054920e-02
  1.9118336e-01
 -1.9432518e-01
 -1.0520815e-02
  6.0069866e-02
 -8.1462217e-03
 -2.5064124e-02
 -9.9101150e-01
 -3.1511918e-01
  2.9591998e-02
  6.9974139e-02
  3.8305268e-01
  1.4586332e-01
 -1.1609633e-01
  2.9370126e-01
  7.3613867e-02
 -5.1980246e-02
 -3.0477498e-02
 -3.4717110e-01
 -1.3150289e+00
  5.0768340e-01
 -9.2448266e-03
  1.3179953e+00
  1.4077106e+00
 -4.5400858e-01
 -1.2297247e-01
  1.1024878e+00
 -1.0086749e+00
  1.5454575e+00
 -8.3936787e-01
  9.4195932e-01
  7.8059131e-01
  1.1074387e-01
  6.1043805e-01
  7.9035409e-02
  5.0650686e-01
  2.3701544e-01
  7.2091445e-02
  2.9317501e-01
  1.7134240e+00
  1.2103702e-01
  2.0446554e-01
  1.0611595e-01
  1.6020288e-01
 -6.7986354e-02
  1.4712246e-01
 -1.2835436e-02
  9.2053109e-01
  8.5152663e-02
 -1.5030400e+00
  3.9310250e-03
 -3.3264446e-01
 -3.2215619e-01
  1.4329147e-01
  1.5175596e-01
 -5.9039176e-01
  5.2148491e-01
  7.2319349e-03
 -1.3529596e-01
 -3.3918273e-01
 -7.8553908e-02
 -3.4253326e-01
 -1.1030886e-01
  3.8689215e-02
 -1.7885308e-01
  4.0489133e-02
 -3.2699317e-01
  1.9974954e-01
 -3.3426574e-01
  1.5678482e-01
  5.3257751e-01
  1.4910221e-01
  3.6927726e-02
 -9.4631195e-02
 -1.8577337e-02
 -3.4253296e-01
  4.4580817e-02
  3.9739449e-02
  1.9022783e-02
  7.7441168e-01
 -3.9287835e-02
  1.3855435e-02
  1.5055627e-02
 -1.4285787e+00
  1.1801683e-01
  2.9043120e-01
 -2.4772394e-01
  9.6973386e-03
  1.5404499e-01
  1.5899938e-01
 -2.3056847e-01
  2.3716716e-03
 -9.7520389e-02
 -2.1523863e-01
 -2.5847629e-01
 -2.0038095e-01
 -1.0227621e-01
  4.7144745e-02
  7.9111405e-02
 -1.3262168e-01
  2.4291579e-02
 -2.0039697e-01
  2.4103194e-01
 -2.8530102e-02
  4.1866701e-02
  3.0975747e-01
  7.7495106e-02
 -1.6582042e-01
  2.0412784e-02
 -1.1079799e+00
 -2.1792986e+00
 -1.6685286e-01
  4.2473736e+00
  3.3644917e+00
 -2.8325295e-01
 -5.9504379e-02
  1.7979121e-01
 -1.2785605e+00
 -1.9518049e-01
 -2.7959244e+00
 -1.6451851e-01
 -3.6034888e-01
 -1.2301301e+00
 -5.9607178e-01
 -1.4907776e+00
 -8.0350526e-02
  1.3008294e-01
  1.6904372e-01
  1.7454680e+00
 -4.4235513e-02
 -4.6663332e-01
 -2.3391066e+00
 -2.1927140e+00
  1.1253446e+00
 -1.0410091e-01
  3.7923072e-02
 -6.3227735e-02
 -1.2547249e-01
 -2.8288472e-01
  1.8716071e+00
 -1.1677463e-01
  8.6927819e-01
 -5.7357937e-01
 -3.9374242e+00
  8.8014340e-01
  8.7253809e-01
  2.6364971e-02
  8.7615556e-01
 -2.7097600e-02
  4.0343899e-01
 -9.9620959e-03
  1.4976543e-01
 -7.9072005e-01
 -6.6072649e-01
  2.3701932e-01
  1.5484223e-01
  2.5208434e-01
 -6.3383621e-01
 -4.8388451e-02
 -1.4260373e-01
  1.2515119e+00
  1.1146429e+00
 -7.0940447e-01
 -2.6328343e-01
 -4.0687934e-02
 -1.2930126e-01
  6.5744177e-02
  9.7649240e-01
 -1.6114418e-01
 -7.9660130e-01
 -1.5700568e+00
  2.5975678e+00
 -9.0633687e-03
 -3.4419048e-01
 -2.8439157e-02
  1.0396925e-01
 -5.6516963e-01
  1.9282680e+00
  9.6611269e-02
  2.3311934e+00
 -4.3231145e-01
  7.9046682e-02
  9.4788527e-01
  4.1603574e-01
  2.3671961e+00
 -3.3021632e-01
 -1.9334862e-01
 -8.2471222e-02
  2.9323983e-01
 -1.2604147e+00
 -1.1409471e+00
  2.5981886e-02
 -3.5202492e-02
 -6.2653780e-01
  9.5778561e-01
  2.5287539e-02
  2.7367655e-02
  1.4454603e-01
  1.0283464e-01
  2.7878055e-01
 -6.8702511e-03
  4.3580543e-02
 -3.5949435e-02
  2.5478752e+00
  6.9099480e-01
 -2.6760519e-01
  4.7958863e-01
  2.9355913e-01
  2.7519360e-01
 -1.7610533e-02
  2.9769567e-01
 -7.6994419e-02
  2.0988043e-02
 -1.2158093e-01
  4.0908828e-01
  6.4360344e-01
 -5.0552059e-03
  1.8698822e-01
 -5.8222255e-03
  1.1820455e+00
  4.0547225e-01
  1.5006612e-01
  1.0263973e-01
 -3.6675549e-01
  1.1135876e-01
  3.2473523e-02
 -6.9252294e-03
 -2.0984446e-01
 -3.3926841e-02
  2.6694953e+00
  1.6398452e-02
 -2.8066260e-01
  1.5503902e+00
  4.9297255e-01
  1.3656038e+00
 -4.0712664e-01
  2.4612483e-01
  2.0532928e-01
  7.5265765e-01
  3.0373710e-01
 -6.2899686e-02
  1.7735684e-01
  3.5952102e-02
  4.1653425e-01
  2.2627647e-01
 -4.2445672e-01
  4.1959122e-01
 -1.2988187e-01
 -1.5131929e+00
 -1.1408683e+00
 -8.2948003e-03
  1.8216161e-02
 -1.1109060e-02
  1.1078940e-01
 -1.3173331e+00
 -1.2437087e-02
 -2.4168856e-01
  1.1004709e-01
  5.3775537e-01
 -9.3241900e-01
  2.7319357e-01
  2.1400788e+00
 -9.7571534e-01
  3.7603598e+00
  1.7595583e-01
  7.1497545e-02
  7.5323355e-01
 -5.5783993e-01
  7.9527330e-01
 -1.2870071e+00
 -1.2135617e-01
  4.9988407e-01
 -1.7070305e+00
 -4.6338104e-02
 -2.4967639e+00
  2.5014150e-01
 -1.6298079e-01
 -1.4223297e+00
 -2.2158799e-01
 -2.3175538e+00
  2.9521769e-01
  1.7750728e-01
 -2.3200657e+00
 -3.4222725e-01
  3.1457152e-02
 -9.8133314e-01
  4.3771051e-02
  6.6328272e-02
  6.0783979e-02
  7.4811572e-01
  1.7447583e-01
  9.3627948e-01
  2.2103338e-01
  5.0827408e-01
 -1.1686242e-01
  1.2285177e-01
 -7.1136093e-01
 -1.6855721e-01
 -1.3034952e+00
  5.6642793e-02
 -1.4162841e-01
  8.0397263e-02
 -2.5886527e-01
 -3.5050240e-01
 -6.6156960e-01
  2.3589520e-02
 -1.3957697e-01
 -9.9856365e-01
 -7.6930237e-01
  1.8653314e+00
 -3.4251355e-02
 -1.1227633e+00
  1.2667694e+00
  6.6110440e-02
 -4.8208300e-02
  9.3939491e-02
 -4.4354927e-02
  6.9311023e-02
  1.2906325e-01
 -7.3804027e-01
 -1.6464826e-01
 -2.5428154e+00
  7.3564552e-02
  4.6896499e-02
  8.1459063e-01
  8.4487967e-02
 -4.9459532e-02
 -1.2694190e+00
 -1.8419232e+00
 -1.7071725e-01
  6.1057929e-02
  7.2101429e-02
 -8.5030407e-01
  1.2253958e+00
 -2.7971221e-02
  5.4848723e-02
 -2.4546608e-02
  2.4100238e-01
 -4.6719664e-01
  4.9986955e-02
  2.7293369e-01
  1.2123992e+00
  4.4905254e-01
 -2.0561302e-02
  5.4195855e-02
 -1.4756505e-01
 -1.3815875e-01
 -2.6632067e-02
  7.6544650e-02
 -2.1781324e-01
  5.5492938e-01
  5.6161231e-01
  1.6860922e-01
  2.2130575e+00
 -1.4821194e+00
 -2.2942951e-01
 -5.0071295e-02
 -8.4849399e-01
  4.9059398e-02
 -1.9478376e+00
 -1.2696308e+00
 -8.4902859e-01
 -6.2575698e-02
  6.0964458e-02
 -8.3326733e-01
  4.3163646e-02
  1.3211980e-02
  8.8248312e-02
 -3.3275679e-01
 -1.9130792e-02
 -1.1459156e+00
 -1.3565712e+00
  1.0758923e+00
 -1.9683857e+00
  8.3435617e-02
 -7.9350792e-02
  1.0645913e-01
  6.6693701e-02
 -3.5574865e-01
 -2.3508203e+00
 -5.5621886e-01
  1.0912087e-01
 -4.9466435e-02
  9.5692292e-02
  1.5457802e+00
  7.3608279e-01
  1.6633948e+00
 -3.5268098e-01
 -1.2743618e-01
  1.9887300e-02
 -4.2177346e-01
  1.3529840e+00
 -1.2428787e+00
 -1.9504373e-01
  2.7221027e-01
  1.4176148e+00
 -1.7833940e+00
 -7.0083074e-02
 -1.1721016e+00
 -9.9153131e-01
 -2.6397303e-01
  1.0826395e-01
  5.1946944e-01
 -1.4065691e-02
 -1.2252693e+00
 -3.3412471e-02
  2.5889790e-01
 -1.8077358e+00
 -2.9546356e+00
 -3.2182798e+00
 -1.1672616e+00
  8.3318397e-02
  1.4656223e-01
  5.9942544e-01
 -1.2872657e+00
  4.2134762e-01
  1.7605077e-01
  8.7138528e-01
  2.2197723e-01
 -1.8067339e-01
 -1.0292654e-01
 -1.4630406e+00
 -2.7802167e+00
 -1.7269887e-01
  3.2997265e-01
  1.2402680e+00
  5.1509202e-01
  7.4778730e-01
  4.4346946e-01
 -6.1591125e-01
  2.1038144e+00
 -2.0005250e+00
 -5.9104812e-01
  2.1908870e-01
 -6.9448853e-01
  1.2374744e+00
 -5.9158152e-01
  1.5551838e+00
 -7.6233315e-01
 -8.1503326e-01
  1.2030661e+00
 -4.1224830e-02
  4.2518935e-01
  1.7818658e-02
 -4.5886207e-01
 -1.2038682e-01
  1.9465640e+00
  2.8721843e+00
 -2.5847062e-01
  1.5672888e+00
 -1.7890196e+00
  1.5969922e-01
  3.7855461e-01
 -1.4059681e+00
 -9.9864173e-01
  3.4933767e+00
  1.8688434e-01
  2.5036037e-01
 -9.2265494e-02
 -9.0146489e-02
 -3.1702802e-01
  4.5663872e-01
  1.0882969e+00
  8.6159058e-02
 -3.6213565e-01
  1.8466361e+00
  1.8520037e-02
  3.9054893e-02
 -7.1337976e-02
  1.5940496e-01
  1.0495645e-02
  9.3375856e-01
  2.0021290e-01
  1.6467170e+00
  4.5029119e-01
  1.0525097e-01
  8.8149823e-02
 -1.8999618e+00
  7.1320690e-02
  1.0073976e-01
 -7.1527362e-02
  3.2618734e-01
 -3.2155693e-02
  6.4732969e-01
  1.1961272e-01
  1.0939469e+00
 -1.4549978e+00
 -1.9278641e-01
  6.0165077e-02
 -8.5304302e-01
 -1.4499308e-01
  1.1618219e-01
 -1.8328700e-02
  1.3415557e-02
  8.9114846e-04
  1.2454220e+00
 -2.4262759e-01
  4.3061666e-02
 -3.4244452e-02
 -6.8210974e-02
 -1.7796387e-01
  1.8099663e-01
  9.5358193e-01
 -1.5857299e-01
  4.3064516e-02
 -3.1935751e-02
  3.6350235e-03
  3.2778163e-02
 -6.4422750e-01
  6.7479961e-02
 -1.6561534e-02
 -2.1952772e+00
 -6.5718696e-02
  1.1589842e-01
  1.1900562e+00
 -1.4380337e+00
  1.6119614e-01
  1.5081903e-01
  2.7061912e-01
  1.5052512e-01
  8.7301338e-01
  4.4233078e-01
 -4.6030915e-01
  1.8893148e+00
  1.4167068e+00
  1.0542716e+00
  1.6758941e+00
  2.0805964e+00
  5.5732554e-01
 -1.2148302e+00
 -2.6705325e-01
 -1.4789195e-01
 -3.4275685e-02
  1.1764410e+00
  5.6723166e-01
  2.2683072e+00
 -9.5384079e-01
  6.4828277e-01
  1.8470317e-01
  4.2138842e-01
  1.7024039e-01
  5.7985938e-01
  4.6363834e-01
  6.0384315e-01
  4.9094453e-02
  1.0484773e+00
  8.2988769e-01
  1.3699156e+00
  3.1114936e-01
  2.1125129e-01
 -6.8300563e-01
  1.2807372e+00
 -8.8904399e-01
  5.8791753e-02
  8.7713890e-02
 -1.6374773e-01
 -5.7641071e-01
 -2.0323402e-01
  1.7780563e+00
 -5.3880900e-02
  2.4563120e-01
 -3.1183955e-01
  7.0435697e-01
 -7.3736674e-01
 -1.0476674e-01
  4.2892650e-01
 -1.2125392e-01
 -6.7162961e-01
 -1.8986601e-01
 -3.3847003e-03
  2.2689508e-01
 -1.2469789e-01
  1.5756603e-01
 -5.5515808e-01
  8.5577857e-01
 -1.2135321e-01
  7.1668074e-02
  1.5297404e-01
 -7.0778829e-01
 -3.2450154e-01
  1.6305952e+00
  5.0043970e-01
 -1.2885324e+00
  2.3630414e+00
 -3.2727726e-02
 -4.3607467e-01
 -1.3460045e+00
 -9.6926200e-01
  2.9921135e-01
 -2.1118402e+00
 -1.0369233e+00
  7.6184314e-01
  3.8423055e-01
 -8.2173325e-02
 -3.5130939e-01
  2.7403891e+00
 -1.9167615e-02
  2.5455017e+00
  2.7306020e+00
  7.3015016e-01
 -1.4109146e-02
  5.6471944e-01
  3.1073537e-01
  1.0237323e+00
  3.4041481e+00
 -2.4515168e-01
  1.1830955e+00
  1.5006454e+00
 -1.4920451e-01
  9.0099335e-01
  2.0983992e+00
  1.7201172e+00
  2.0899415e+00
  2.0832672e+00
  2.6483912e+00
  2.0670729e+00
  8.7081224e-01
  1.8744290e-01
  1.7138367e+00
  7.9787970e-01
  5.9156704e-01
 -1.1798650e+00
 -2.0998171e-02
  3.6158907e-01
 -8.3829343e-02
 -2.5886536e+00
  2.2645884e+00
  2.2816877e-01
 -8.6731207e-01
  6.8251006e-02
 -2.7086300e-01
 -3.6067590e-01
 -7.7725470e-01
 -1.5868728e+00
  7.3804182e-01
  3.5075921e-01
 -1.2129031e+00
  2.6396817e-01
  7.8859031e-01
  1.1197462e+00
 -2.7481034e+00
  1.2380852e+00
  2.9891181e-01
 -1.0107572e+00
 -2.8021061e-01
  1.7885687e+00
  1.4324167e+00
  8.7950969e-01
  4.9627098e-01
  6.3038391e-01
 -8.0097824e-02
  9.1776084e-03
 -2.2833262e-01
  6.1260171e-02
 -4.1854984e-01
  1.2873558e+00
 -4.9076897e-01
  3.6630156e+00
  2.2332819e+00
  1.9488251e+00
 -2.0155704e+00
 -2.5468194e+00
 -1.3700907e+00
 -9.4976872e-03
 -2.9378971e-01
 -4.1706309e-01
 -1.0315478e+00
 -3.0748370e-01
 -3.3289930e-01
 -1.4619595e-01
  4.9977779e-01
  1.3590829e-01
  6.6588324e-01
  7.1435291e-01
 -1.2989080e-01
  2.2362266e-02
  6.3266319e-01
  2.7204354e+00
  2.0061846e+00
  3.9524996e-01
 -1.3181107e-01
 -2.6920173e+00
 -3.7341930e-02
 -1.0921023e+00
 -2.2575488e+00
 -1.2637777e+00
  1.5428823e+00
  4.5394045e-01
  3.5950410e-01
 -1.4244151e-01
 -1.0304360e+00
  8.9338899e-02
  1.2390048e-01
 -2.5986323e-01
 -2.0859068e-02
  1.0390598e-01
  1.7464799e-01
 -7.5447336e-02
 -5.2450716e-01
 -8.0908693e-02
  1.0738938e+00
  1.3344865e+00
  2.6448042e+00
  1.5785341e-01
  2.1676464e-01
 -2.4479396e+00
 -8.7941504e-01
 -3.1651092e-01
 -7.2355920e-01
 -2.3683587e-01
 -5.3715283e-01
 -8.6497538e-02
 -8.6683899e-02
 -3.4988880e-02
  8.0132313e-02
 -7.5972009e-01
  1.5138515e+00
 -5.9084082e-01
 -9.8084736e-01
 -1.7150625e+00
 -5.1532125e-01
 -1.4494438e+00
 -3.7535466e-02
 -3.9758626e-01
 -1.9510889e-01
 -1.6461036e+00
 -3.8361895e-01
 -4.2747784e-02
 -6.8302512e-01
 -5.6240276e-02
  8.1621104e-01
  3.9096671e-01
 -1.8352114e-01
  1.1797488e+00
  1.3583012e+00
  3.1331807e-02
 -6.0192090e-02
  3.8189400e-02
 -1.4775871e-01
 -5.4340327e-01
  1.6002400e+00
  2.3376277e-01
  5.1148075e-01
 -7.0829295e-02
 -1.9430491e-01
  6.6718394e-01
 -4.5851719e-01
 -4.3856198e-01
  4.1110119e-01
 -4.5231378e-01
  1.5322849e+00
  5.0550008e-01
  1.2353301e-01
  1.5208819e+00
  2.3736215e+00
  4.5089716e-01
  4.0996537e-01
 -7.0213187e-01
 -1.0824492e+00
 -2.6927125e-01
  4.3022679e-03
  4.4220710e-01
  1.1137649e+00
  2.9725665e-01
  7.4774140e-01
 -7.7919281e-01
 -1.3638526e-01
 -8.1253767e-01
 -2.0747700e+00
 -1.4540738e-01
  1.1712276e+00
 -1.1151086e-01
  8.6962873e-01
  7.7754486e-01
 -2.3570625e-01
  1.3956172e+00
  6.1279798e-01
  2.4571097e+00
  1.5817040e-01
  1.0982162e+00
 -1.5888484e+00
 -1.7035261e+00
 -1.5432787e+00
 -2.5163271e+00
 -1.5808522e+00
 -3.4722370e-01
  2.1110536e-01
  1.0322757e-01
  1.5204057e-01
 -7.2762853e-01
 -1.9076009e+00
 -1.0627122e+00
 -1.8352378e-02
 -8.3683395e-01
 -4.1667134e-01
 -6.8825737e-02
  5.0743264e-01
  2.9690990e-01
 -1.0481651e+00
  1.6996698e-01
  1.5572215e+00
 -6.2659919e-01
 -7.7088666e-01
  7.4224865e-01
 -8.7358281e-02
 -2.0566599e-01
 -7.0191377e-01
  1.5524929e+00
  5.5634864e-02
 -1.9092131e-02
 -4.6519421e-02
  4.1237694e-01
  4.2469677e-02
 -2.8199816e-01
 -2.7304933e+00
  1.1462750e+00
  1.9458699e+00
 -8.8876450e-01
  9.9039268e-01
  6.1874914e-01
  9.9521357e-01
  5.9212399e-01
 -3.3586282e-01
  1.4918199e-01
 -8.0595660e-01
  4.6236494e-01
  1.7438691e+00
 -6.7659736e-02
 -8.3253962e-01
  5.3647643e-01
  1.4225390e+00
  1.4749434e+00
 -3.7448415e-01
  2.1947472e+00
  2.1605594e+00
  1.6680622e-01
 -6.9281232e-01
  8.3612126e-01
  3.6984451e-02
  1.9079839e-01
 -5.7525831e-01
 -1.3969649e+00
  4.1261744e-01
 -2.4767823e+00
 -8.2641679e-01
 -5.6696594e-01
 -1.3298934e+00
 -8.2398570e-01
  9.3453223e-01
 -2.1247747e+00
  2.1222978e+00
  1.4186323e+00
  2.6900585e+00
  1.3003877e+00
  1.3483924e+00
 -7.7701336e-01
  8.5275406e-03
 -3.3646488e+00
 -7.5337261e-01
  1.7950123e-02
  6.1234611e-01
  1.2169732e+00
  1.9760023e-01
  1.5054733e+00
  1.3427315e+00
 -1.0282124e+00
 -3.3340130e+00
 -5.8586967e-01
 -5.1683909e-01
  6.1543986e-02
  7.7875793e-01
 -2.0438083e-01
 -1.2587096e-01
  1.6084090e-02
  3.0075982e-02
  5.2428547e-02
  5.6891765e-02
  2.4739060e+00
  7.5885139e-02
 -2.1216840e-02
 -1.2838917e+00
 -3.0474477e+00
 -3.1629384e+00
 -1.2014999e+00
 -2.1376231e+00
 -1.4580411e-01
  1.0047634e+00
 -2.8164451e+00
  1.1589301e-01
  7.5917757e-01
 -1.8173584e+00
  6.0760923e-02
 -6.1908007e-01
 -3.8959506e+00
  5.4875726e-01
  3.6236662e-01
  1.8468496e+00
  1.3378239e-01
 -6.0742233e-02
  5.3864998e-01
  5.1278919e-01
  1.8013197e+00
  4.8259327e-01
  1.1172819e-01
 -4.4088912e-01
 -1.3490214e+00
 -1.9510782e+00
 -1.1196672e-01
 -1.2308559e+00
 -5.8115309e-01
 -8.2371807e-01
 -2.0426214e+00
  1.3113165e+00
  1.3789924e+00
  2.9439163e-01
 -7.1821049e-02
 -9.6079387e-02
 -1.2658280e-01
 -6.3921854e-02
 -4.2163181e-01
 -1.0664262e-01
  1.8489575e+00
  6.0829028e-02
  2.1250276e-02
  2.1808095e-01
  8.7156588e-01
  1.5148969e+00
  1.1212416e+00
  5.6462765e-01
  2.0904188e+00
 -1.2008460e-01
 -2.8685695e-01
  1.2831587e-01
  3.1438419e-01
 -3.5067719e-01
  9.1483764e-02
 -7.1604240e-01
 -1.3812204e-01
 -1.2373148e+00
 -1.2030046e-01
  1.1688071e-01
 -8.3933580e-01
  8.1804466e-01
 -9.0228254e-03
  4.0709406e-01
 -4.7203461e-03
  1.6280611e-03
  1.6205415e-01
  9.6670203e-02
  3.6657611e-01
  6.3473225e-02
 -2.3363693e+00
 -2.9186637e+00
 -8.3616339e-02
 -7.0488924e-01
 -1.7245706e-02
  1.3897738e-02
 -9.1680002e-01
 -3.8136324e-01
  9.2328422e-02
  6.4563632e-01
 -2.5335248e+00
  2.5571063e-01
  1.5816341e-01
  9.7075492e-01
 -1.9261848e+00
 -3.4569526e+00
 -2.7665272e+00
 -7.8197807e-01
 -4.0473337e-03
  4.6243295e-01
  1.2578518e+00
  1.1949081e+00
  3.6077023e-02
  1.4649032e-01
  2.6457860e+00
 -1.1279953e+00
  9.2445678e-01
  8.8191438e-01
  2.5425264e-01
 -4.6517318e-01
 -5.2133894e-01
 -1.2408187e+00
  4.7711577e-02
 -1.2151012e+00
  1.5373937e+00
  1.9751074e+00
 -3.4947973e-02
  3.9555809e-01
 -5.8416647e-01
  2.2155201e+00
 -2.5272956e-01
  5.8261354e-02
 -1.3031980e-01
 -4.1084629e-01
  8.3877616e-02
  1.3483969e+00
  1.2224280e-01
 -3.0458149e-02
 -3.0905286e-02
  1.1878509e-01
  2.0822829e-01
  2.5315344e+00
  3.1086907e+00
 -1.9467233e-02
 -4.6935994e-03
  3.1297341e-02
 -1.1090522e-01
  5.3231788e-01
 -3.9020127e-01
 -4.4082355e-02
 -1.0771434e+00
 -1.3136779e-01
 -4.1637141e-01
  7.0640646e-02
  1.2048461e+00
  8.9360885e-03
 -1.7357495e-03
 -6.5912086e-01
  6.9482154e-01
  6.5117425e-01
 -1.2279383e+00
  2.8613467e-02
  1.1213963e+00
  2.5697976e-01
  3.3256176e-01
  1.7156632e+00
 -7.6685447e-01
  1.0875161e+00
  1.7788699e-01
 -1.7290567e-01
 -5.8728802e-01
 -2.8812221e-01
 -1.6899206e-01
 -3.2963507e-02
 -2.7044849e+00
  6.8816489e-01
 -1.3408186e-01
 -8.6575365e-01
 -2.1346798e+00
 -1.5310833e+00
 -6.4475662e-01
 -1.6746103e+00
 -1.1542610e+00
 -4.0757494e+00
  3.8101393e-01
  1.8013785e+00
  2.4279061e-01
 -6.7262244e-01
  1.3964567e-01
 -1.8766656e+00
  4.2959031e-01
  7.8461044e-02
 -8.3382882e-02
  5.3284937e-01
 -6.7912781e-01
 -7.5183338e-01
  1.9115334e-02
 -2.2403638e+00
 -6.4289495e-02
  1.1592314e+00
  6.2603819e-01
 -4.4979635e-01
  4.6522367e-01
  7.8540760e-01
 -4.3669555e-01
 -3.6575992e-02
 -3.6643913e-01
 -1.3303246e-01
 -1.1543643e+00
 -1.5874434e-01
  1.3240950e+00
  4.7911186e-02
 -2.4322566e-01
  1.3502375e-02
  4.1720641e-01
 -3.4908280e-01
 -1.4442078e+00
  3.0831316e-01
  7.5065434e-01
 -2.3806703e+00
 -5.9664965e-01
 -1.0773895e+00
 -3.1439791e+00
 -1.9138905e+00
 -2.8212169e-02
 -1.4186354e+00
  4.8711613e-02
 -7.3125190e-01
  2.1498182e+00
 -3.4465697e-01
 -7.6306242e-01
 -1.6731689e+00
 -2.7178776e-01
 -2.5660889e+00
  1.3310727e+00
 -4.2991769e-01
  1.4213018e+00
  1.4333985e+00
  1.7110975e+00
  1.9252336e+00
  8.9695610e-02
  8.4501708e-01
  1.7905072e+00
  1.8216528e+00
 -8.8389134e-01
 -1.6142528e+00
  7.4041522e-01
  8.8675499e-01
  3.5319347e-02
 -9.1809726e-01
  5.2665311e-01
 -1.1384293e+00
 -5.2295673e-01
 -1.8395752e-01
 -1.7697614e+00
 -6.8318301e-01
 -9.3929738e-01
 -3.5855314e-01
 -1.6891451e+00
 -8.0492991e-01
  2.2035420e+00
  1.0209752e+00
 -3.4958947e-01
 -5.1494145e-01
 -8.2698941e-01
  1.7202973e+00
  7.1750045e-01
  1.3807870e+00
  4.5801258e-01
  2.2752907e-02
  5.4400599e-01
  1.5832174e+00
  1.8868086e+00
  1.4023738e+00
 -4.9957654e-01
 -5.3340984e-03
 -1.3790150e+00
 -1.6563579e+00
 -2.5041738e+00
 -2.0509379e+00
 -9.1072746e-02
 -6.2315337e-02
  2.1618830e-02
 -6.3896537e-02
  7.7671111e-02
  1.8704470e+00
 -3.8070496e-02
 -1.2061806e-01
 -6.3551772e-01
  1.4592220e-01
  3.4534359e-01
  1.4242018e+00
  3.3784822e-01
  1.1261609e-01
 -1.6096431e-01
  2.7780866e-02
 -2.0185274e-01
  4.1106018e-01
  2.4302189e-01
 -2.7877706e-01
 -6.8219674e-01
 -4.7415310e-01
 -1.3810033e+00
 -3.3841389e-01
  8.7719148e-01
 -3.4084842e-01
  2.2712339e-02
  3.5219934e-02
  5.8784679e-02
 -2.0794743e-01
 -1.5958016e+00
 -6.9338334e-01
 -1.1848941e-01
 -5.6898832e-01
  8.6891837e-02
  1.7103416e+00
  6.9566876e-01
  5.4773033e-01
  6.8938434e-01
  1.0317104e-01
  2.1909969e-01
  2.1877944e-02
  2.4976590e+00
  2.3950996e-01
  3.9029751e-02
 -1.9720589e+00
 -3.2168749e-01
 -5.0837379e-02
 -5.3043628e-01
 -4.2649630e-01
 -3.1582281e-02
 -2.9446787e-01
 -4.3663543e-01
 -3.3860537e-01
 -1.5962216e+00
 -9.6454644e-01
  4.1793045e-02
 -3.5987002e-01
 -1.2530863e-01
  2.0129480e+00
  1.3328384e+00
 -7.0086256e-02
 -1.0877217e-01
  1.5507758e+00
  1.8119952e-01
  1.3697281e-01
  8.1592464e-01
 -2.8840971e-01
  1.3283652e+00
  9.1801107e-01
  1.6129510e-02
 -3.4958565e-01
  3.3060115e-02
  2.3190111e-01
 -2.5754383e+00
  5.7531386e-03
 -4.1161790e-01
 -5.4820839e-02
 -2.9548499e-01
  1.6894481e+00
  1.3318920e+00
  4.9453533e-01
  8.7423772e-01
  7.8403306e-01
  3.7842479e-01
  1.1324914e+00
 -7.5879924e-02
  2.6223227e-01
  4.8330078e-01
  1.4691722e-01
  1.7110683e-01
  1.4890930e-01
  1.5642160e+00
  3.0241275e-01
 -1.5862018e+00
 -1.8653724e+00
 -1.2226366e+00
 -8.3661413e-01
 -2.1824434e+00
 -1.8338664e-01
  2.1915509e-01
  6.3548124e-01
  3.5867251e-02
  3.5193625e-01
  1.1942320e+00
  1.2502327e+00
  3.0724775e-02
  5.3730345e-01
 -4.0931293e-01
 -2.8691056e-01
  5.1408477e-02
  1.0394444e+00
  1.7412594e-01
  7.9075724e-02
  1.8549787e+00
  1.3788170e+00
  1.1515883e+00
  1.3908633e+00
 -1.7885432e-01
 -2.8497896e-01
  9.5121485e-01
  6.8133169e-01
 -2.3955266e+00
  1.3596387e+00
  1.5262461e+00
 -3.7587620e-02
 -5.3775626e-01
 -5.7759959e-01
  1.3809764e-01
 -1.3065033e+00
 -2.1894381e+00
 -2.4894855e+00
 -4.3320560e-01
 -3.0738280e+00
  1.1247741e+00
 -7.3018974e-01
  1.1432945e+00
  2.0223544e+00
  2.1417589e+00
  4.0972358e-01
 -4.8240915e-01
  1.7681991e-01
  2.5239861e+00
  3.9819628e-02
 -7.9365335e-02
 -3.2273531e+00
 -4.9748227e-01
  1.3366173e-01
  3.7381124e-01
  5.6309253e-01
  1.8615003e-01
 -4.9044988e-03
  3.0186930e-01
 -4.6273169e-01
  1.0995713e+00
  1.2712452e+00
 -5.8661729e-01
  2.6401701e+00
 -7.6281197e-02
  2.7555225e+00
  1.8450246e+00
  4.4704601e-01
  4.6322659e-01
  3.8495505e-01
  7.7565350e-02
  1.1505930e+00
  3.2205876e-02
  2.0949454e+00
  2.0072158e-01
 -1.0625497e-01
  2.4291328e-01
 -1.5591789e+00
  1.0196474e+00
 -1.4028618e-01
 -2.9916143e+00
 -5.2192807e-01
  7.2894399e-03
 -1.7151070e+00
 -5.3244150e-01
 -4.3941405e-02
  3.0207172e-01
 -1.1484985e-01
  9.6329832e-01
  1.0611024e+00
 -6.0885257e-01
  4.0818852e-01
  1.3639058e+00
 -1.6750139e+00
 -1.2042569e-01
 -1.7349145e-01
  6.8750048e-01
  3.4634972e-01
 -1.3616806e+00
  1.3641937e-01
 -3.2908735e+00
 -8.4996819e-01
 -1.1589773e+00
 -1.0145314e+00
 -8.7813723e-01
  1.6563501e+00
  6.6563225e-01
  1.2639265e+00
  9.9749315e-01
  6.2254238e-01
 -8.3972794e-01
 -3.9109647e-01
 -8.9682460e-01
 -1.8429896e+00
 -1.1267606e+00
  2.5006373e+00
  4.0981114e-02
 -7.9645085e-01
  4.5600036e-01
  4.6834327e-02
  5.3612672e-02
  7.2247201e-01
  1.9490657e+00
  7.8024942e-01
  1.1951875e-01
 -2.3129866e+00
 -2.0428871e-01
 -1.8334267e+00
 -1.0588031e+00
 -1.6569761e+00
 -5.2394158e-01
  2.4781352e-02
  3.8093463e-02
  2.4543585e-01
  1.5692541e-02
 -5.4747081e-01
  2.8066225e+00
 -4.0220645e-01
 -5.9533909e-02
 -1.5648029e+00
  3.0453995e-01
  1.7929792e-01
 -5.8778846e-01
 -4.1924114e-03
 -6.4810723e-01
  1.6778390e+00
 -2.4806602e+00
 -1.0988380e+00
  1.1704830e+00
 -3.8553727e-01
 -4.8223156e-01
 -1.3083632e-01
 -6.5450758e-01
 -7.8207642e-01
 -1.2373526e+00
 -7.2046942e-01
  3.2232817e-02
 -3.1422541e-01
  1.9755458e-02
  1.2135503e-01
 -6.5970081e-01
 -4.7535849e-01
 -1.6323316e-01
 -2.1107283e+00
 -9.1926581e-01
  2.0624021e-01
 -6.1433053e-01
  9.5944226e-02
  2.0444794e+00
  1.3899747e+00
 -2.8546974e-01
  1.5260880e+00
  2.3250297e-01
  2.8653261e-01
 -5.7759041e-01
  1.3353679e-01
  1.0715748e-01
  9.9398136e-02
 -2.4341361e-01
  1.9336534e+00
  2.8283963e+00
  6.4828593e-01
 -2.2093862e-02
  3.0748340e-01
  2.7131638e-01
 -1.0352900e+00
 -2.2661078e+00
 -1.5733889e+00
 -9.7546721e-01
 -4.6677747e-01
  1.5457816e+00
  5.3500664e-01
  1.5571254e+00
  2.6482346e+00
  2.0161052e+00
  2.9263904e+00
  2.5374591e+00
  7.4131024e-01
  2.7628118e-01
  4.4559461e-01
 -2.8915429e+00
 -7.9408669e-01
 -2.1468873e+00
 -2.7171876e+00
 -1.1774465e+00
 -2.5340521e-01
  7.0461643e-01
  1.0754984e-01
  8.5895434e-02
  3.4976155e-01
 -4.3746194e-01
  2.8249967e-01
 -4.4432557e-01
 -1.5832980e-01
 -2.2644398e+00
 -2.2178674e+00
 -3.3141515e+00
 -1.4833616e+00
 -5.7048047e-01
 -2.4385312e+00
 -1.7450815e+00
  1.3191115e+00
 -1.0950694e+00
 -4.2096915e+00
 -2.4360178e+00
 -5.7386625e-01
  6.9203079e-02
 -3.5596432e-03
 -7.7532810e-01
 -8.2284743e-01
  1.4555332e-01
 -2.6838642e-01
  1.3619031e-02
  1.4443924e-01
  9.8044135e-02
 -4.5282692e-01
 -2.5888515e-01
  8.3675802e-02
 -1.7500753e+00
 -1.2040795e+00
  8.4571779e-02
 -7.9038370e-01
 -1.3075103e+00
  2.2073536e+00
 -2.2915020e+00
 -2.0792058e-01
  1.1373019e-01
 -5.7649392e-01
  6.2369061e-01
  1.0735458e+00
 -1.4636903e-01
 -6.0166395e-01
 -3.9464414e-01
 -5.4151708e-01
 -1.2308998e+00
 -1.1276349e+00
  1.0558524e+00
  1.2820750e-02
  3.9007983e-01
  4.5006737e-01
 -2.1551251e+00
  2.9635301e-01
 -4.6511441e-01
 -1.5420463e+00
  3.9278358e-01
  3.4376850e+00
  2.2868512e+00
  3.6010892e+00
  2.8448977e+00
  1.5567927e+00
  3.2233518e-01
  2.3072240e+00
  2.6249015e+00
  1.4270908e+00
  3.4050770e+00
  2.2481823e-02
 -3.0227141e+00
 -5.3603762e-01
 -1.3565756e+00
 -1.6061028e+00
  4.7240403e-01
  3.6790200e-02
  6.5484174e-02
  2.3033717e-01
  2.8879201e-01
 -4.3483785e-01
 -9.2482346e-01
 -2.5680487e+00
  1.7439569e+00
 -1.8984761e+00
 -1.3631861e+00
 -6.5859832e-02
 -1.5402656e+00
 -1.2305750e+00
 -2.1524944e-03
 -9.3617547e-01
  1.1404447e-01
 -2.1409927e-01
  4.0241563e-01
 -1.0703182e+00
 -1.0013899e+00
 -2.4707532e-01
  8.1869392e-03
 -2.0297821e+00
  1.9090994e-01
 -4.2215195e-01
  6.6976950e-02
  1.1695419e-01
  5.1935889e-02
  5.4462016e-01
  1.4178194e+00
  5.3379691e-01
  1.0137106e+00
 -1.3505380e-01
  8.4121786e-02
 -1.4244456e+00
 -6.8807751e-01
 -2.5737066e+00
 -1.2957244e+00
 -1.6478005e-01
 -1.7020825e+00
 -9.3179059e-01
 -4.2702183e-01
  1.8512309e-02
  7.3626876e-02
 -6.3503021e-01
 -9.8880881e-01
 -1.1945605e+00
 -8.4693193e-02
 -1.3510191e+00
  2.0251989e+00
  2.5440173e-02
  1.2905128e+00
  4.6200878e-03
  2.3545177e-01
  7.1397418e-01
 -1.3256619e+00
 -7.2311276e-01
  7.1027583e-01
 -2.4179711e+00
 -4.0758568e-01
  1.8915998e+00
  6.7397254e-04
 -1.8829124e-02
  2.0308149e+00
 -1.1042560e+00
  9.7951788e-01
  8.2434952e-02
 -8.9883894e-01
 -1.7040133e-01
 -1.3701063e+00
 -1.1438894e-01
 -2.7662372e-02
  5.6914967e-01
 -6.2901728e-02
  9.0349513e-01
  1.8339615e-01
  1.2840655e-01
  1.7539597e-01
  2.7191904e-01
  1.7536335e-01
 -2.3373446e+00
 -5.8684167e-02
  3.8625005e-01
 -8.9903754e-01
  2.0662739e+00
  3.0386147e-01
  8.5355622e-01
  4.5523277e-01
  3.3098727e-01
  6.6211388e-02
  5.8034861e-01
  1.2343833e+00
 -1.9061929e+00
 -4.5863546e-02
 -4.4082111e-01
  3.5296895e-02
 -6.0892546e-01
 -2.5262195e-01
 -2.2775123e+00
 -2.7023261e+00
 -3.8750201e-01
 -1.4171618e+00
  6.1239764e-02
 -7.8508866e-01
  7.3538226e-01
  1.4162679e+00
  8.7250859e-01
  8.8587202e-02
  9.7735965e-01
 -1.4138618e+00
  6.5061694e-01
 -7.5314760e-01
 -6.7098588e-01
 -2.0029676e-01
  3.6715773e-01
 -1.4822507e+00
 -1.5317304e+00
  6.0506153e-01
  1.2400053e-01
  1.5939351e+00
  5.4075700e-01
  8.9511740e-01
  1.5056541e+00
  2.0345013e+00
  1.6558658e+00
 -6.4379528e-02
 -3.5874501e-01
  2.3796053e+00
  7.1246254e-01
 -1.7803974e+00
 -4.9432948e-01
 -1.4781265e+00
 -1.7283760e+00
 -1.2656635e-01
  1.0626663e+00
 -1.2813765e+00
  1.3710984e+00
  1.0597510e+00
  1.5026380e+00
 -2.9328889e-01
 -7.5195938e-02
  4.9165758e-01
  1.2959234e+00
  6.4061242e-01
  6.5784678e-02
  3.9685819e-01
 -1.1533808e+00
 -3.5176787e-01
  1.3510610e-01
  1.0879774e-01
  9.6946448e-02
  4.4609234e-01
 -7.5578116e-02
  3.3315086e-01
 -4.2218554e-01
 -1.9120266e+00
 -1.3373281e-01
  1.0048850e+00
  9.8031884e-01
  2.7012780e+00
  4.1505814e-01
  1.2430813e+00
  1.3526255e+00
  2.6124065e+00
 -2.5969133e-01
  3.1421075e+00
  4.1058717e+00
 -3.2265372e+00
 -2.0764990e+00
 -1.8809164e+00
 -7.7463311e-01
 -3.2872880e+00
 -1.4760646e+00
 -2.8987660e+00
 -2.2600284e+00
 -4.1117966e-01
 -1.0406246e+00
 -3.8770463e-02
 -8.9077008e-01
  3.4430243e-02
  2.5314686e-01
  2.0113684e-01
 -2.3440203e-01
  2.6897734e-01
 -4.3647134e-01
 -2.4200535e+00
 -2.3877125e+00
 -1.4578021e+00
 -3.6672723e+00
  1.0586142e-01
 -1.3934386e+00
 -9.4161576e-01
  1.3250927e+00
 -3.8363036e-02
  1.6598256e+00
  4.9606037e-01
  1.3580756e+00
  6.1887503e-01
  6.3115662e-01
 -1.4299631e-02
  5.4660827e-01
  6.8918359e-01
  6.4799523e-01
  9.3291152e-01
  1.8197301e-01
  1.3054341e+00
  9.5521307e-01
 -4.6117440e-01
  1.2206831e+00
  2.5392799e+00
  1.2074116e+00
  2.7336857e+00
  2.6074834e+00
  2.6952788e-01
  4.6945259e-01
 -7.4185985e-01
 -1.5938475e+00
  3.1185362e-01
 -5.3577695e-02
 -1.2762792e-02
 -5.2327889e-01
  2.6325917e-01
 -1.4778386e+00
 -1.7805798e-01
  3.0196628e-01
 -3.1455192e-01
  3.2162368e-01
 -1.0511160e+00
  4.6142405e-01
 -1.2833686e+00
  2.8852636e-01
 -2.1220769e-01
 -1.0895804e+00
  3.0060750e-01
 -1.8841791e-01
 -2.8427151e-01
  6.4072055e-01
 -5.9661008e-02
 -5.4621625e-01
  4.1028240e-01
 -5.3366965e-01
 -3.9419621e-01
 -1.6848248e-01
 -4.2450923e-01
 -6.6554293e-02
 -4.8240572e-01
 -4.7381005e-01
 -1.1207324e+00
 -6.0183549e-01
  5.2811438e-01
 -2.7073655e-02
  5.9260559e-01
 -8.8507193e-01
 -3.7556558e-03
  1.1490718e-01
 -8.3458938e-02
  7.3825634e-01
  9.4645351e-01
  1.3787062e+00
  6.7665860e-02
 -1.6005790e-01
  8.5401148e-01
  6.5936881e-01
  8.5547924e-01
  8.3590351e-02
  5.9902984e-01
  1.3592713e+00
 -2.2192528e+00
 -8.9975566e-01
 -1.6651314e-01
  3.3221528e-02
  7.2363213e-02
  4.4978264e-04
 -2.3952954e-01
  5.2169490e-01
  6.3677788e-01
  8.1955034e-01
  2.2426502e-01
  8.9437431e-01
 -1.0415525e+00
  3.4962288e-01
 -9.0800869e-01
 -6.1009467e-01
 -1.8319404e+00
  1.3932154e+00
 -1.4808462e-02
 -1.5015966e-01
 -1.2590632e-01
  8.5711205e-01
  1.0739739e+00
 -1.8181877e+00
 -2.7687728e-01
 -2.8527572e+00
 -4.4750133e-01
 -5.5910164e-01
 -1.2156353e+00
  4.5784393e-01
  7.1907824e-01
 -8.7547368e-01
 -9.1221601e-02
 -1.6146299e-01
  7.3175496e-01
  1.3291526e-01
  3.3327988e-01
 -8.2842553e-01
  2.6457408e-01
 -2.9180160e-02
  8.9536965e-02
 -4.2763570e-01
  1.3181429e-01
  1.6100172e-02
 -8.6203033e-01
 -1.1725916e+00
  8.8525325e-01
 -1.0105528e-01
 -1.4359759e-01
  2.1942008e-02
 -9.3917978e-01
  2.2538969e-01
 -4.3213242e-01
 -3.4257549e-01
  4.2497505e-02
 -5.8568352e-01
  1.8733681e+00
 -1.4726837e-01
 -6.1220247e-01
 -1.0532824e+00
 -6.7684136e-02
 -2.2616358e-02
  3.0805249e-02
 -4.9247220e-01
 -7.3469885e-02
 -7.0771351e-02
  3.6271170e-01
  4.5270756e-02
  1.2784877e+00
 -9.5432633e-01
  1.8238339e+00
 -2.3831592e+00
 -4.5333785e-01
  8.8075006e-01
 -8.2159472e-01
  3.7917260e-02
 -8.6693370e-01
 -4.0617132e-01
  2.0687027e+00
  1.6208362e-02
 -7.7879661e-01
  1.1086127e+00
  1.9624512e+00
  1.4736545e+00
  1.3347932e+00
  1.5571600e+00
  2.4035583e+00
 -1.7512982e+00
 -1.6011269e+00
 -1.4788465e+00
 -1.0890521e+00
  6.1327571e-01
  5.6668061e-01
 -1.8798745e+00
  1.2222100e+00
  7.7713305e-01
  1.1526797e+00
 -2.0787983e-01
  5.1928270e-01
  1.0134116e+00
