nep4 5 Ti Al Mo Zr V 
cutoff 6 5 146 84
n_max 4 4
basis_size 8 8
l_max 4 2 0
ANN 30 0
  1.0727193e-01
 -1.5593301e-01
  1.6649509e-02
 -3.5155722e-01
  4.7449476e-01
  1.3244571e-01
 -2.8075039e-01
  6.6920578e-01
 -3.6947079e-02
 -2.8319806e-02
 -7.2823845e-02
  4.2462379e-02
  9.6549250e-02
 -3.7333865e-02
 -3.0550739e-01
  1.5923039e-03
 -3.2599896e-02
  1.7256664e-01
 -1.0406799e-01
  1.6810101e-02
 -7.5017470e-01
 -6.4111210e-02
 -1.5302115e-02
 -6.8808787e-02
  5.3321928e-02
 -1.4911491e-01
 -2.4433944e-02
  1.3587338e-01
  6.5145381e-02
 -3.6188208e-02
  1.4364831e+00
  7.3749095e-01
 -8.5184509e-01
 -1.3782227e+00
 -2.3235163e-01
  4.7651598e-01
 -3.0917833e-02
  2.2181135e-02
  6.2540102e-01
  4.3555209e-01
  1.1362573e+00
  2.8889287e-01
  6.1994082e-01
  3.2468173e-01
 -3.1226719e-02
  1.6879897e-01
  4.1498211e-01
  2.9334533e-01
  7.2492665e-01
  1.6921680e-01
  1.3108139e-01
  6.3785046e-02
  5.8330286e-01
  2.0434144e+00
  2.7805972e-01
  4.2583223e-02
  3.4195706e-02
 -4.0363741e-01
  2.1007627e-02
  1.3218261e-01
 -7.6292890e-01
  9.0155017e-01
 -2.5630611e-01
  1.1969861e+00
  4.7261941e-01
 -2.2150712e+00
 -5.4131433e-02
 -5.3524989e-01
  6.9560155e-02
 -6.9765991e-01
 -6.8606720e-03
 -2.5526419e-01
  2.9609630e-01
  9.3563002e-01
 -3.1525359e+00
 -1.3057414e-01
  6.7309207e-01
 -1.3149303e+00
  4.3152243e-01
 -9.9492240e-01
 -5.8344108e-01
  4.8191211e-01
 -1.6574632e-01
  5.3984249e-01
  5.8855152e-01
 -6.1575331e-02
  5.5914843e-01
 -9.5955662e-02
 -1.3352512e-01
 -1.2873474e-02
 -1.8315272e+00
  1.2375161e-01
 -8.3511662e-01
 -3.0691344e-01
 -1.7683146e+00
  1.3663596e+00
 -4.7036573e-02
 -4.9350623e-02
 -8.7228131e-01
  3.1314522e-02
 -1.4175818e+00
 -3.2706419e-01
 -6.9042724e-01
 -3.4907181e-02
  5.9712920e-02
 -6.7553687e-01
 -7.0051484e-02
 -1.6253635e-02
 -1.1950599e+00
  1.0990008e+00
 -8.6634785e-01
  5.9669423e-01
 -1.1944236e+00
 -7.2935425e-02
  6.0959548e-01
 -2.0681477e-01
  7.4053144e-01
 -4.7797699e-02
  1.3351564e-01
 -1.1373707e-02
  5.7774359e-01
 -2.6676875e-01
 -1.8318908e+00
  7.8266002e-02
  9.3643606e-01
  2.0232668e+00
  3.4004498e-02
  9.5016712e-01
 -7.5440697e-02
 -1.6527824e+00
  1.7526075e+00
  1.0118637e+00
  1.1678191e-01
  2.0311156e-01
 -1.4340845e+00
  3.2326791e-01
 -1.2641120e+00
  7.7153876e-02
 -2.7303362e-01
 -1.9253418e+00
  7.0884925e-01
 -5.3296769e-01
 -9.0506786e-01
 -2.3716412e-01
 -2.6960480e+00
 -3.8385332e-01
 -5.7904996e-02
  3.6255524e-03
 -4.8136991e-01
 -1.2696228e+00
  1.6992278e-02
  2.6346264e+00
  3.9205319e-01
 -1.0590582e+00
  6.1561769e-01
 -9.7633600e-02
 -9.8150149e-02
 -1.0486926e+00
 -5.4900569e-01
 -1.3973944e+00
 -6.2144112e-02
  1.1926102e-02
 -2.9991689e-01
  9.9910814e-03
  8.5524119e-02
 -9.8681420e-01
  8.3754796e-01
  4.5090187e-01
 -1.5853490e-01
  2.4699210e-01
  1.3765022e+00
  5.7966900e-01
  1.5654753e+00
  4.6728656e-01
  1.3370416e+00
  4.6042334e-02
  2.5526501e-02
 -4.2094523e-03
  4.7891311e-02
 -5.7082689e-01
 -1.4709978e-01
  8.4306970e-02
 -4.2639364e-02
  1.5057541e-01
 -5.5361077e-02
 -1.9760514e-02
  2.7335608e-02
  2.6233345e-01
  1.6023384e-01
 -8.0538467e-02
 -3.7125948e-01
 -1.7262350e-01
  6.1479941e-02
  9.0332456e-02
  1.9319259e-02
  1.4028770e-02
 -1.1057092e-01
 -6.5630250e-02
 -1.5615866e-02
 -9.5206928e-03
 -1.0128391e+00
 -4.6916012e-02
  4.3285573e-01
  9.2794359e-02
 -4.2367926e-01
  2.3137784e-01
 -1.1216163e-01
 -2.8800530e-02
  1.9683586e-01
 -5.5247739e-02
  5.5158526e-01
 -6.6330791e-01
 -1.7141449e+00
 -1.8673438e+00
  9.9239624e-01
 -1.5272486e+00
  2.8257576e-01
  3.3264409e-03
  1.2568444e-01
  2.4526169e+00
  1.2244824e-01
  3.0758226e-01
  8.5854959e-03
 -5.2260447e-01
  3.6884555e-01
 -3.1910726e-01
 -4.2742226e-02
 -1.7223999e-01
 -7.9886544e-01
  1.6436180e+00
 -1.2986385e+00
  2.2338282e-02
 -1.0042337e+00
 -1.0987296e+00
  1.2280760e+00
 -1.1192940e+00
 -6.2860139e-02
  1.9600511e-01
  2.9467274e-02
  1.0259534e-01
 -7.0884126e-01
  1.3517458e+00
  1.4038837e+00
  1.6872344e+00
 -1.4342017e+00
 -1.5566222e-01
 -1.7711628e-02
  3.5302833e-01
 -9.5512725e-02
 -2.1641774e-02
 -4.0129337e-01
  6.4310871e-02
  2.4012476e-02
  1.7719636e-02
  4.1624922e-01
  9.5062539e-02
  3.0021757e-02
 -7.3566455e-03
  5.9891585e-02
  1.9710925e-01
 -5.1829153e-01
  1.0487209e-02
 -8.9495614e-02
 -2.1811512e-01
 -3.3644930e-02
 -1.9231513e-03
 -1.0193776e-01
 -4.9300268e-02
  3.0262763e-02
  7.2827525e-02
 -3.6223158e-01
 -1.3925065e-01
  1.2574637e-01
  1.9645306e-01
  1.9419771e-01
 -2.1993527e-01
  5.4315269e-01
  3.3037655e-02
  1.7846784e-01
  7.9467073e-02
 -1.3730116e-01
 -2.2906244e-02
 -2.0103890e-02
  6.2801051e-03
  4.4008943e-01
 -6.1867736e-02
 -9.2527764e-03
  1.3400762e-01
  2.3938952e-02
 -1.1594676e-01
 -1.0224279e+00
 -1.3410051e-01
 -2.6923789e-02
 -1.0295956e-01
  1.9227590e-02
 -1.4372960e-02
  9.0662348e-01
 -1.2393697e-01
  3.6121998e-02
  1.3441209e-01
  3.1202474e-01
 -1.4763455e-01
  1.7145220e+00
 -5.9410919e-02
 -3.2819197e-02
  4.3436033e-01
  1.5218471e-01
  1.9050217e+00
 -7.2011575e-02
  3.7789589e-01
  2.1687629e-02
 -1.3433847e-01
  5.2334715e-02
 -1.9173750e-01
  6.1989212e-01
  4.6520513e-01
  2.8448170e-02
 -1.3576255e-02
  6.2756069e-02
  5.5563414e-01
  1.5020030e+00
  2.3687507e-01
 -3.2578152e-02
  2.5895956e-01
 -2.0202850e-01
 -4.9826284e-03
  1.3817789e-01
 -6.6755868e-02
  3.0688930e-02
  1.4734130e-02
 -1.1789178e-01
 -1.0932527e-02
 -1.0752845e+00
 -2.2959508e-02
 -6.0186881e-01
  1.1199863e-01
 -4.4337328e-05
  1.2371086e-01
  3.0767912e-02
  1.7511103e-01
 -1.2332036e-01
  1.9098650e-01
 -3.5196394e-02
  1.0427518e-01
  2.4478162e-02
 -1.2017804e-02
 -2.0818029e-01
 -3.6084782e-02
 -2.9924624e-02
  1.3183425e-01
  1.9141724e-02
  5.0271064e-02
 -4.8986278e-03
  2.2279264e-01
  1.1553045e-01
 -2.2322410e-01
  9.7192389e-01
  1.0475627e-01
 -1.0960467e-01
  5.4295663e-02
 -2.5667533e-01
  2.3784533e-01
 -9.7789682e-02
 -1.8790613e-01
  7.3287666e-02
  1.7706567e-02
 -9.1838799e-02
 -7.8274786e-02
 -8.6297996e-02
 -1.3896601e-01
 -3.5318013e-02
 -2.3833542e-01
  3.5284007e-01
 -8.7666892e-02
 -1.5569316e-02
 -2.6421351e-02
  1.0814425e-01
 -2.2238567e-02
 -6.9073871e-02
 -4.5938727e-01
 -8.4775585e-01
 -3.2462690e-02
  2.0585826e-02
  1.7906438e-01
 -2.3568403e-02
 -1.0135646e-01
  6.7259632e-02
 -5.4064631e-02
 -9.4528943e-02
  1.3170254e-02
 -2.0738113e+00
  1.3570781e+00
  4.8759356e+00
  3.5695174e+00
 -1.3582000e+00
 -2.9823495e-02
 -5.6435740e-01
  1.0619108e-01
 -2.3153810e-02
 -1.7074712e-02
 -6.7187242e-02
 -1.6031163e+00
 -4.2621818e-01
 -9.7978547e-02
 -2.3545239e+00
 -2.1516507e+00
  4.6702575e-02
  5.4642427e-01
 -1.4371688e+00
 -1.4491854e+00
  1.3703954e+00
  3.1690340e-02
 -5.0980669e-01
 -6.9475108e-01
 -1.3908951e-01
 -5.2928871e-01
 -7.7823751e-02
 -2.3216011e-02
  7.4276872e-02
 -3.9924070e-02
 -5.9960887e-02
  4.1713733e-02
 -1.0725626e-01
  1.1002402e-01
 -1.4601935e-01
 -5.7727180e-02
 -2.1751862e-02
  7.8844562e-02
 -2.5788660e-03
  3.5809230e-02
 -2.6304720e-02
 -7.5851843e-02
  4.3759976e-02
  9.1222800e-02
  2.1628743e-01
  1.2047446e-02
 -6.6516943e-02
 -3.0449627e-02
 -1.9170307e-02
 -1.3729056e-02
 -3.7571412e-02
 -7.3684677e-02
  9.8329661e-03
 -3.4855075e-02
 -1.2449291e-02
  1.1767036e-02
 -2.0742567e-01
  2.0775869e-03
  8.2002059e-03
  2.8800890e-02
  1.4165401e-01
 -1.8987478e-01
  7.7224541e-01
 -4.2527550e-01
 -5.6343180e-01
  1.5977196e-01
  6.0273665e-01
 -6.1789188e-03
 -9.0720847e-02
  2.1173772e-01
  1.3193540e-01
 -1.2963775e+00
 -2.1227404e-01
 -9.2263810e-02
  6.3726683e-03
  8.1572019e-02
  6.0324753e-03
  4.1088101e-02
 -7.4397221e-02
  3.7260258e-01
  4.0013514e-02
 -1.3666943e-01
  1.0525456e-02
 -1.6223453e-03
 -1.3600571e-01
  4.2684767e-02
  1.8536365e-02
 -9.7837105e-02
 -8.5134484e-02
  4.8950572e-02
 -5.3651041e-01
 -2.3183937e+00
  1.1598895e+00
 -1.9831347e+00
  4.9906746e-01
 -1.3740227e+00
  5.4410227e-02
 -1.2759129e+00
  1.6239814e-01
  1.6026456e+00
 -9.5639908e-01
 -3.3618307e-01
 -1.0194217e-01
 -3.2117844e-01
  6.9777300e-03
 -6.3787806e-01
  8.1515253e-02
 -8.4747262e-02
 -2.7058634e-01
  4.2340153e-01
 -8.9749587e-01
  1.4425455e+00
 -1.0799329e+00
  2.8053042e-01
  2.3201680e-02
  9.8504320e-02
 -1.6620004e-01
  1.3319941e-01
  1.6988449e-03
  4.9263561e-01
 -1.5155595e-02
 -6.5323246e-01
 -1.8639405e-01
 -2.3422892e+00
  1.1880420e+00
 -6.6726841e-02
 -5.9608996e-02
 -1.7847578e-01
  9.2910521e-02
  1.1358775e-02
  2.1081025e-02
  3.9231628e-02
  5.1878476e-01
 -2.9960883e-01
  5.1370980e-03
  6.3196830e-02
  1.0020996e-01
  9.7716972e-02
  1.9420663e-01
  5.1951808e-01
  1.0204054e-01
  4.5344755e-01
  2.8631955e-01
  7.0620173e-01
  3.6703727e-01
  2.3087427e-01
  2.5743209e-02
  1.0634660e-01
 -7.8716993e-02
  8.9777403e-02
 -2.4069382e-02
  3.1897700e-01
 -1.4701293e+00
  5.4888774e-02
  1.7733665e-02
 -1.3152690e-01
  1.1719334e-02
  1.0974552e-01
  1.2042922e-01
  4.1517708e-02
  3.2762673e-02
  2.3089910e-02
 -7.1142085e-02
  1.1842616e-01
 -1.3360472e-01
 -9.6345119e-02
  3.9991826e-02
 -2.0450693e-02
 -1.8984060e-01
 -3.2507640e-01
 -2.7491647e-01
 -1.6355436e-02
 -1.2730528e-01
  1.5886273e-02
  3.0225167e-01
 -1.4881873e-01
  1.7544275e-02
  1.7711988e-02
 -1.9789886e-01
  1.7630322e-02
  4.6936691e-02
  8.2235388e-02
 -3.1835744e-01
  1.7758459e-02
 -4.9455552e-03
 -3.7971944e-02
  1.4672649e-01
  3.3896334e-02
  2.1256931e-01
  1.4020236e-01
  8.6261742e-02
 -1.0810666e-01
  6.8377756e-02
 -1.2443974e-01
  1.6549639e-01
  2.2692436e-01
 -1.1175396e-01
 -1.7297377e-01
  9.9427015e-02
 -6.5333575e-02
  6.8961829e-04
  1.6899407e+00
  1.3720071e-01
  1.3550956e-02
  2.9708449e-02
 -1.8406703e-01
 -1.0097708e-03
 -1.5961595e-02
 -6.5409392e-02
 -3.6220055e-02
 -4.1095197e-01
  1.3600571e+00
  5.1890928e-02
 -1.0370370e+00
 -4.0430558e-01
 -9.9318546e-01
 -1.6910453e-01
 -1.6402091e-01
 -1.1099149e-01
 -1.2147988e+00
  4.8927572e-02
  6.7646109e-02
 -9.9289256e-01
  8.5517071e-02
  2.4060280e+00
 -2.3909846e-01
  9.2242128e-01
 -6.6109228e-01
  2.8591019e-01
  5.4697639e-01
 -4.7117311e-01
  3.3859649e-01
 -2.3165466e-01
 -2.0326695e-01
 -1.4310987e+00
  2.6628643e-01
  1.5068862e-01
 -7.9514503e-02
 -3.3136714e-02
 -2.8075221e-01
  1.5003613e-02
 -4.6196561e-02
 -1.6819566e-01
 -6.3423939e-02
 -3.0371699e-01
  3.8115706e-02
 -1.1244435e-01
  2.0933345e-02
  1.2149403e-01
  5.9716986e-03
  2.4284437e-01
 -3.3958752e-02
 -7.7658504e-02
  4.7237832e-02
 -3.5232279e-02
 -6.7541897e-02
  2.2144461e-02
  6.9772638e-02
 -1.1623541e-01
 -4.9681008e-02
  2.0132209e-01
  3.1553671e-02
 -1.0723171e-01
  2.3244286e-02
  3.4763984e-02
  1.8572839e-01
  1.1323958e-01
  2.7930586e-02
 -8.3024599e-02
 -6.7428000e-02
 -8.9552271e-01
  2.8813002e+00
 -4.1483200e-01
 -1.0646660e-02
  1.6402810e+00
  9.4638234e-01
 -8.4734672e-01
  5.7822013e-01
 -4.9444568e-01
 -4.0509114e-01
 -1.4012678e+00
 -7.3911905e-01
 -8.3511215e-01
  5.3404957e-02
 -4.7941589e-01
 -7.1120396e-02
 -2.3561192e-01
  7.5206262e-01
  8.6682576e-01
  7.3002450e-02
 -1.5483217e+00
 -7.1737945e-01
 -1.5726647e+00
  2.3179239e-02
 -1.4512171e-01
  1.4010356e-01
  1.4299588e-01
 -9.8279887e-01
  1.1232201e-01
 -1.2083528e-01
  2.2423905e-01
  7.1724191e-02
 -2.9672823e+00
 -1.7344429e+00
  6.0206425e-01
  9.5202476e-01
  2.9109571e+00
 -1.0923564e+00
 -1.9009425e-01
  3.9570639e-01
  7.5530016e-01
  2.3130170e-01
 -1.0673839e-01
  3.2396678e-02
  2.0623488e+00
 -1.0664438e+00
 -1.4703804e+00
  1.7986059e-01
  1.0541509e+00
  1.1635582e+00
 -2.8898031e-01
  7.6339823e-01
 -4.1214168e-01
  5.0865942e-01
  7.7815264e-01
  1.5505432e-01
  2.6791477e-01
  1.6667876e-02
  8.0472517e-01
 -7.6235393e-03
 -2.3158853e+00
 -2.3099332e+00
 -8.4546703e-01
 -3.8945436e-01
 -1.3958722e+00
  1.7236152e-01
 -5.7506304e-02
 -4.6229422e-01
  2.2654530e-01
  2.0083912e-01
 -1.1320066e+00
 -2.6235884e-01
  1.4000516e-01
  5.1414341e-01
  2.1312053e+00
 -1.0685353e-01
 -2.5080092e-02
  4.6358812e-01
  6.0295945e-01
  5.0125444e-01
  6.1944747e-01
  7.7897584e-01
 -1.5980679e-01
  1.0428237e+00
 -5.3493667e-01
  1.0913938e-01
  1.0247188e-01
  9.5426969e-02
  4.4948402e-01
 -2.8883061e-01
  8.0814886e-01
  2.9828504e-01
 -1.6514939e+00
  1.9390777e-01
  1.8364321e-01
 -4.9131881e-03
 -1.1871037e-01
 -6.1124198e-02
  3.5953674e-02
  2.0108329e-01
 -1.2936038e-02
 -2.8387779e-01
  6.1519635e-01
  1.2458833e-01
 -3.7740263e-01
 -1.9070378e-02
 -1.0401789e-01
 -1.5404597e-01
  3.3129077e-02
 -4.0438050e-01
 -6.1603934e-01
  3.4396192e-01
  1.8578118e-01
  5.3336143e-02
 -1.6328178e-01
 -1.6132038e-02
  1.5065420e-01
  7.7612377e-03
 -1.1527278e+00
  6.8597756e-02
  2.4103043e-03
  4.4850171e-02
 -5.7234215e-03
  1.2643495e-01
 -5.4924160e-02
 -2.1013144e-01
  3.2874964e-02
  1.0713061e+00
  2.2864729e-02
  1.2960993e-01
 -3.1409781e-02
  9.8642096e-02
 -2.2534288e-03
  3.0295223e-01
 -1.1470975e-01
 -2.3539439e-02
  2.6322424e-01
 -2.1390450e-01
 -9.1408245e-02
 -3.9365932e-02
  1.1778983e-02
 -1.3569340e-01
 -1.1328162e-01
 -5.2479129e-02
 -3.9922524e-02
  1.4109911e-01
  1.8551352e-02
  4.8881479e-02
 -3.4165900e-02
 -1.2992795e-01
 -4.7144443e-02
 -1.3426523e-01
 -1.7288825e-01
  2.2794388e-01
 -1.5097791e-02
  6.1605863e-02
 -5.4862387e-02
  3.9739329e-02
  2.3718344e-01
  1.6751517e-02
  3.7962515e-02
 -9.7590631e-01
 -1.0717805e-02
  1.1898296e-01
  1.6078327e-02
  2.2415859e-01
  1.5901279e-01
 -7.8841649e-02
 -2.0893110e-01
  6.2268293e-01
  4.3170020e-02
  2.2989919e-02
 -4.1710681e-01
  2.6691446e-02
  6.6217624e-02
 -6.8931237e-02
 -5.2919179e-02
 -4.8623964e-02
 -1.1869536e-02
  1.7125295e-01
  1.5987675e-01
  2.4696956e+00
 -7.5625487e-02
  1.5894792e+00
  1.3198806e-01
 -8.9704692e-02
 -3.6736917e-02
  1.0660397e-01
 -1.4459576e-02
  6.3988036e-01
  3.4750742e-01
 -1.9571342e-01
  7.1121097e-02
 -1.2240700e-02
  8.5379100e-01
 -3.6278066e-01
 -1.1917683e+00
 -4.6757171e-01
 -1.0598451e+00
 -7.9328591e-01
  8.9726478e-01
 -3.0527747e-01
  1.1935774e+00
  1.3137151e+00
  6.1830097e-01
  8.2748204e-02
 -5.2954994e-02
  2.4705227e-01
  5.5081302e-01
  3.4464309e-01
  2.8076398e-01
  4.6308380e-01
  9.5118850e-01
  7.8113806e-01
  1.3322480e-01
 -3.4727097e-02
  1.3773610e-01
 -4.0767048e-02
 -9.2223436e-03
 -4.2026660e-01
  1.1291794e-01
 -4.5355365e-02
 -2.6482575e-02
  3.7876982e-02
 -8.1264026e-02
 -5.9598342e-02
 -2.9261597e-02
  6.6561282e-01
  2.0770347e-01
  1.9632461e-02
 -1.2442181e-01
 -1.7809859e-01
  2.6175212e-02
  1.8156162e-02
 -1.8518564e-01
  5.0201858e-03
  6.6658020e-02
 -3.5822403e-01
 -5.1392473e-02
  1.5230107e+00
  1.1371326e+00
  1.7457520e+00
 -3.5515490e-01
 -9.7032702e-01
 -5.5761421e-01
  5.9386498e-01
  1.1609303e+00
  2.0957456e+00
 -2.8625329e+00
 -3.6421844e-01
  7.7628618e-01
  4.1959307e-01
  1.3628423e+00
 -2.1042371e-01
  8.5154945e-01
  6.4199120e-01
  8.4145248e-01
  2.4650056e+00
  3.5975013e-02
  9.9902952e-01
  2.8296900e-01
 -1.9798543e-01
  1.0102457e+00
  2.3785752e-01
  1.0383862e+00
 -1.7587757e-01
 -1.5388663e+00
 -1.7575704e+00
  9.1636688e-01
 -1.2652075e+00
 -4.5957187e-01
  8.9855403e-01
 -1.9204202e+00
 -1.5003892e+00
 -1.5150794e+00
 -1.2704796e+00
 -7.9787433e-01
  1.1824263e+00
 -8.8074112e-01
  2.9781985e-01
 -4.7646236e-01
  2.2652715e-01
 -1.2118057e+00
  2.6642883e+00
  1.4089455e-01
 -3.1795692e-01
  1.0792421e+00
  5.8770585e-01
  2.0776187e-01
  1.5014526e-01
 -1.2504433e+00
 -6.2045589e-02
 -1.0820745e+00
 -2.4594927e+00
  1.4843935e+00
  8.5450131e-01
  4.4699046e-01
  1.2429645e+00
  1.9755142e+00
 -4.0400013e-01
 -3.6318555e-02
  2.6250942e-02
 -4.4361200e-02
  3.2562993e-02
 -1.0719356e-01
 -5.4719794e-01
  1.0909217e-01
 -2.7637376e-02
  2.6787379e-01
 -1.8546531e-02
  1.8869879e-02
 -2.2265106e-01
 -2.0684652e-02
  4.9627729e-02
  5.7847958e-02
  1.3912083e-03
 -4.5984916e-02
 -1.4459458e-01
  7.7364326e-01
  1.1251090e-01
 -9.0791401e-04
 -5.0846927e-02
 -2.7989011e-02
  1.1726582e-01
  2.7760708e-01
  7.1288355e-02
 -5.3848889e-02
 -1.7164710e-01
 -3.9167017e-02
  1.6189195e-02
 -5.2628547e-02
  1.0766166e-01
  5.2214555e-02
  6.7966871e-02
  1.0247403e-01
 -5.9119597e-02
 -8.3099268e-02
 -1.2336780e-02
 -3.8172189e-02
 -6.0329354e-01
  7.8637183e-02
 -1.9760436e-01
 -5.5926363e-03
  1.5982863e-01
 -1.2123507e-02
 -9.9869624e-02
  3.6574580e-02
 -2.2864418e-01
 -1.1575356e+00
  4.7609124e-02
 -3.0816514e-02
 -2.0909039e-02
 -6.3431032e-02
  3.5645947e-01
  8.6903736e-02
  2.8931178e-02
  6.8976849e-02
 -1.1214006e+00
 -5.1860433e-02
  3.0530201e-02
 -2.4174543e-02
  8.4094077e-02
 -6.0378037e-02
  3.9315831e-02
  3.6264686e-03
  1.0777219e-01
  8.3490990e-02
 -1.2035251e-01
  9.2533775e-02
  6.4475164e-02
  8.1867956e-02
 -2.2644340e-01
  6.4566739e-02
 -7.6722004e-02
  2.0818029e-02
 -2.7390212e-01
 -2.2129646e-01
  6.2503733e-02
  9.8862475e-01
 -1.2560293e-01
 -3.2975397e-01
  4.3745887e-01
  4.1663668e-01
 -1.7652847e-02
 -2.9645599e-02
  2.9630885e-01
  4.0845555e-01
  6.1541271e-01
 -1.3819853e-02
  2.0648900e-02
  1.1874159e-02
 -4.6404132e-01
  4.3895862e-01
 -3.4351373e-01
 -5.6628566e-02
  8.2099646e-02
 -3.4414105e-02
 -1.6522454e-01
 -4.6636558e-01
 -1.7256543e-01
 -5.8387773e-04
 -5.8343019e-03
  6.3216193e-03
  3.2331330e-01
  2.2112618e-01
 -2.1229643e-02
  4.4850830e-02
 -1.0629467e-01
 -1.8702164e-01
  4.4737579e-03
 -2.9310381e-01
  1.4236140e+00
 -1.1492188e-01
  2.4964117e-01
 -5.5621628e-02
 -3.0218091e-02
 -1.1229336e-01
 -9.3737699e-02
 -2.4170533e-02
 -1.1874106e-01
  2.2124884e+00
  8.4030241e-01
  1.0046350e+00
  9.5553857e-01
 -3.7681469e-01
  2.7422988e-01
  4.1363913e-01
 -1.5111201e-02
 -4.9242858e-02
  3.6234760e-01
  3.1087217e-01
  2.7938440e-01
  4.6306875e-01
 -9.8421417e-02
  4.1308694e-02
  4.4665161e-01
 -1.4269613e+00
 -4.8281685e-02
 -6.1584151e-01
  4.3332559e-01
  3.8302776e-01
 -6.2291318e-01
  1.9803552e-01
  3.8551139e-03
 -1.3372092e-01
  1.2938531e-01
 -9.7162706e-01
 -6.9185054e-01
 -2.6782583e-02
 -2.4598075e-02
 -2.6836766e-02
  2.9113597e-01
 -7.5720710e-01
  1.6045814e+00
  1.0198412e+00
  6.0223967e-01
  4.7949144e-01
  1.3990468e-01
 -4.9124718e-02
  5.3811467e-01
  3.9673012e-01
 -5.0242770e-01
  1.0149162e-01
 -1.1948724e-01
  6.3415021e-02
  4.5239903e-02
 -3.2272391e-02
  8.8145608e-01
  7.4310094e-01
  6.1521518e-01
  6.6237462e-01
  4.7658402e-03
  3.1131777e-01
 -3.6551392e-01
  1.1785264e-01
 -6.4493045e-02
  2.0343384e-02
 -2.9037030e-02
 -1.6188591e+00
 -1.7086129e-01
 -1.6786598e+00
  2.9135169e-02
  1.5239006e-01
 -1.9840857e-01
  4.2242870e-01
  2.3043956e-01
  5.4171979e-01
 -9.8612562e-02
 -2.4595119e-02
 -1.3361667e+00
 -4.9202226e-02
 -3.9136063e-02
  2.7466431e-01
 -1.2924075e-01
  7.4278307e-03
  2.2574863e-03
 -1.1620464e-01
 -1.7979058e+00
  3.4585558e-02
  1.6875584e-01
  8.5810825e-02
 -1.6117986e+00
  1.9743146e+00
 -2.9820910e-01
 -9.0377638e-03
 -1.9137073e-01
  2.7102653e-02
 -4.9419242e-01
 -5.5422045e-02
  5.6575486e-03
 -7.6111920e-02
  4.0389724e-02
 -8.8692335e-03
  9.1543451e-02
  1.0160795e-01
 -2.0596480e-01
 -6.7773402e-02
  2.5423698e+00
 -4.8938980e-03
  6.0747797e-03
  1.0774864e-01
  2.1679151e-01
 -4.1542105e-02
 -1.3530625e+00
  2.1389525e-02
  2.0033145e-01
  7.4724220e-02
  8.2651608e-02
 -2.5291219e-02
 -4.9401041e-02
  3.4189161e-02
  2.7304349e-02
 -4.9984422e-02
  2.9032994e-03
 -3.6533496e-01
 -5.0895847e-02
  1.6612992e-02
 -9.0591323e-01
 -8.9910515e-02
  1.2233651e-01
  8.6729455e-01
  1.9396768e+00
  1.2376312e+00
 -2.5884584e-01
  3.5615796e-01
  1.4388175e-01
 -4.6818447e-01
  5.6072927e-01
 -8.2857691e-02
  2.7288156e-02
  1.4083370e+00
  1.6430357e-01
  8.7036878e-01
 -5.6082469e-01
  8.1893712e-01
  1.7183277e-01
  1.8034966e+00
  2.2257750e+00
  2.2553952e-01
  6.6021401e-01
  9.5090616e-01
 -1.0073525e-01
  5.7565260e-01
 -3.2030184e-02
  6.9002487e-02
  2.5510380e-01
 -9.5412247e-02
 -3.0101001e-01
 -8.5008994e-02
  4.2836279e-02
 -1.4216255e+00
  7.1777538e-03
 -8.7032020e-01
  3.8938087e-01
  1.2660381e+00
  1.7668002e+00
  3.2719847e-02
  2.5856891e+00
 -7.6105565e-02
 -8.5312259e-01
  1.2647376e+00
 -6.2032866e-01
  1.9389145e+00
 -2.0525302e-01
  1.7741199e+00
 -9.6978275e-03
 -3.0950680e-01
  1.9407729e+00
 -5.1027298e-01
 -8.2518503e-02
  4.3364009e-01
 -2.8070116e-01
  1.3418063e+00
 -7.5444031e-01
  6.0169052e-02
  2.7025586e-01
  6.0139942e-01
  1.8626900e-03
  1.1926313e-01
  5.2795196e-01
  3.1275896e-03
 -4.6745226e-02
 -1.0144708e-02
 -1.4924181e-01
 -7.5606667e-02
 -1.9767860e-01
 -7.3884733e-02
 -2.0521988e-01
  1.0208442e-01
  2.8388662e-02
  3.3157831e-01
 -1.9963960e-01
 -3.9755684e-01
  1.1548804e-02
  4.3483465e-03
  1.7046534e-02
 -5.7207912e-02
 -2.7442098e-01
 -1.1370502e-01
 -1.0132702e-01
  1.2177667e-03
 -1.2463985e-01
 -9.5731080e-02
 -1.7104909e-01
 -1.8592696e-01
 -8.9299902e-02
  3.1390481e-02
  1.0981154e-01
  1.0809509e-01
  5.9463356e-02
 -6.1951786e-01
 -4.1859351e-02
 -1.5611069e+00
 -4.7301212e-01
  1.1357130e+00
 -6.0421807e-01
  2.1918936e+00
  3.6965918e-02
  2.2836258e-03
 -2.2648031e-01
  1.0392831e-02
  6.4078063e-01
 -4.3478155e-01
  4.2172119e-02
  8.1006205e-03
 -1.8324880e-01
 -1.1051635e+00
 -1.2175139e-02
 -5.8855768e-02
 -7.2601575e-01
 -1.9326872e-01
 -9.4146335e-01
  4.1386150e-02
 -8.2419753e-02
 -6.3641948e-01
 -1.4242209e-01
 -7.1780950e-02
  2.8628394e-01
 -7.3418283e-01
 -9.6672036e-02
 -2.7992911e+00
 -5.5628008e-01
  6.9525784e-01
 -9.5925868e-01
  3.1756765e-01
 -4.5560944e-01
 -3.1706432e-01
 -7.0442712e-01
  1.1819175e-02
 -1.7561451e-01
 -6.7115098e-01
 -1.1989311e+00
 -2.6496693e-01
  7.9614317e-01
 -1.9325280e-01
 -8.2700007e-02
 -4.6223843e-01
 -3.8209543e-01
  6.2301904e-01
 -8.5458338e-02
  1.2587025e-02
  6.6370237e-01
 -3.9006603e-01
 -7.4188501e-01
 -4.6877843e-01
 -9.4387546e-02
  1.3040087e-01
 -3.0124484e-02
  9.4009839e-02
  1.2043125e-01
 -8.3130531e-02
  8.2391992e-02
 -3.6771767e-02
 -5.2349187e-02
 -1.6043787e-01
 -9.9345222e-03
 -8.1318408e-02
 -1.9577636e-01
 -2.3150268e-01
  1.5050467e-02
 -1.0139477e-01
  1.7384185e-01
  3.6639176e-02
  8.0621801e-03
  2.3607114e-02
 -4.5325413e-02
 -1.0194328e-01
 -8.7288037e-02
 -3.0366061e-04
  3.0404659e-02
  1.1558528e-01
  1.3325815e-01
 -3.8411531e-01
  6.0743685e-03
 -1.5230280e-02
  1.2091269e-02
  8.4545422e-01
 -6.7161955e-02
 -8.3001606e-02
 -1.6654100e-01
 -1.9236470e+00
  1.1100255e-01
  1.0147526e+00
 -7.4178392e-01
 -9.3213588e-01
 -5.9869625e-02
  1.2258799e-01
 -1.7057951e-01
 -1.5406416e-01
  2.4674354e-02
 -2.6016119e-01
  1.1478584e-01
 -1.4720746e+00
 -1.4444613e-01
  5.7419902e-01
 -1.5700564e-02
 -2.2984955e-01
  5.5681677e-03
 -6.8408594e-02
 -4.5145014e-01
 -1.3604242e-01
  1.0821072e-01
  1.4309725e-01
 -3.0958693e-02
  1.7224284e-01
 -6.0479056e-02
 -4.7944263e-02
 -2.1154192e-01
 -3.3583339e-02
 -1.6103940e+00
 -2.3966656e+00
  1.3852094e-02
  6.9174844e-01
 -1.4403205e+00
  2.1778698e-01
 -2.0977590e+00
  4.3163747e-01
  3.4295672e-01
  1.6379583e-01
 -1.1372050e+00
 -7.6231676e-01
 -8.1031847e-01
 -4.7524873e-02
 -1.2468656e+00
 -5.2927021e-02
 -1.4193547e+00
  3.2559451e-01
 -1.2295548e-01
  6.3460970e-01
 -3.2157427e-01
 -8.3194356e-03
  3.6627930e-01
  1.3748157e+00
 -8.9921725e-01
  4.9373320e-01
 -2.2374333e-01
 -1.8240283e-01
 -1.1283449e-01
  1.1244521e+00
 -2.9614076e-01
 -1.7940378e+00
 -8.6678731e-01
  3.8292673e-01
 -1.1911883e+00
 -5.8904898e-01
 -1.9076378e+00
 -9.6312118e-01
 -1.4319491e-01
  1.3727758e-02
  9.6896127e-02
 -1.6166329e-01
  9.1447413e-01
 -2.6428163e-01
 -1.0645345e-01
  4.3849170e-01
 -1.6048611e+00
  1.8804961e+00
 -3.7961775e-01
  3.8764623e-01
 -1.5178767e+00
 -1.6972399e-01
  3.1502509e-01
  6.0717668e-02
 -6.4939111e-02
 -1.2589247e-02
 -1.4813539e-02
 -6.1948681e-01
 -1.4958128e-01
 -1.7004745e-01
 -4.5520637e-02
  7.3772597e-01
 -2.0522055e-01
  1.0653847e+00
  7.0374525e-01
  6.8814434e-02
 -7.1125311e-01
  5.1221907e-02
 -1.1578237e-01
 -7.0046860e-01
 -1.4681277e-01
  8.4721848e-02
 -2.2055455e-02
  1.1897343e+00
 -7.4034490e-02
 -2.3584757e-03
 -4.7391444e-02
 -1.1670569e-01
 -7.5190783e-02
  2.3730389e-04
  5.2395340e-02
  1.6486527e-01
 -9.4314262e-02
  4.7471177e-02
 -9.6011610e-04
  3.5442680e-02
  3.9988810e-01
  1.9533749e-01
  1.6824312e-03
 -1.9294226e-01
 -1.4052636e-02
 -1.9461989e-01
  4.5948617e-02
  1.0377462e+00
  2.2864743e-01
  3.4991029e-01
 -1.1883086e+00
  9.8063761e-01
 -4.9247108e-02
  3.7325373e-01
  3.7388712e-01
  2.4072407e-01
  3.5098765e-02
  3.6833245e-02
 -6.5072358e-02
  1.6960446e+00
 -2.0785035e-01
  1.5954615e-01
  4.6627942e-02
  5.4799605e-02
  3.7173953e-02
 -1.2957565e-01
  1.4951721e-01
  4.7837013e-01
  1.9658296e-03
  6.9522895e-02
 -9.3904130e-02
 -1.7687449e-02
 -3.8104881e-02
  4.3733814e-01
 -9.6629664e-02
 -3.3738020e-01
  3.0726054e-01
 -3.6661598e-01
  3.4670514e-01
 -1.8512920e-01
  4.0881431e-01
 -6.0517997e-01
 -2.7609676e-02
 -7.4164495e-02
 -1.4256024e-01
  1.8662646e-01
  4.9709591e-01
  6.2465048e-01
  1.4681891e-01
 -1.3402946e-02
  1.8703207e-02
 -1.5364578e+00
  1.9505553e-01
 -9.9777572e-02
 -1.4720652e-01
 -7.8704506e-02
  1.7380987e+00
  4.3453088e-01
  8.7572820e-02
  5.6830630e-02
  9.2503816e-02
 -5.0322932e-01
  1.5911786e-01
 -1.4981546e-02
  2.1691294e-01
 -1.5815231e-01
 -9.5789021e-01
 -1.6176932e-01
  2.1106030e-01
 -2.1551642e+00
 -8.0179535e-02
 -1.3190518e-02
 -3.0927390e-01
 -2.5306505e-01
  9.0724073e-02
 -8.4228665e-01
 -2.6014510e-01
 -7.1833724e-01
  3.8066670e-02
  4.8230175e-02
 -4.7619185e-01
 -9.3126863e-01
 -5.9304708e-01
 -3.1999853e-01
 -1.1954408e+00
  3.5055622e-02
 -2.5480220e+00
 -4.3253541e-01
 -9.7336495e-01
  4.6569350e-01
 -3.0020964e-03
 -6.5969236e-02
  1.0107046e-02
 -8.7374132e-03
 -5.2426749e-01
  2.3626831e+00
 -9.4739921e-02
  3.7698917e+00
  9.5699179e-01
 -2.1663301e+00
  1.3607733e-04
  2.6952054e-02
 -4.2469501e-01
  8.0649823e-01
  1.1006494e+00
  9.3800440e-02
  1.3866822e+00
 -1.1893115e-01
 -1.2129222e+00
 -9.7868413e-01
  1.0578307e+00
 -1.5163159e+00
  2.8364611e-01
  1.0762107e+00
 -1.4404272e-01
  5.3487206e-01
  1.2803240e+00
  7.8213081e-02
 -8.3136484e-02
 -3.0355000e-01
  1.8155661e-01
 -2.0902245e-01
  1.8081842e-02
 -9.1285519e-02
 -1.6522763e-02
 -1.6579974e-01
 -4.6440206e-02
 -9.8165080e-02
 -2.3532535e-01
 -4.8468258e-02
 -1.5994014e-01
  2.5919226e-01
 -9.1982439e-02
 -1.7234218e-01
  1.7546608e-01
 -2.8432566e-01
  1.4822923e-01
 -5.0603822e-02
 -1.8309576e-02
 -8.5909599e-03
  1.0969257e-01
 -3.1452298e-02
  3.0462611e-02
  5.6226306e-02
 -2.0051834e-01
 -8.1317432e-02
 -1.4402531e-01
  2.5393881e-02
  2.0409625e-02
 -5.5690236e-02
  9.0858787e-02
  2.2115948e-02
  2.1730943e-02
 -3.0757827e-01
 -2.9431472e-02
  3.5279024e-01
  4.7092545e-01
  3.3450237e-01
  1.4420067e+00
  1.7949784e+00
  5.7441097e-01
  1.7372072e-02
  5.9853411e-01
 -2.5836641e-03
 -1.3227753e-01
  9.3889707e-01
 -8.1513488e-01
  4.4925213e-01
 -6.4316368e-01
 -4.6509501e-01
  1.5651697e+00
 -1.2852037e+00
  8.7185073e-01
  8.4034222e-01
  2.0051892e+00
  6.0599375e-01
 -2.1437833e-01
  6.4216143e-01
 -1.1952968e+00
  1.9227365e+00
  2.2318026e-02
  6.2280886e-02
 -1.0564238e+00
  3.9807045e-01
  3.0070493e-01
 -1.1956231e-01
 -3.5449553e-01
 -7.4641697e-02
 -9.0477818e-01
 -3.3577025e-01
 -3.1331781e-01
  2.9945336e-03
 -1.1708330e-01
 -6.0284597e-01
 -3.8332477e-02
 -1.7168476e-01
 -3.8947184e-02
 -7.0430242e-02
 -1.6103330e-01
  1.4349969e-01
 -5.4133181e-02
 -6.0078311e-01
  2.8396826e-02
  9.3787506e-02
 -2.3533912e-02
 -1.5654966e-03
  4.0923562e-02
 -1.3100702e-01
  3.0614378e-02
  1.2633933e-02
 -3.1226283e-02
  7.4194022e-02
 -1.3305156e-01
  5.3284180e-01
  9.1388635e-03
  1.6200801e+00
 -4.3206272e-01
 -1.1982689e+00
 -1.4777031e+00
 -7.2677392e-01
 -6.8804479e-01
  5.4131997e-01
 -1.9310486e-01
 -6.5688156e-02
  7.0701510e-01
 -7.6867312e-01
 -6.3884929e-02
 -7.3622078e-01
 -3.5418022e-01
 -2.4614410e-01
 -4.5851313e-02
 -5.0268114e-01
 -1.0660682e+00
 -3.6511478e-01
  7.5147219e-02
 -1.2830215e+00
 -1.2392266e-01
 -7.6225036e-01
 -3.8695094e-01
 -2.1289948e-02
  1.2047700e-02
  3.5289750e-02
  4.0248018e-02
 -3.7545300e-01
 -8.6590141e-01
 -2.7730855e-01
  2.3505127e+00
 -2.9776362e-01
  8.0974025e-01
  1.2906796e+00
  5.0825041e-02
  1.4073203e-02
 -1.8621856e-02
 -2.8955331e-02
 -1.8081047e-01
  3.3105284e-01
 -4.4314757e-02
  6.5022029e-02
 -3.8682541e-01
 -2.0136158e-03
 -3.3324346e-02
  7.1617508e-01
  2.6023296e-01
 -2.9911663e-02
 -2.1212779e-03
  5.2324448e-02
 -3.0122527e-01
  1.1516887e+00
  6.6991732e-02
 -3.4381635e-02
  1.4703472e-02
  1.2827359e-01
  9.2068344e-02
 -6.7811966e-02
 -5.2759959e-03
  3.5409492e-02
 -1.6971669e-01
  1.9031271e-01
  1.0373987e-01
  6.4617908e-01
  2.1807477e-02
 -5.1084232e-01
 -9.8372139e-02
 -9.4435187e-03
  2.2598384e-02
 -1.9804886e-01
  2.1141019e-01
 -4.7157805e-02
  4.8759382e-02
 -3.0250048e-02
 -5.3108943e-01
 -2.1848455e-01
 -3.9553862e-02
  5.3754233e-02
 -2.2867358e-01
 -7.9572961e-02
  1.9043449e-01
  6.0390599e-02
 -6.5145874e-04
  1.1488632e-01
  5.7263020e-02
  8.1656985e-02
  2.6837606e-02
  4.4255489e-03
 -8.8794194e-02
 -1.6718648e-01
 -1.7666966e-01
 -1.8150731e+00
 -5.1012838e-01
 -1.3833115e+00
 -4.8227137e-01
 -1.1639719e+00
 -9.6316582e-01
 -1.1589700e+00
 -9.1760105e-01
 -1.7079438e-01
 -1.0913044e+00
 -2.9230115e-01
 -4.6941292e-01
 -8.9414112e-02
 -1.1541725e+00
 -9.4182783e-01
  2.2127245e-01
  7.6515317e-01
  5.4285914e-01
 -7.1196061e-01
  1.0198609e+00
 -8.2318473e-01
  2.1525320e-01
  1.0756825e-01
 -2.7547058e-02
  1.6972402e-01
  4.7796819e-01
 -3.3637427e-02
  1.7129771e-02
 -5.7296954e-02
 -2.0601782e-01
  7.3605798e-02
 -2.6372513e-01
 -1.2775292e-01
 -3.2809231e-01
 -5.9309531e-02
 -1.7463432e-01
  5.8810923e-02
  3.8311568e-01
  4.0006232e-02
  9.3745412e-03
 -1.1926843e-01
 -2.0645016e-01
  2.5805799e-02
 -7.1274765e-02
  3.1446256e-02
  7.6291077e-03
 -1.1910843e-02
  4.2114180e-02
  9.6855384e-01
  4.8256814e-03
 -1.7295862e-02
  2.7122191e-01
 -1.0322365e-01
 -5.6999996e-03
  2.1776753e-02
  1.8834919e-02
 -1.0655736e-01
  8.9016743e-02
 -3.1893540e-02
 -6.3452370e-02
 -5.2946520e-01
  1.1077232e+00
  2.2803445e+00
 -7.8628802e-01
  4.1846752e-01
  1.2894689e+00
  1.4289131e+00
  2.8670188e-02
  1.5982873e+00
 -2.2533948e+00
 -1.6993165e+00
  1.9057834e-01
  4.1860989e-01
 -1.7244120e+00
  8.6398113e-01
  1.7016534e+00
  2.2194423e-01
 -1.2395359e+00
 -2.8095568e-02
 -1.1563663e-01
  1.0670547e+00
  3.6836421e-01
  1.4771250e+00
  9.9963063e-01
  2.5156563e-02
 -1.6257918e+00
 -9.6563935e-01
  1.5210896e+00
  3.9316136e-02
 -2.7791336e-02
  1.3668202e-01
 -5.6150776e-01
  1.1384879e+00
  4.9344859e-01
  6.0275310e-01
 -2.6904771e-01
  1.1640552e+00
  2.0190704e+00
 -9.5710194e-01
 -7.9952401e-01
 -1.1103998e+00
 -1.8252499e-01
 -4.1309610e-01
 -2.0582933e+00
 -1.6702774e+00
  3.3393377e-01
  2.8904316e-01
  1.5209597e+00
 -9.9646622e-01
 -2.4311390e+00
 -4.4238132e-01
  2.3525388e+00
 -8.8851565e-01
 -1.4028184e+00
  5.7912213e-01
  5.4411113e-01
 -1.0252434e+00
 -4.5118445e-01
  1.6842953e+00
 -1.4998537e-01
 -4.2995687e+00
 -2.5792947e-01
  4.8424253e+00
  2.1452172e+00
 -2.2809575e+00
  7.6057829e-02
  6.8117341e-04
 -4.3587869e-01
  5.3501964e-01
 -5.4587400e-01
 -1.3532537e+00
 -2.5837843e+00
 -6.8124637e-02
  5.0570983e-01
 -1.1684128e+00
 -1.2404394e+00
  8.9457944e-02
 -9.8996378e-02
  1.6455652e+00
 -1.6771045e+00
 -3.6294445e-01
 -3.3597062e+00
  7.0632309e-01
 -3.5911775e-01
  4.0372807e-01
  1.1909287e-01
  9.4812915e-02
 -4.3509256e-02
  1.2693230e+00
 -4.2387471e-01
  4.1906232e-01
  1.9930672e-02
  5.1273357e-02
  5.9416962e-01
  3.4794164e-01
  3.1775323e-01
 -7.2803244e-02
  5.5551034e-01
  1.7698388e-01
  3.9682636e-01
  1.2753026e-01
  5.0914270e-01
  8.1860375e-01
  2.2582586e-01
  3.4396715e-02
  1.3912234e-01
 -1.3494642e-01
  4.1584334e-01
  1.0189440e+00
  9.2692274e-01
  1.1305069e+00
 -8.3121844e-02
  1.8140767e-02
  5.0412002e-03
  7.4740118e-01
  6.2974590e-01
 -3.2895774e-02
  2.1080215e-01
  1.1095606e+00
 -3.8871044e-01
 -1.3898449e+00
 -2.1721528e+00
 -7.1078176e-03
  1.5538316e+00
 -4.0193024e-01
 -1.5057705e-01
  4.4040973e-03
  1.2835751e-02
  1.1278793e+00
 -2.4525404e-01
  6.8153042e-01
  2.8251212e-02
  7.0919327e-02
  1.5951550e+00
 -1.1370380e+00
  3.9877227e-01
 -3.1906124e-02
 -1.6530699e+00
 -3.5375357e-01
 -1.1173297e-01
  1.9737454e-01
  2.2877958e+00
 -4.0281293e-01
 -2.1130227e-01
  2.7316220e-02
 -5.9141617e-02
  1.7764668e-01
 -2.8999642e-02
  2.1566439e-01
 -1.2547442e-01
 -1.2963525e+00
  1.3015386e+00
  1.6953255e+00
  7.6565355e-02
  6.3612391e-03
  3.5945669e-01
  2.7626264e-01
  3.4804058e-01
 -1.8535634e+00
  2.6722869e-01
 -6.2581819e-01
  2.4833664e-01
  4.8603803e-02
 -8.5120595e-01
 -1.5443699e+00
  4.7983518e-01
  7.2875190e-01
 -7.5914741e-02
 -3.9797044e-01
 -3.1977339e+00
  5.5355221e-01
  2.1051230e+00
 -1.2393925e+00
 -1.8668129e-01
 -6.9862849e-01
  9.6448906e-02
 -4.4455018e-02
  5.2068897e-02
 -3.8773519e-01
 -1.7567348e-01
 -1.2667525e-02
 -9.6916288e-02
 -8.2814083e-02
  1.1054596e-01
 -6.3327447e-02
  4.1330170e-02
 -4.0948791e-03
  9.1862686e-02
 -1.7007248e-01
 -1.4506096e-01
  5.4230183e-01
  5.3182606e-02
 -2.0396933e-02
  4.0022578e-02
  1.9658580e-03
 -3.3728246e-02
  5.8825433e-02
  6.6497095e-02
 -2.4762663e-01
  2.8085398e-02
  4.0314920e-02
  1.7136289e-02
 -2.1150133e-01
 -2.7251959e-02
 -1.7949224e-02
 -5.5708885e-03
  1.0668639e-01
 -3.8578503e-03
  4.6683469e-01
 -1.5691589e-01
  4.7890940e+00
 -1.7098248e+00
 -2.8954060e+00
  1.6178529e-01
 -1.3219408e+00
  1.4371449e+00
  5.7760310e-01
 -7.2142623e-02
  3.5626683e-01
  9.1378194e-01
  9.6199647e-02
  8.3043206e-01
 -5.4282534e-01
  4.8921753e-02
 -9.3474233e-01
  2.3880873e+00
 -4.4589373e-01
 -2.5622186e-01
  1.8068835e+00
 -1.3587708e+00
 -2.1868309e-02
  4.3678039e-01
  4.1079980e-01
 -4.2789266e-03
  4.1426033e-01
  1.6536467e-01
 -1.0742324e-01
 -6.9730859e-03
  2.6110959e-01
  5.0461955e-02
 -1.3918485e-02
 -1.0838188e+00
 -1.9754982e-02
  6.4330533e-02
 -2.0275425e-02
 -7.0363827e-02
 -8.4702395e-02
 -2.3096135e-01
 -3.7496850e-02
  5.9653297e-02
 -9.5516539e-01
 -6.6868439e-02
 -2.2658293e-01
  1.9414888e-01
 -2.1117246e-01
  1.7397471e-01
  3.5875797e-02
 -3.8632244e-02
  9.2459045e-02
  1.2684268e-02
  3.2072552e-02
  3.3874571e-02
  1.0556623e-01
 -1.1840566e-01
 -5.7334896e-02
  1.1636870e-02
  9.3437843e-02
  1.3148544e-02
  1.0920210e+00
 -1.5620383e+00
 -1.1936963e+00
  2.9346105e-01
  1.5213139e+00
  1.7006190e-01
  4.5571366e-01
 -1.8766895e-02
  1.2717781e+00
  2.9870443e-02
  7.3449975e-03
  2.6029924e-01
 -1.2252476e-01
 -1.4158346e-01
 -4.6743208e-01
 -5.5403477e-01
  1.1030731e-01
 -6.1334133e-01
  4.0085580e-02
 -6.3294426e-02
  3.2527679e-01
  3.0173028e-01
 -1.4941579e+00
 -2.7620775e-01
 -6.5641671e-01
 -2.2882462e-01
  8.5444488e-02
 -1.9465183e-01
  2.8385016e-01
  6.9828540e-02
 -2.7028322e+00
  2.2828960e-01
  3.2098204e-01
 -3.1685956e-02
  1.6444795e-01
  3.9766005e-01
  1.0440021e+00
  1.2242575e-02
  2.6174268e-01
 -8.2400717e-02
  1.2535861e+00
  3.5427660e-02
  2.3095609e-01
 -9.2484420e-03
  1.6160685e+00
  4.6590328e-01
  2.3902310e-01
  6.3588578e-01
  7.4621521e-02
 -2.2655831e-01
 -2.2589939e+00
  8.9313783e-02
  2.0254262e-01
 -3.9056744e-02
  1.6539888e-01
  3.0331534e-01
 -1.5971677e-01
  2.8146591e-02
 -7.8491420e-02
 -4.9328316e-02
 -1.1794640e-01
 -3.5441107e-01
  9.0093315e-02
  2.7306259e-01
 -1.0126796e-01
 -2.2078124e-01
  1.0195275e-01
  5.6097385e-02
 -5.0684498e-03
 -8.5112028e-02
  2.5790426e-01
  4.1661479e-02
 -3.3438551e-01
  7.7915408e-02
 -1.6315424e-01
 -1.6483694e-01
 -9.6549988e-02
  1.5775805e+00
  1.0959847e-01
  1.4224207e-01
  8.2847530e-01
  2.1752274e-02
  1.5671167e-01
  9.0769157e-03
 -9.3125913e-04
 -1.4054594e-02
 -1.5319823e-01
  9.3904905e-02
 -1.1209898e-03
  7.6267987e-02
  2.3999083e+00
 -1.3830655e+00
 -1.2002572e-01
 -1.2627940e+00
  1.6002281e+00
  1.9248509e+00
 -1.1466651e-01
  7.1118832e-02
 -6.3501465e-01
 -2.2631543e+00
 -2.6043999e-01
  6.7021430e-01
  3.6282707e-02
 -5.2436352e-02
 -1.5759934e-01
  4.5437178e-01
  7.9628742e-01
  1.6895021e-01
 -1.8951912e+00
 -1.5113809e+00
  2.3935366e+00
  3.1150830e+00
 -7.0574063e-01
 -4.6692070e-01
 -7.5616980e-01
  3.0613416e-01
  4.8435652e-03
  1.9637236e-01
  1.2050491e-01
  5.2309491e-02
  4.3149775e-01
 -1.1233530e+00
 -1.2015938e+00
 -6.1701119e-01
  3.2341444e-01
 -1.6046866e+00
  2.9508242e-01
 -1.6313245e+00
  6.0124874e-01
 -7.2408688e-01
  1.9841036e-01
 -1.3289889e+00
  3.9946258e-01
  1.1462230e-01
 -1.5538129e+00
 -6.1109859e-01
 -6.5609181e-01
  1.2053441e-02
  4.4423789e-01
 -3.9506605e-01
  1.3154553e-01
 -4.6239954e-01
 -4.4782862e-01
  2.1765339e+00
 -4.8770428e-01
 -4.5057956e-02
 -3.4699369e-02
 -3.8230386e-01
  2.0195368e-01
  6.7218348e-02
  5.9760964e-01
 -1.8430056e-02
  8.4919788e-02
  4.2704943e-01
  1.5988739e-04
 -6.3543743e-01
 -2.8822765e-01
 -7.9755837e-01
  2.3574166e-01
 -6.3330114e-02
  4.9561176e-02
 -2.0909820e-01
  1.1764970e-01
 -5.7427231e-02
  2.6688648e-02
  1.8912189e-02
  4.8188710e-01
 -6.9834717e-02
 -2.5837814e-02
 -3.3228662e-02
  1.6273765e-01
  1.7511427e-01
 -5.6081343e-02
  8.9732677e-02
 -1.1803806e-02
  1.4970978e-02
 -2.2175762e-01
 -1.5822741e+00
  3.2466814e-02
 -1.2273284e-01
 -7.6945178e-02
 -3.4614512e-01
 -1.4720389e-01
  3.2230135e-02
 -2.1909390e-01
  3.1168935e-01
 -2.2272401e-01
 -1.0294002e-02
 -2.5887702e-02
 -3.0503881e-01
  9.8030943e-01
  2.0928662e-01
 -1.2756708e-01
  2.4203509e-01
 -1.3785197e-01
 -2.7617151e-01
  5.3478297e-02
  1.7920450e-03
  5.3342748e-01
 -1.3250573e-01
  1.8804325e+00
  4.1919542e-03
 -2.2637773e+00
 -4.6389336e-03
  1.6033195e-01
  2.6534724e-01
  1.0574625e-01
  2.5937168e-04
  3.6808845e-02
 -7.6380759e-02
  1.2910690e+00
  2.3639558e-02
  4.9302599e-01
  7.1429336e-01
 -1.8821476e+00
 -5.2181137e-01
  5.1761615e-01
  1.2287168e-01
  3.0751505e-01
 -3.3990434e-01
  2.4021117e-01
 -8.2798228e-02
  3.2196950e-02
  2.0775101e-01
  1.6126307e-02
 -1.1887389e-01
  9.4306655e-02
  3.7991587e-02
  5.6774879e-04
  2.4834844e-01
 -9.3960144e-02
  3.1348947e-01
  3.9116004e-01
 -1.6762353e-02
  1.0571396e-01
 -7.5436056e-02
  8.5831612e-01
  1.3263493e-02
 -2.4390232e-02
  5.5878215e-02
  4.0356100e-01
  3.1701958e-01
 -1.4732385e-01
 -9.4028026e-02
 -2.0266235e+00
 -1.8413416e-01
  2.0954246e-02
  5.7585573e-01
  3.1422904e-01
 -7.0607372e-02
  2.2913897e-02
 -3.8954368e-04
 -9.0271495e-02
 -1.2159409e-01
  1.5998150e+00
 -1.3487930e+00
  2.3946042e-01
 -6.6114384e-01
 -5.8084626e-02
  5.3001937e-02
 -2.9750070e-01
  1.3226292e+00
  1.2007341e+00
 -1.6143738e+00
 -3.3510426e-01
  7.7575609e-02
 -2.8447760e-04
 -7.7986650e-02
 -2.6307774e-01
  3.2150295e-02
 -5.0675863e-01
 -4.7163334e+00
 -4.0975914e+00
 -1.6803939e+00
 -2.0188334e+00
 -2.0103853e+00
  4.8579171e-01
 -7.7429003e-01
  1.1854232e-01
 -2.3042069e-01
 -9.2098093e-01
  1.8855493e-01
 -1.5714657e+00
  4.6823755e-02
 -1.1307573e+00
 -4.1803256e-01
  3.8876183e-02
 -2.3155220e+00
 -2.1500506e-01
  7.4299499e-02
 -3.3822527e+00
 -3.2755909e+00
 -2.2768662e+00
 -8.9684114e-02
 -3.7605964e-02
  8.5578263e-02
  7.5285034e-03
 -5.5654164e-02
  1.8155536e-02
  8.8084608e-02
  1.0227159e+00
  2.7850613e-01
 -2.7418530e+00
 -1.5491341e-01
  2.0325098e+00
 -2.3137127e-01
 -1.5227619e+00
 -7.3674303e-01
 -1.5229423e+00
 -1.6494213e-01
  4.3487778e-01
 -1.0991687e+00
  4.4232309e-01
  6.7507528e-02
 -1.4849042e+00
 -3.3585641e-01
  6.7071849e-01
 -2.7670091e-02
  1.0065702e+00
 -1.4475046e+00
 -5.7986957e-01
 -4.5794246e-01
  1.4272766e+00
 -2.6637658e-01
 -1.0931686e+00
 -2.0201957e-01
 -7.7925347e-02
  3.1784731e-01
 -4.9468029e-02
  4.9892941e-01
 -5.4493833e-01
 -7.1075842e-02
  1.5508793e-02
  9.2851028e-02
 -2.3276774e-02
 -9.3459059e-03
  2.5750977e-01
  3.4435353e-01
  3.0172256e-01
 -2.6401368e-01
  2.4266601e+00
  3.7456132e-02
 -2.5408065e-01
 -1.2768762e-01
 -2.0704869e-02
  1.1869606e-01
  4.5791000e-01
  1.2416326e-01
  4.9843535e-02
  1.1336748e-02
 -1.0603473e-01
  5.7974800e-02
 -2.8621124e-02
 -3.8347632e-02
  8.4847840e-04
  9.9484533e-02
  1.4401001e-02
 -1.1316042e-01
 -1.7307943e-02
  1.2953256e-01
 -8.6615908e-01
 -5.5555481e-01
  3.2445353e-02
 -2.4677427e-01
  1.3927175e-01
 -2.7550502e+00
 -6.5537107e-01
 -6.9274977e-02
 -8.8977814e-01
 -5.8489263e-01
  2.9182893e-01
  3.6394093e-02
  9.6958268e-01
  6.0757793e-02
 -3.6550250e-02
  1.6639740e+00
  1.0112431e-01
 -5.2102387e-02
 -4.2412299e-01
  1.0695393e-01
 -2.2370813e+00
  8.5316640e-01
  1.1121879e+00
  3.7919767e-02
  1.6601577e-01
 -3.5974339e-02
 -1.3865107e+00
  3.8556054e-02
 -4.8436381e-02
 -1.4224753e-01
  1.2953752e+00
 -1.1142153e+00
  7.6413423e-01
  1.0738577e+00
  1.2103168e+00
  1.6265912e+00
  4.9968129e-03
  2.3464708e-01
  2.2469164e-01
 -4.6616871e-02
  4.7980419e-01
  7.0420855e-01
  9.5693988e-01
  4.4605449e-01
  4.8938096e-01
  5.7033259e-01
  4.9821764e-02
  8.9951314e-02
  3.6125383e-04
 -2.8607104e-02
  1.7552515e+00
  1.0890894e-01
  4.9633396e-01
  2.3536328e-03
  9.7283877e-02
 -6.4640307e-01
  2.0883401e-01
  1.2504147e-01
 -9.3232334e-01
 -1.6677629e-02
 -5.0883479e-02
 -2.5203824e-01
  8.0519296e-02
  1.1229859e-01
 -6.6327833e-02
  3.4354407e-01
  2.4749072e-02
  3.0674759e-01
  6.2990911e-02
 -3.3393669e-01
  9.9632740e-02
 -4.9406044e-02
 -1.9098796e-02
 -1.4805898e-01
  1.4633878e-01
  7.1056023e-02
  6.7327842e-02
 -5.5760644e-02
  4.6860257e-01
  1.1485744e-01
  5.0623115e-02
  8.8939168e-02
  5.2833393e-02
  2.4813674e-02
  1.9538772e-01
 -6.1846651e-02
  1.2719992e-01
 -1.2649313e-01
  4.5782361e-02
  3.3023726e-02
  2.3606824e-02
 -1.7661415e-01
  9.8628211e-01
 -1.0625670e+00
 -3.7950528e+00
  6.8999404e-01
  1.7222671e-01
 -1.0863329e+00
  7.2965056e-01
  9.7337091e-01
 -1.6744924e+00
  2.4605189e-01
  1.1205220e+00
  3.7308577e-01
 -1.2966108e-01
  1.1238893e+00
 -6.6135955e-01
 -5.3936809e-01
 -3.1910807e-02
 -2.2208329e-02
 -7.4731219e-01
  1.4337268e+00
  1.6702104e-01
 -1.6474167e+00
  1.8596051e-02
  1.6341253e-01
 -1.7810842e-01
  3.3253273e-01
 -1.0091877e-01
  1.7599957e-02
  4.2065743e-01
 -2.3758442e+00
  1.6225411e+00
  9.4177485e-02
  6.4139189e-03
 -1.2821984e+00
  9.8435873e-01
 -7.3606810e-03
  1.2339715e+00
  1.4829886e-01
  4.4111815e-01
  1.1062984e+00
 -4.3192115e-02
  1.0869346e+00
  9.2463732e-01
 -2.4579522e-01
  4.4939092e-01
 -2.4246315e-02
  3.4554464e-01
  1.0146542e+00
 -8.2435983e-01
  6.5526891e-01
  5.6638330e-01
  6.5873408e-01
  4.1493979e-01
  3.3244498e-02
 -9.9594429e-02
 -6.8745717e-02
 -9.5050299e-01
 -6.0264757e-03
 -3.1412295e-01
 -4.1237969e+00
 -3.7554774e+00
 -2.7823546e+00
 -2.0330036e+00
 -1.6243603e+00
  8.1262255e-01
 -6.3016790e-01
  8.3338875e-01
 -6.0307076e-03
 -6.6580266e-02
 -1.1952000e+00
 -8.7453537e-02
  1.9673495e+00
 -7.7290690e-01
  1.0889586e-02
  1.1228291e+00
 -3.1710253e+00
  1.2910321e+00
 -3.7145939e-01
  3.7640584e-01
 -1.6996781e+00
 -7.4575305e-01
  1.4935043e+00
 -1.8811107e+00
 -5.1017898e-01
 -1.1051106e-01
 -1.6461797e-01
 -1.8689793e-01
  8.8484384e-02
  1.0474019e+00
 -2.5184588e+00
 -1.3696651e+00
 -2.3278992e+00
 -8.1824255e-01
  4.6618562e-02
  4.6560433e-02
 -4.7321674e-01
  4.3911442e-01
 -9.6377851e-03
  8.8734257e-01
  1.6671427e-01
 -1.2689221e+00
  1.5175401e-01
  4.3866411e-01
 -9.1367340e-01
  7.7219343e-01
 -1.2134466e+00
  3.3421066e-01
  3.0201079e-02
 -1.0196300e+00
  6.2395829e-01
 -2.5936162e-01
  1.8710945e+00
 -2.8631571e-01
  8.5178856e-03
  7.2532587e-02
 -2.7679617e-02
 -1.4692006e-03
  6.4123003e-03
 -5.4071838e-01
 -1.4983832e+00
 -8.9560378e-01
 -1.0535756e-01
  1.4080915e+00
  5.7488394e-01
 -6.9620591e-01
 -2.7495084e-02
 -2.7979147e-01
 -9.5521230e-01
 -3.1265776e+00
  2.6087712e-02
 -4.6974361e-01
 -2.0245071e-01
  1.3297752e-01
 -3.4190061e+00
  3.0799839e-01
 -1.2002232e+00
  9.1215305e-02
 -8.9722574e-02
 -5.0615959e+00
 -1.2958252e-01
 -1.2081522e+00
 -1.0805434e+00
  8.8849866e-01
 -7.2898589e-02
 -1.2776333e-01
  2.0138866e-01
  1.6119237e-01
  1.6438249e-01
  8.5745537e-01
  2.7840130e+00
 -3.3209655e-02
  3.3810586e-01
 -3.7726954e-01
 -1.1381992e-01
  1.2753493e-02
 -2.7904182e-03
 -3.9674810e-01
 -4.9122912e-01
  1.5741305e-01
  5.8973789e-01
  1.8340132e-01
 -1.4369275e-01
 -1.0730758e-01
 -9.8157614e-01
 -2.1276118e-02
  1.9105803e-02
 -4.0026050e-02
 -1.0407878e-01
  9.7155303e-01
  1.5233600e-01
  7.1738385e-02
 -8.3881855e-01
  3.3046387e-02
  4.2578746e-02
  1.7018490e-01
 -7.6066679e-01
  1.2906450e-02
 -2.5313529e-01
  4.9844619e-02
 -2.5730062e-01
  5.6835584e-02
 -7.0710965e-02
  2.9086453e-01
  1.0880573e-01
 -8.4098756e-02
  1.4229362e-02
 -1.0238835e+00
 -2.2520521e-01
 -1.0945310e-01
  1.2620930e-01
 -7.3616393e-02
  5.5941600e-02
  6.4256108e-01
 -7.0353203e-02
  2.2750230e+00
 -1.7487142e-02
  7.9124905e-02
  1.2967309e-01
  1.0579593e+00
 -8.1465900e-02
  4.3157483e-03
 -1.1284652e-01
 -5.5098556e-02
  1.1519669e-01
 -4.3469167e-04
  1.5055000e-02
  5.7731371e-02
 -9.8587275e-02
 -1.7889474e-01
 -2.5685179e-01
  3.1955066e+00
 -1.4943230e-01
 -2.2947795e+00
  2.4215579e-01
  2.3354158e-01
  1.2764354e+00
 -5.8996691e-03
  7.4474055e-01
 -3.4776604e-01
  1.1259455e-01
  1.7618454e+00
  1.0183411e+00
  1.4998153e+00
  3.6440648e-03
  1.7501620e+00
  1.6195191e+00
  6.7158294e-01
  1.0902261e+00
 -2.3193179e-02
  4.8238397e-01
  1.3531727e+00
  6.0335052e-01
  9.9421632e-01
 -8.3834338e-01
  4.0110272e-01
  1.4328946e+00
 -4.5603493e-01
 -2.8337376e-02
 -1.9947348e+00
  1.4336256e+00
 -1.3370013e+00
  1.2599497e+00
  8.2797611e-01
  8.9523619e-01
  9.2403495e-01
 -2.0648835e+00
  6.7221212e-01
 -4.0145385e-01
  1.9988798e-01
 -1.7363425e+00
  3.8919488e-01
  8.3111364e-01
  1.3325775e+00
  3.4521613e-01
 -4.9845612e-01
  2.8772983e-01
  5.1441717e-01
  2.1565486e-01
 -7.7231325e-02
  1.8239888e+00
 -1.2856176e+00
 -3.3175269e-01
 -3.7192926e-01
 -3.2205230e-01
  1.1461671e-01
  6.3375056e-01
  6.0201295e-02
  1.6584092e+00
 -3.3964467e+00
  5.5463058e-01
 -8.0789381e-01
 -2.8186374e+00
 -1.5931222e-01
  1.9912968e+00
 -3.5377783e-01
 -9.6941626e-01
 -4.1397929e-01
  2.9421067e-01
 -7.8611875e-01
 -1.6024929e+00
  2.0602724e-01
 -5.5898166e-01
  3.5075331e-01
  9.6827084e-01
  1.9507723e+00
 -1.6407590e+00
 -1.6960198e-01
 -4.6703595e-01
 -5.4628778e-01
 -1.7262962e+00
  1.1398619e+00
  9.4364804e-01
  1.9045963e+00
  7.9587740e-01
  7.8545505e-01
 -3.5976386e-01
 -7.2556056e-02
  2.6854424e+00
  5.7334080e-02
 -1.2817538e-02
 -3.5134789e-02
  1.2518663e+00
 -1.0175837e-01
 -3.5683341e-02
 -4.7214308e-01
 -1.1963028e-01
  1.5556067e-01
 -1.8795112e-02
 -5.3145528e-01
 -8.1619859e-02
 -2.5695580e-01
 -5.1528299e-01
 -6.4499724e-01
  1.3626135e-02
 -5.1585273e-03
 -1.0226595e-01
 -6.1929449e-02
  5.3436106e-01
 -1.3728386e-01
 -1.1296970e-01
  1.2997899e+00
 -1.6720310e-01
  1.2685311e-01
 -9.9817380e-02
  1.3549508e+00
 -1.9705714e-01
 -2.4466702e-01
 -6.8807758e-02
 -1.2481455e+00
  8.9821512e-01
  7.9340726e-01
  6.0504228e-01
  9.0204239e-01
 -7.0821740e-02
 -4.3851539e-02
  2.0847757e-01
 -4.9458560e-01
  3.7942141e-02
  5.9439246e-02
  2.7779266e-01
  1.0149251e+00
 -6.4472574e-01
 -1.1280841e-01
 -6.4076848e-02
 -5.0061953e-01
  3.7215479e-02
  1.5070033e-01
 -8.4176475e-01
 -1.4292599e-01
 -2.9942118e-02
  6.5591121e-03
  6.8938322e-02
 -4.9418503e-01
 -1.8354265e-01
 -7.9231905e-03
  3.9230740e-01
  2.7713163e-02
  5.2550051e-02
 -1.4933356e+00
 -4.5625184e-02
  1.6874119e+00
 -6.5261647e-02
  1.0701277e-02
 -6.5470256e-02
  5.0999355e-03
  5.5404142e-03
 -7.4037708e-02
 -1.5257324e-02
 -2.7297926e-01
  2.8234503e-01
  1.4768107e-02
 -1.6623320e-02
  3.6609286e-01
  7.6172793e-01
 -2.6093671e-01
 -7.6285064e-01
 -1.9058622e-01
  1.0908472e-01
  4.8929676e-02
 -2.2466636e-01
 -2.1931781e-01
  1.6206760e+00
 -5.6478161e-02
  8.6912528e-02
 -3.8554550e-03
  1.7461332e-02
 -1.4997591e-01
 -6.4717583e-02
  1.7655776e+00
 -4.0091181e+00
  7.6568055e-01
  4.3797329e-01
 -1.1825382e+00
  2.9266044e-01
  8.3038174e-03
  5.5720216e-01
  2.0131622e-01
  1.5924510e-01
 -1.0633249e+00
  2.0845885e+00
  1.5954143e+00
 -5.5727124e-01
 -2.7285000e-02
 -7.7393299e-01
  2.0629328e-01
  2.6903707e-01
  4.3381877e-02
  6.9475114e-02
 -1.2142941e-01
  5.4183906e-01
  9.6897882e-01
  8.1126249e-01
 -8.1243533e-01
 -1.1484449e-01
 -4.0504817e-02
 -2.3609968e-02
  3.4849507e-01
  2.2578220e-01
  1.5281457e-02
  4.5323336e-01
  3.3145514e-01
  6.0307104e-02
  8.7704313e-01
  1.3904865e-01
  4.4007167e-02
 -1.1870278e-01
 -9.2925720e-02
 -1.8608296e-02
 -2.3022351e+00
  2.5282413e-01
  1.9923741e-01
  8.2098432e-02
 -8.3294801e-02
  5.8350537e-02
  8.7635681e-02
 -2.5052130e-01
 -2.7136935e-02
  5.8078859e-02
  4.5295912e-03
 -3.8566345e-01
  5.9409007e-02
 -2.1842550e-01
  6.8314835e-02
  1.3709608e-01
  1.8927380e-01
 -3.9264232e-02
  3.5687655e-02
  5.8168616e-02
  2.0859432e-01
 -3.5925232e-02
  2.3653377e-02
 -2.2342584e-01
  5.5564668e-02
 -3.1032104e-02
  8.5014068e-02
  8.5427336e-02
 -4.2911038e-02
 -4.6568535e-02
 -7.7825464e-02
  3.1221785e-02
 -6.9312192e-02
  1.5141482e+00
  2.5297156e-01
 -1.6773655e-03
 -1.0509379e-03
  1.4045551e-01
 -3.3608738e-01
  8.0216788e-02
  1.0424553e+00
 -3.8354147e-02
  2.5416186e-01
 -4.1336784e-01
  2.0255737e+00
 -6.0506475e-01
  5.2006554e-02
 -2.7402791e-01
 -7.4138504e-01
 -3.6349826e-02
  2.0448464e-01
 -4.6034539e-01
  1.4252697e+00
 -6.2638730e-02
 -7.8447366e-01
 -9.0681516e-02
 -1.5564939e-01
  5.9494644e-01
 -5.2491385e-02
  1.1471069e-01
 -8.8247769e-02
  4.8984159e-02
 -1.0187608e-01
 -3.7816411e-01
 -4.7710028e-01
 -4.1188862e-02
  1.7232414e-01
 -9.4436276e-01
  1.0611072e-01
 -1.2506796e-01
 -2.0637186e+00
 -3.7845159e-01
 -7.7735442e-01
  4.0274072e-01
  1.0811916e-02
 -1.6946907e+00
  1.4217816e-01
  5.4504137e-02
  2.0141691e-01
 -1.7760383e-01
 -1.1269298e+00
  2.2347167e+00
  4.7865752e-02
  2.8405327e-01
  2.2222211e+00
 -3.9138821e-01
 -2.2199705e-01
 -1.7909655e-01
 -2.8177902e-01
 -7.1069777e-01
 -2.2486527e+00
 -1.1816720e+00
  1.3415488e+00
  7.9562718e-01
 -2.3106636e-01
 -1.3723804e+00
  2.3291382e-01
  7.0631184e-02
  3.2479689e-02
 -2.2315076e-01
  5.9155464e-01
 -2.0158662e-01
  9.4969106e-01
 -1.3710046e-01
  7.1445060e-01
  1.8864637e-02
  4.7745758e-01
 -4.9488317e-02
  7.6823622e-02
  1.1608030e-01
 -6.0284819e-02
  3.6918944e-01
 -1.9420138e-01
 -4.4078529e-01
 -4.1585118e-02
  1.8292609e-01
 -7.9836093e-02
  1.8954386e-01
  2.7859095e-01
  8.7238997e-02
 -1.6116332e-01
 -1.1666905e-01
 -2.1640107e-02
  1.0744058e-01
  5.7167090e-02
  1.8029386e-01
 -8.4183884e-01
  6.9361724e-02
  2.8705471e-03
  1.4520386e-01
 -1.1171972e-02
 -6.3919872e-02
  2.3463379e-01
  4.2537652e-02
  1.7272903e-01
 -7.2527689e-01
  2.4399421e-01
 -1.0087198e-01
 -3.9467689e-01
 -1.9366426e-02
 -1.9129424e+00
  1.0451537e+00
 -2.0075829e+00
  7.5037684e-03
  1.0650535e+00
 -1.4559950e+00
 -1.4253007e+00
  9.7207703e-02
 -1.0552582e+00
 -2.3250265e-01
 -8.8377255e-01
 -5.4717809e-01
  2.7644005e-01
  2.4133790e-01
 -1.0056165e-01
 -1.4981255e-01
 -5.9616673e-01
  4.2188879e-02
 -9.0238583e-01
 -9.9831980e-01
  5.6490149e-02
 -9.8284787e-01
 -5.7504004e-01
 -1.8635387e+00
  2.6985034e-01
  8.5262517e-03
  1.4925998e-01
  8.7299205e-02
 -2.2654182e-01
 -2.5623306e-04
 -1.6638017e+00
  2.0287478e-01
  2.0115008e+00
 -1.3031985e-01
 -5.1346760e-02
  9.3808562e-01
  3.5105321e-01
 -3.9430968e-02
  1.7998749e-01
  1.4514077e-01
  5.1816953e-03
 -2.1831200e-01
 -5.3436917e-01
 -4.1959286e-02
  6.5998539e-02
 -8.4545463e-02
 -3.2449082e-01
 -1.1406426e+00
 -2.0005708e+00
  4.2063523e-02
  9.1872439e-02
 -3.7489551e-01
  1.0201409e-02
  6.7868434e-02
  1.2266556e-01
  9.3781665e-02
  2.6867563e-01
  1.9929236e-01
  5.5783227e-02
  2.5216863e-01
 -7.8248566e-01
  2.2240569e-01
 -2.2648858e-01
  3.3850806e+00
 -1.2870488e-01
  1.8778877e-01
  8.8119199e-03
 -1.0399239e+00
  1.1740296e+00
 -4.2793456e-02
 -2.9658085e-01
  4.8751199e-01
 -1.0038578e-01
  2.1958512e-01
  4.5520580e-01
  7.6165921e-03
  5.5256969e-01
  9.7400337e-02
  5.0983655e-01
  6.1910576e-01
 -7.8196682e-02
  1.6398885e+00
  3.0470362e-01
  8.2227284e-01
 -5.0599784e-02
 -4.4310799e-01
  8.7864183e-02
 -6.7850935e-01
  1.8357569e-01
  1.0033350e-02
 -5.9908044e-01
 -2.2204243e-01
 -2.8006690e-02
  8.5565722e-01
 -4.7028598e-01
 -1.0656098e+00
  2.9983437e-02
  5.2994493e-02
  1.2668531e-02
  3.2231331e-01
 -2.3137771e-01
  1.4995261e-02
 -6.6572838e-02
  1.2685943e-01
  8.6739883e-02
  4.9518894e-02
  2.8411135e-02
 -1.6285115e-01
 -9.4082154e-02
  2.8569049e-01
  3.9819457e-02
 -1.1416027e-01
 -1.5413721e-01
  1.3571212e-01
 -5.3620391e-02
  4.2279664e-02
  1.0410942e-01
 -4.1491434e-01
 -4.7800209e-02
 -3.1105417e-01
 -3.7674338e-01
 -2.1249664e+00
 -6.6915709e-01
 -3.8462967e-01
 -6.2020957e-01
  2.0708263e-01
 -6.6812992e-02
  5.5129755e-01
  2.2645884e+00
  1.5653983e-01
  4.4921738e-01
 -2.5082746e+00
  1.1070008e+00
  1.9681587e+00
  6.1143810e-01
 -6.6728610e-01
 -1.2958266e+00
 -9.4669950e-01
  8.0418892e-02
  8.7102041e-02
  1.7552174e+00
 -2.8169274e-01
 -4.0033612e-01
 -7.5932372e-01
  2.7034504e+00
 -1.2863527e-01
  4.8319239e-02
 -2.4740177e-01
 -3.0233115e-01
 -7.6563686e-02
  6.7445529e-01
 -3.5180480e+00
 -1.5654546e-01
  8.5973454e-01
 -1.2069681e+00
 -3.8260418e-01
 -2.8391741e-02
  2.9473749e-01
  5.9138723e-02
 -3.8929574e-02
 -2.7726172e-02
  8.2209086e-01
  2.3849736e-01
 -7.5267732e-02
 -1.9567759e-01
 -2.1621357e-01
  3.2179168e-01
  2.6686573e-01
  7.6223910e-02
  9.5126694e-01
 -8.1703321e-05
  7.3603392e-01
 -1.0662001e+00
 -3.0026895e-01
 -3.2520227e-02
 -3.7995115e-02
 -4.5301926e-01
  1.1059058e-01
  1.3096300e-02
 -5.4524350e-03
  9.3914247e-01
 -5.0941002e-01
  4.7583673e-03
  2.9192617e+00
  5.9777904e-01
  9.0329707e-02
  3.4787655e-02
  1.9428407e-01
 -4.2872536e-01
  6.6177887e-01
  4.2461261e-02
  1.0276713e-01
  1.0312286e-01
 -6.1519835e-02
 -6.7177959e-02
 -1.2207543e-02
 -1.6868778e-01
  1.9699402e-02
  9.0439789e-02
 -5.9295170e-02
  6.0305256e-01
 -2.4001548e-01
  1.3720409e-02
  8.6147711e-03
  2.7718723e-01
 -3.0728176e+00
 -1.1433557e-01
  4.6117999e-02
 -1.4745872e-02
  2.7119097e-01
 -9.6342444e-01
 -3.2899001e+00
 -1.2176738e+00
  1.8518166e-01
 -1.1784530e+00
  9.5091343e-01
  6.4239180e-01
 -2.9979244e-01
  1.8436056e-01
  9.2691623e-02
 -3.7320990e-02
 -7.3027425e-02
  5.5568200e-01
  6.2859821e-01
  3.8749337e-01
  3.5332361e-01
  6.4817882e-01
  3.6835811e-01
  8.5892797e-02
  6.7568213e-01
  7.1235371e-01
 -6.5757620e-01
 -6.3158982e-02
 -3.7648067e-01
 -4.9783465e-01
  7.8071348e-02
 -2.8422868e-01
 -9.4114624e-02
 -6.6275202e-02
 -8.2054036e-03
  9.9435383e-01
 -1.6681180e+00
 -6.7563534e-02
  3.9015595e-02
  9.4854861e-01
 -2.6254676e-02
  2.8095245e-01
  2.9713002e-01
  1.5724957e+00
  5.8411967e-02
 -1.8378437e-01
 -1.9007769e-01
  1.6309749e-01
  1.7346133e-02
 -3.3856311e-01
 -4.1073775e-03
  5.3018302e-01
 -1.1477233e-01
 -3.7974766e-01
 -3.3055803e-01
 -3.4512248e+00
 -5.1449096e-01
 -3.6078450e-01
 -3.3510026e-01
 -1.8019602e-01
 -6.3572647e-03
  1.8014541e-02
  3.5025578e-02
 -3.0437471e-02
  3.4909938e-02
 -6.7846346e-01
  1.1325029e+00
 -5.2413210e-02
 -8.3073455e-01
 -3.6608312e-01
 -1.8084814e-01
  1.1827250e+00
  9.9930406e-01
 -8.9827961e-01
  1.2888017e-01
 -3.6683146e-02
 -9.2091218e-02
  1.9266792e-01
 -6.2986279e-01
 -5.1518804e-01
 -5.9204102e-01
 -1.8356225e-01
 -1.7265341e+00
  9.9947566e-01
 -7.0112444e-02
  1.0133874e-01
 -1.1821156e-01
  9.0844882e-01
  6.9431648e-02
  2.5478825e-01
  1.3195416e-01
  3.0543908e-01
 -1.2494932e-01
  9.4029687e-02
  3.4059912e-02
  8.2449056e-03
  2.0208676e-01
  9.2141844e-02
  1.2337892e-01
  3.8371828e-01
  1.0777695e-01
  1.2912987e-01
  2.2742926e-01
  1.6727520e-02
  1.9349146e-01
 -6.5781420e-01
 -4.6579424e-01
  6.4124286e-02
 -4.9752783e-02
  2.4191313e-03
  1.0774245e+00
  1.0254428e-01
  4.3195754e-02
 -1.5408394e-02
  2.7273101e-01
 -2.9481091e-02
 -1.4455883e-01
 -4.1061569e-02
 -8.2415000e-02
  3.8127515e-02
 -2.4560447e-01
  2.7590999e-01
  2.6324783e-02
 -1.0909839e-01
 -2.8798835e-02
  8.8349706e-01
 -6.8521005e-01
  2.2204906e-02
 -1.4778864e+00
  3.1214759e+00
 -4.4336490e-02
 -8.4075254e-01
  8.8484615e-02
  5.8488283e-02
 -3.3519603e-02
  3.2617688e-01
  4.4894731e-01
  2.8664799e-02
  9.8378241e-02
 -2.1328704e-01
 -2.5018764e-01
 -1.2800848e+00
  7.7371168e-01
 -2.9718298e-01
 -4.1252989e-02
 -1.2262618e-01
  7.4165776e-02
  1.0821421e-01
 -1.3448779e-01
  1.5070732e+00
 -1.3622183e-01
 -2.1929845e-01
  1.4170398e-01
 -2.0645778e-01
  4.1930547e-01
 -1.2284800e+00
  2.4838254e+00
 -2.3778148e+00
  3.3624998e-01
  3.8197097e-01
 -1.2182459e-01
  9.3406633e-02
  1.6322181e-01
 -3.3877760e-01
 -1.2582538e-01
 -3.7767842e-02
  2.7672339e-02
  2.3344040e-02
 -3.3308737e-02
 -6.6085273e-01
  1.4376720e-02
  4.6051183e-01
 -1.4086583e-01
 -1.6975200e-01
  7.1060747e-02
  3.4634836e-02
 -3.2227078e-01
  1.3547807e+00
  8.1793778e-02
 -3.1113807e-02
  4.0464107e-02
  8.1677951e-02
  2.7073437e-01
  1.7438371e-01
 -2.7390179e-01
 -7.8359887e-02
 -5.6301408e-02
 -2.6304871e-01
 -6.1736394e-02
  2.4405667e-01
  8.1316851e-02
  2.7608685e-02
  5.8908351e-02
  2.0344602e-01
  9.4734892e-02
 -2.3809846e-02
 -5.4545071e-02
  1.3889568e-01
 -5.3614564e-02
 -1.9729307e-01
 -1.6670007e-01
 -1.3487352e-01
 -6.5588832e-02
  4.1197840e-02
  3.0292213e-01
 -1.8781568e-01
  8.5077517e-02
  6.1013889e-02
  1.8669695e-01
 -7.0323996e-02
  1.2929690e-02
 -4.0292080e-02
  3.2259177e-02
  9.8972753e-02
  1.0006431e-01
  2.4932976e+00
 -6.6911733e-01
 -2.0312541e+00
  3.3071856e+00
  4.0516663e+00
 -8.6969012e-01
  1.0388874e-01
  2.2842939e+00
 -9.3870617e-02
 -1.7669642e-01
 -1.4009805e-01
  2.3425734e-02
  1.5023838e+00
  1.3606776e+00
 -1.3872150e-01
 -6.5433674e-02
  5.8551335e-01
 -1.9233382e-01
 -3.5342252e-01
 -1.6920485e-01
  2.2091630e-01
  7.3698324e-01
 -1.4454068e-01
  1.3764808e+00
 -1.5643996e-01
 -3.0375564e-01
  1.3931063e-02
 -7.5290248e-02
  1.4773341e-01
 -2.4137540e-02
  2.5793031e-01
  5.7040060e-01
  2.4907417e+00
  2.2178495e-01
  2.3370881e+00
 -2.4216194e-01
 -7.2671342e-01
  2.5240550e-02
 -1.1448641e+00
  2.2192363e-01
 -7.2277971e-02
  2.5552759e-02
  1.5244153e-01
 -3.6406553e-01
 -1.0353209e-02
 -7.1444452e-02
 -4.5152638e-02
  8.5619462e-01
 -1.4348009e+00
  1.5186152e-01
 -5.0835062e-02
 -7.2452761e-02
 -3.0191556e-02
 -2.5146890e-01
  6.1511328e-03
  4.3341964e-02
  2.2881240e-01
  1.4185925e-01
 -1.1052497e-01
  1.2370615e-01
  1.4817958e+00
 -1.4278589e+00
 -5.3284216e-01
  6.3291526e-01
  5.7043463e-01
  1.0361930e-02
 -9.9715650e-02
  8.6209424e-02
  1.7227584e-01
 -6.3839674e-02
  6.3870423e-03
 -1.1488204e-02
  4.4237118e-02
 -1.6481431e-01
  4.1603172e-01
  3.7870657e-01
  4.0871248e-01
  4.6004884e-02
 -7.6834455e-02
  6.3067988e-02
 -4.8421755e-02
  1.7569441e-02
  1.7782482e+00
  3.3201960e-01
 -2.0505165e-01
 -3.1413335e-02
  7.9927724e-03
 -9.4030261e-02
  4.2987591e-01
  1.5256611e-02
  1.3062532e-01
  4.2044364e-02
 -3.4668670e+00
  1.1308248e+00
  2.1397032e-01
 -2.0088472e+00
  2.3681615e-02
  1.0808244e-01
 -4.0456864e-01
  1.9205289e-02
 -1.2792982e+00
 -1.4326843e+00
  2.1013451e+00
  4.4233608e-01
  8.3924875e-02
 -9.6270636e-02
  1.3382490e-01
  1.2520568e+00
  1.7031717e-01
 -2.3434287e-01
 -4.2168584e+00
 -3.0523095e-01
  1.4051796e-01
  2.1881086e-01
 -4.8910907e-01
  1.4576459e+00
  9.5527641e-02
  4.3227360e-02
  2.7425835e-02
  1.0422297e-01
 -7.6996259e-02
 -3.8069379e-02
 -4.8186243e-02
 -9.8864183e-02
 -9.6724428e-02
  4.1305896e-02
 -8.7974891e-02
 -4.0599670e-02
 -1.7544067e-02
  1.2818685e-01
 -3.5844844e-02
 -4.4750173e-02
 -1.8526334e-01
  7.2953269e-02
  8.6125433e-02
  2.9155773e-01
  6.7060262e-02
 -1.0838435e-02
 -2.5663005e-02
 -4.4071414e-03
  1.4675570e-02
  3.4417432e-02
  1.2497813e-01
  5.3358078e-01
 -2.5064297e-02
 -3.8076531e-02
  1.5281686e-01
 -2.1057978e-01
  6.2271670e-02
 -1.0489804e-01
 -7.7140749e-01
 -5.9559193e-02
 -2.7390087e-01
  4.6090361e-01
 -1.3778311e+00
 -5.4986574e-02
 -5.7757080e-02
  5.8683819e-01
 -2.1555956e-02
  2.9596586e-02
 -2.0443876e-01
  2.3939962e-02
  2.2886464e-01
 -1.4902501e-01
 -1.0204166e+00
 -1.6818649e-01
  3.9640781e-02
  1.3239989e+00
  1.5634561e-01
 -3.2362482e-01
 -5.4380745e-01
 -6.1522294e-02
 -5.9587028e-02
 -1.2490371e-01
 -1.1296965e-01
 -4.9359187e-01
  5.7406440e-02
  7.8337677e-02
 -2.7455334e-03
 -4.4341005e-02
  3.1505842e+00
  4.6029526e-01
 -1.2346375e+00
  1.6250943e+00
  2.3285215e+00
 -8.0064285e-01
 -1.7058907e+00
  1.9432641e+00
  2.0539486e-01
  2.8838453e-01
 -2.1432705e+00
 -3.1569591e-01
  2.5301244e+00
  1.4851354e-01
 -6.0592666e-02
 -9.8614419e-01
  9.0808117e-01
 -9.0983111e-01
 -2.3819523e-01
 -6.1352032e-01
 -8.5661250e-01
 -9.7231217e-02
  2.1965548e-01
  6.0977850e-02
 -4.9237815e-01
  3.5288125e-01
  3.0582577e-01
  1.3136236e-02
  1.4190644e-01
 -4.9289390e-02
 -1.6366459e+00
  7.7122599e-02
  1.4752610e-01
  2.8737280e+00
  2.0556271e+00
 -1.1383541e+00
 -1.0080656e+00
 -1.1141742e+00
  1.6190675e+00
 -8.0366373e-01
 -9.0972319e-02
  3.3237600e-01
 -2.1331489e-01
  2.1523605e-01
  2.4841144e+00
 -6.9969319e-02
  1.0543334e+00
 -1.9677059e-01
 -1.1622140e+00
  1.0985827e-01
  1.5662150e+00
  3.6987484e-01
  2.3262336e+00
 -2.7360620e-02
  3.7475011e-01
  2.3627589e+00
 -4.4667256e-01
 -1.5243884e+00
  1.1381214e+00
  1.3796303e-01
  1.4931992e+00
 -8.8044417e-01
  5.2794874e-01
  2.0737743e+00
 -1.9262409e+00
  1.2452751e+00
 -1.0187544e+00
 -2.7924442e+00
 -9.6826172e-01
 -1.6976172e+00
  6.4684445e-01
  1.0250425e+00
  2.8643984e-01
  1.7915905e+00
  1.1953412e+00
 -4.3590772e-01
  1.9943365e+00
 -5.8714449e-01
 -1.5185399e+00
  4.9335007e-02
 -1.3241388e+00
 -3.8214764e-01
 -2.2084365e+00
 -3.4390895e+00
 -7.8053856e-01
  1.0519964e+00
 -1.8901230e+00
  6.9657874e-01
 -7.7689326e-01
 -2.9074006e+00
  5.1957130e-01
  1.2904981e+00
  2.3037343e+00
  4.0571637e+00
 -2.7300486e-01
 -2.0628757e+00
 -7.2970264e-02
  1.1787146e-01
 -9.1712043e-02
  3.9005581e-02
 -1.3033506e+00
 -1.1149749e+00
 -2.6795027e-01
  1.2578356e-02
 -5.9570682e-01
 -3.5002214e-01
  2.5218569e-02
  2.9022819e-01
 -2.6132554e-01
 -2.5864754e-02
  5.2266173e-02
 -7.9911083e-01
  1.1556442e+00
 -8.3481646e-01
  3.1680962e-01
 -1.4854763e+00
 -1.7535809e-02
 -1.4080614e-01
 -5.3051180e-01
  4.7514984e-01
  1.3472984e+00
 -1.8216236e-01
  3.0225351e-02
 -6.9140333e-01
  1.8227059e+00
 -1.9016658e-01
  6.9560878e-02
 -3.6507356e-01
 -1.2815129e+00
 -3.9648932e-01
  2.4101753e+00
 -1.2940355e-01
  2.7818920e-02
 -1.7273358e-01
 -1.0903686e+00
  3.3302501e-01
 -6.7276376e-01
  8.1843615e-01
  7.7651465e-01
 -1.3388865e+00
  2.1335316e+00
 -3.0205131e-01
 -6.6898882e-01
 -2.1817994e-01
  3.2935449e-01
  1.9464774e+00
 -2.4162580e-01
  2.0862564e-01
  2.0556409e-02
  1.1936112e-01
 -1.2022718e-01
  4.1583208e-03
 -7.3308498e-02
  4.9699191e-02
  7.2716796e-01
 -2.1285346e-01
 -1.0766214e-01
  5.7819959e-02
 -2.3621468e-01
  1.1634843e+00
  1.0620116e-02
  6.5783434e-02
  1.5225862e-01
  9.8961927e-02
  3.3520457e-01
  3.4804054e-02
  1.5480947e-01
  8.3261721e-02
  1.4602773e-01
 -6.1110649e-02
 -5.7349455e-02
  3.9590558e-01
  3.3757906e-02
 -5.3910092e-02
 -7.3661497e-03
 -4.8498735e-02
  3.6741921e-01
 -5.9799042e-02
 -1.1333888e-01
 -3.1703016e-01
 -3.4772003e-01
 -1.2446305e-01
  5.4305889e-02
 -1.4390212e-02
  6.3301227e-03
 -2.9626927e-01
 -2.7035898e-01
 -2.0580216e-01
 -9.2764258e-02
  3.2468662e-01
  8.4957820e-01
 -1.0014294e-01
  5.8003925e-02
  1.0638665e-02
  1.5987010e-01
  3.3212000e-01
  1.5340126e-01
  2.1091819e-01
 -3.9569426e-02
 -7.4180275e-01
 -7.2437599e-02
  1.9084604e-01
 -1.7367207e-01
  6.6418219e-01
  1.0585159e-02
 -2.8710938e-01
  2.0657394e+00
  2.3450574e-02
 -2.4398103e-02
 -2.1231426e-01
 -1.2933903e+00
  3.8346800e-01
 -5.6113672e-01
 -2.0847173e+00
  6.4304382e-01
  6.2589251e-02
 -2.8121760e-01
  4.7386146e-01
 -5.2330875e-01
  8.4744775e-01
 -1.0187725e+00
  9.8187876e-01
  2.0583486e-02
  2.5345245e-01
 -9.3343836e-01
 -1.4119506e-01
  3.7391979e-01
  5.4562658e-01
 -7.6315647e-01
 -1.7851054e-03
  2.3659839e-01
  2.6212974e+00
 -1.2850714e-01
 -2.7026778e-01
 -2.1779817e-01
 -2.4067883e-01
  7.4336648e-01
  2.6720582e-02
  1.4855897e-01
  2.0811427e-01
  3.6640862e-01
 -8.0766268e-02
 -1.3780577e+00
  3.9245126e-01
 -1.5768327e-02
 -2.8113988e-01
  2.7186962e-02
 -1.0598806e-01
  1.7271569e-01
  1.2645720e-01
 -2.9719454e-01
 -1.7520942e-01
 -1.2114196e-01
 -1.5062483e-01
 -4.6515232e-01
 -1.0183041e-01
 -3.4554109e-02
  2.8851159e-02
  2.2383542e-01
 -3.7530363e-02
  1.0257856e+00
  2.7272753e-02
 -2.7126589e-01
  1.2226201e+00
  5.5213988e-01
 -5.0460070e-01
 -5.0378893e-02
 -7.3298357e-02
 -1.9770049e-02
 -2.5634992e-01
 -1.1414710e+00
  1.6457261e-01
  7.4535064e-02
 -4.3691576e-01
 -1.7300271e+00
 -1.0042439e-01
  1.9155338e-01
  5.7883415e-02
 -3.1153180e-02
  3.0266646e-02
 -6.1339420e-01
  1.2913379e-01
 -5.8332365e-02
  1.0064126e-01
  2.6305847e-02
  9.0218650e-04
  5.5311278e-02
  1.9338764e-01
 -1.5696074e-01
 -8.8512117e-01
  5.7803661e-01
  1.3077126e-01
 -2.4475615e-02
 -3.5103029e-01
 -8.7721580e-01
 -5.6399298e-01
 -2.8426829e-01
  1.5086792e-02
 -1.2089360e-01
 -1.2726657e-01
  8.5538590e-01
 -2.7048573e-01
 -4.4902131e-02
 -8.8780397e-01
 -8.8378811e-01
 -7.7144742e-02
  1.2873490e-01
 -2.6593132e-02
  6.6126579e-01
  5.7195261e-02
  1.7842932e-01
 -1.6917014e-02
  5.7431377e-02
  1.1497730e-01
 -6.6502291e-01
 -4.3445714e-02
  1.0285425e-03
 -2.5962234e-02
 -4.0166240e-02
 -1.5305448e-01
  2.3305846e-02
  2.9237455e-02
  1.6295409e-01
  2.4919195e-01
  2.3703282e-01
  7.1788765e-02
  4.3478046e-02
  2.0416455e-01
 -1.5994442e-01
  7.7167384e-02
 -4.6176615e+00
 -8.0198795e-01
 -9.0126741e-01
  4.7479311e-01
 -1.8023930e+00
  1.0959778e+00
 -1.7301607e-01
  6.8406713e-01
 -4.7775275e-01
  1.2936244e+00
 -2.7401969e-01
  6.9556244e-02
 -5.1586944e-01
  3.1302980e-01
  2.3619828e+00
 -2.8720066e-01
  7.3270047e-01
 -7.8537866e-02
 -3.6919016e-01
  1.7169911e-01
  1.0306715e-01
  1.0630932e+00
  1.4813050e+00
  9.5896915e-02
 -3.1902388e-01
 -9.8364972e-02
  2.0817611e-01
 -8.0602683e-02
 -1.6416605e-01
  2.0073664e-01
 -3.2056567e-01
  3.2170695e-01
  6.4905894e-01
 -2.5564837e+00
  4.5340791e-01
 -1.3333865e-01
 -3.4822084e-02
 -2.4920577e-02
  7.0997006e-01
  7.2284651e-01
 -8.6324453e-02
  1.9817622e-02
 -9.1709036e-01
 -4.2958660e-03
  1.4555819e-01
  8.0932491e-02
  5.1679587e-01
 -5.8224779e-02
 -2.0799920e-01
 -7.5712852e-02
  4.1426831e-01
 -2.0292553e-01
  2.4701522e-01
 -2.5159538e+00
  1.6823225e-01
 -3.6456063e-01
  1.7038566e+00
  7.9134963e-02
 -2.9502869e-01
  8.8719897e-02
  1.9878563e-01
 -1.7336287e-01
  5.8377288e-02
 -4.8557600e-01
  8.6177152e-01
 -8.3230130e-02
  9.6550032e-02
  9.7105116e-02
  1.0777373e-01
 -1.0659166e-01
  1.6937457e-01
 -6.7367339e-01
  1.2353745e-01
  1.0329858e-01
 -8.5038453e-02
  4.2219996e-02
 -1.9861164e-02
 -1.9976538e-01
  2.5461491e-03
  2.4315548e-01
 -2.2187306e-02
 -3.1498966e-01
 -1.2145910e-02
  1.2035747e-01
  4.3270476e-02
  5.6775127e-02
  2.0010328e-01
 -7.7831052e-02
 -2.6778883e-01
  9.9398665e-02
  1.7926833e-01
  5.4102071e-02
 -5.1185410e-02
 -1.1983781e-01
 -1.8857667e-01
 -2.7375808e-02
  1.3982087e-01
 -2.0288201e-01
 -5.2942932e-03
 -3.0942428e-01
  8.9428917e-02
 -2.6992530e-01
 -1.0085170e-02
 -8.1584698e-01
  3.8356520e-02
 -5.6847356e-02
 -7.7864215e-02
 -1.3870717e+00
 -2.0060569e-01
  1.7649377e-02
  6.6244967e-02
  3.6025975e-02
  2.5863236e-02
 -2.2877322e-01
 -4.3783195e-02
 -4.5695662e-01
 -7.9846457e-02
 -5.3208899e-02
 -2.9810780e-01
 -2.7949412e-03
 -7.2631985e-02
 -1.4521558e+00
  2.4450839e+00
  1.9454992e-01
 -2.6213807e-01
 -4.0352747e-02
 -3.7072316e-02
 -2.5136089e-01
  9.5330125e-01
  3.1680501e-01
 -6.6835418e-02
 -6.7913234e-01
 -2.9877918e-02
  1.3165900e-01
  5.3410482e-02
  3.0399103e-02
  1.4359857e-02
  2.8251797e-01
 -9.4610894e-01
  9.8348238e-02
 -1.9604839e-02
 -8.2057059e-01
 -1.2453055e-01
 -3.1894264e-01
  5.5834609e-01
 -1.9322473e-01
  2.6197344e-01
  2.3396361e-01
 -6.2130865e-02
 -1.0280879e-01
 -8.1713246e-03
  1.4386531e+00
 -9.8914988e-03
  1.1886830e+00
  1.5044287e-01
  1.6865287e+00
 -1.7309515e+00
 -1.3556186e+00
  5.9353139e-02
  1.0380264e-01
 -4.3127120e-01
 -3.1173486e-01
 -1.7567413e+00
 -8.1248142e-02
  1.0685523e+00
 -1.7471691e+00
 -2.6833749e+00
 -1.6691961e+00
 -8.0305869e-03
  1.2282732e+00
 -8.8740462e-01
 -1.0633285e+00
  1.6649479e-01
 -6.7553669e-01
  2.7213115e-01
  1.9181521e-01
 -2.8748018e-01
  6.6377401e-02
  6.4606112e-01
 -4.2934242e-01
 -7.1445644e-02
  7.5344525e-02
  2.7007144e-02
 -4.5801479e-02
 -3.4372784e-02
 -8.5387841e-02
  1.5275739e-01
  5.9118025e-02
 -2.7468584e-02
  2.0537990e-01
  4.6586227e-01
  6.9107667e-02
 -4.1479342e-02
  2.0946439e-01
 -1.0097191e-01
  9.0724472e-03
 -1.1722488e-01
 -2.1026231e-01
  1.0114684e-01
 -4.1236680e-02
 -9.8574966e-02
 -9.9993162e-02
  1.1314181e-01
 -1.2568308e-01
 -2.9960185e-01
  3.8968883e-02
  1.2851529e-01
  2.6372665e-01
  1.0766251e-01
  3.6492679e-02
  5.8031373e-02
  1.3075238e+00
  1.6293678e-01
  8.4621435e-01
  2.1469176e+00
  3.8482279e-02
  7.1550220e-01
  8.8227516e-01
 -4.8201576e-02
  1.5934508e+00
  1.7269371e+00
  2.9563504e-01
  7.8549081e-01
  2.1741077e-01
  8.2589023e-02
 -1.4199984e-01
  6.5117851e-02
  1.5956806e+00
  3.4889692e-01
 -3.8576716e-01
  4.1542456e-01
  1.0250518e+00
  1.4330339e+00
  7.1967793e-01
  4.9855697e-01
 -1.6488712e-01
 -1.0943211e-01
 -9.0818889e-02
  2.0601544e-01
  2.6572129e-01
 -1.2581350e+00
 -2.2777744e-01
 -9.4443560e-01
 -1.2609918e+00
 -2.8431872e-01
  4.6251842e-01
  6.8988317e-01
  1.3255295e+00
  9.7757244e-01
 -8.8257182e-01
  8.1805572e-02
  1.6860639e+00
  9.9866861e-01
  1.6443366e+00
 -2.9767221e-01
  4.8162210e-01
  1.2612718e+00
 -3.4158325e-01
  4.4103891e-01
 -3.3105798e-02
  7.6189578e-01
  9.5405591e-01
  5.5068451e-01
 -1.3827080e+00
  3.1341663e-01
 -2.9274178e-01
  2.0002221e-01
 -1.5518481e-01
  3.6739036e-02
 -3.2892596e-02
 -3.3702854e-02
  3.3033580e-02
 -4.9420033e-02
 -8.0329657e-01
  6.3605458e-01
 -3.5796639e-02
  2.9365301e-02
 -4.0715820e-01
  4.3821823e-02
 -1.0396325e-01
 -1.2281887e-01
  3.8271999e-01
  1.8249328e-01
 -8.7848686e-02
 -1.3397372e-01
  1.7969844e-01
 -5.8345117e-02
 -8.7552994e-02
 -1.0773128e+00
 -2.4311899e-01
  7.1309745e-02
  1.6951147e-01
  1.0731435e+00
 -9.2307568e-02
  8.4300060e-03
 -1.2767790e-01
  4.2334204e-03
  4.2301593e-03
 -3.4886234e-02
 -3.5130757e-01
 -1.5636187e+00
  2.5031459e-01
  5.6983137e-01
  1.3537960e+00
  1.4191958e+00
 -4.8129794e-01
 -4.2397443e-02
  7.0232487e-01
 -1.2065356e+00
  1.2004783e+00
 -9.4430941e-01
  4.8005399e-01
  6.1853898e-01
  3.2332811e-01
  4.5082211e-01
 -2.0861496e-01
  4.9433541e-01
  4.5903075e-02
  4.0156287e-01
  3.1966645e-01
  1.4283311e+00
  3.7291476e-01
  3.3557886e-01
  7.9874955e-02
  2.1636125e-01
 -1.7656632e-01
  1.0962760e-02
 -1.4724848e-01
  9.2564809e-01
 -6.3066430e-02
 -1.6622076e+00
 -1.4452036e-02
 -4.8981810e-01
 -2.0195934e-01
  1.8260929e-01
  1.4590630e-01
 -5.7265198e-01
  5.0430012e-01
  3.1962149e-02
 -9.9078566e-03
 -2.0876373e-01
 -3.4414407e-02
 -3.5171852e-01
 -3.4769860e-01
 -8.0074221e-02
  1.4261123e-02
  3.8219500e-02
 -2.4914967e-02
  1.9675896e-01
 -3.1416154e-01
  5.9731651e-02
  1.0470142e-01
  3.7628236e-01
 -4.0283240e-02
  1.9432573e-02
 -8.0701619e-02
 -3.3897102e-01
  1.3233100e-01
  3.0562952e-01
  1.3352628e-01
  7.8902781e-01
 -2.1004075e-02
  7.5156897e-02
  4.5042681e-03
 -1.3561999e+00
  1.4978011e-01
  3.1187123e-01
 -8.1892364e-02
  4.8842229e-02
  5.1868331e-02
 -3.7178934e-02
  2.5892595e-02
 -9.1924697e-02
  1.3583897e-01
 -7.7576853e-02
  3.1566922e-02
  7.7119195e-03
 -1.3411754e-01
  1.3166893e-01
  9.0074457e-02
 -1.1316281e-01
  1.0613417e-01
  7.1476109e-02
  3.0777323e-01
 -8.2865044e-02
 -7.5058863e-02
  1.0427131e-01
  5.9961233e-02
 -8.3149813e-02
  6.9051169e-02
 -1.1996905e+00
 -2.0259769e+00
 -1.8407242e-01
  4.3193111e+00
  3.3065250e+00
 -7.9060668e-01
 -1.1224005e-01
  3.0831406e-02
 -8.9315009e-01
 -1.8554854e-01
 -3.0298460e+00
  1.4578508e-01
 -1.3238484e-01
 -9.3616265e-01
 -4.9145201e-01
 -1.2946038e+00
  1.9177060e-01
  9.5542930e-02
 -8.6128647e-03
  2.1727526e+00
  4.0883057e-02
 -5.4870439e-01
 -2.2810373e+00
 -2.5624084e+00
  1.2817657e+00
  1.4672753e-01
 -2.1710195e-02
  1.8839088e-01
 -2.1982165e-02
 -3.4172592e-01
  1.7239963e+00
 -3.9634347e-02
  9.0635991e-01
 -6.2050235e-01
 -3.9403100e+00
  4.0687647e-01
  3.4498194e-01
  9.2927124e-03
  7.5079054e-01
 -2.2643600e-02
  5.5345249e-01
  6.2129017e-02
  1.3546266e-01
 -8.4194648e-01
 -7.4797475e-01
  5.7403374e-01
  1.1196586e-02
  1.6862030e-01
 -5.9927428e-01
 -3.0373685e-02
 -4.7281447e-01
  5.4088861e-01
  1.3502728e+00
 -6.0756952e-01
 -2.7757058e-01
  2.1190900e-01
  1.8418683e-01
  2.5895554e-01
  1.3192554e+00
 -4.3186713e-03
 -1.0868169e+00
 -1.4636040e+00
  3.0469534e+00
 -5.4316379e-02
 -4.0488023e-01
  1.3499178e-02
  9.0086527e-02
 -5.2639842e-01
  2.0006707e+00
 -1.0395294e-01
  2.2014000e+00
 -3.9948794e-01
 -1.8539336e-01
  7.7076578e-01
  6.4458445e-02
  2.9583299e+00
 -4.9127701e-01
 -1.4257264e-01
 -7.8056559e-02
  1.8665375e-01
 -1.2381480e+00
 -6.1068761e-01
  1.1730139e-02
 -2.7988145e-02
 -5.9051418e-01
  6.8004876e-01
  6.7636855e-02
  1.8559255e-01
  1.0564218e-01
  7.3335476e-02
  7.6055163e-01
 -1.1426064e-01
  3.2587022e-01
  4.1419327e-01
  2.6000476e+00
  6.9063675e-01
 -4.6960872e-02
  7.2930926e-01
  9.6649043e-02
  5.3302538e-01
 -3.8545807e-03
  2.0162492e-01
 -1.8224075e-01
 -1.6341133e-01
 -5.8757480e-02
  5.4825985e-01
  1.4940043e-01
 -1.6623537e-01
 -6.9779053e-02
 -2.3292538e-03
  1.1989803e+00
  4.8440108e-01
  5.6107253e-01
  1.6611231e-03
 -3.9879492e-01
  1.5107802e-01
  1.1113410e-01
  4.8296805e-02
 -7.3663644e-03
 -9.8330542e-02
  2.9620094e+00
  7.1293727e-02
 -5.6823206e-01
  1.2615911e+00
  7.0103860e-01
  1.4482151e+00
 -5.6741631e-01
  5.4198943e-02
  6.3588038e-02
  7.1625096e-01
  3.8874853e-01
  2.8280687e-02
  1.3923682e-01
  1.0779685e-01
  9.6892901e-02
  2.2091034e-01
 -2.2210076e-01
  3.3858320e-01
  1.9684335e-02
 -1.5049850e+00
 -1.0931060e+00
 -8.1765121e-03
 -1.5213839e-02
  1.0220593e-01
 -1.1839774e-01
 -1.4418873e+00
 -6.1279744e-01
 -4.0569138e-02
  3.6733575e-02
 -1.1779285e-01
 -9.3613267e-01
  2.1141745e-01
  2.1088219e+00
 -1.0246776e+00
  3.7587047e+00
  1.3991927e-01
  2.2563823e-01
  8.1816417e-01
 -4.9205679e-01
  7.8553766e-01
 -1.4017608e+00
 -1.3074702e-01
  3.2390946e-01
 -2.1452935e+00
 -1.1604026e-01
 -2.6261923e+00
  2.1508095e-01
  1.1165998e-01
 -1.3320057e+00
 -2.5181603e-01
 -2.5874662e+00
  1.9545668e-01
 -1.1589007e-02
 -2.5271771e+00
 -2.8506503e-01
  9.7301073e-02
 -1.1180477e+00
 -3.6212847e-02
  6.1332479e-02
  1.0357715e-02
  7.1657079e-01
  5.5238169e-01
  9.0209347e-01
  1.8672639e-01
  5.6154406e-01
 -3.5579032e-01
  1.3366522e-01
 -6.6671425e-01
  8.1360877e-02
 -1.2728719e+00
  4.2931336e-01
 -1.4282307e-01
 -8.5510127e-02
 -2.7532607e-01
 -7.6167065e-01
 -1.0161587e+00
 -2.3212607e-01
  5.6516454e-03
 -1.1257668e+00
 -6.1377627e-01
  2.0145171e+00
  3.8603593e-02
 -1.1617625e+00
  1.3499651e+00
  6.7448698e-02
 -1.2279774e-01
 -1.1670581e-01
 -9.1890944e-03
  3.2802299e-01
  1.4421426e-02
 -5.4214728e-01
 -2.4319176e-02
 -2.4056051e+00
  2.0929610e-02
  4.5447774e-02
  3.0754015e-01
  3.5982687e-02
 -4.6080589e-01
 -1.7430786e+00
 -1.6286378e+00
 -3.9292496e-02
  4.7747888e-02
  2.4203492e-02
 -1.3392516e+00
  1.2976980e+00
  5.7805270e-02
  2.2338031e-01
 -2.3487326e-02
  1.7443669e-01
 -3.0668592e-01
  5.4791011e-02
  4.5971921e-01
  1.1263223e+00
  5.5899084e-01
 -2.3869369e-02
 -3.0799150e-02
 -8.4455721e-02
 -8.3035938e-03
  6.3481256e-02
  5.6551568e-02
 -1.0388349e-01
  1.1133721e+00
  1.0036339e+00
  1.2334096e-01
  2.1235709e+00
 -2.1772547e+00
 -5.4610919e-02
 -2.2159909e-01
 -3.0019599e-01
 -4.6165738e-02
 -8.1185758e-01
 -1.3639122e+00
 -1.4034123e+00
  2.2547208e-02
  2.9288599e-02
 -5.5552161e-01
 -1.6345461e-01
 -1.0528070e-01
  3.5552945e-02
 -8.6402997e-02
 -1.3589615e-02
 -1.4122964e+00
 -1.3270428e+00
  1.1923642e+00
 -1.8179697e+00
  1.1226575e-01
  1.6450223e-01
  2.5243655e-01
 -9.4780713e-02
 -1.9631250e-01
 -2.3501909e+00
 -5.3323686e-01
  4.1833673e-02
 -9.8964319e-02
  8.5914694e-02
  1.6122662e+00
  7.3836660e-01
  1.7495632e+00
 -3.8207108e-01
 -1.4480977e-01
  6.8275720e-02
 -4.4959366e-01
  1.3983607e+00
 -1.2451491e+00
 -2.0855513e-01
  1.7304915e-01
  1.4191116e+00
 -1.9836255e+00
 -7.6583542e-02
 -1.1800244e+00
 -9.5009053e-01
 -2.9089090e-01
  1.2172916e-01
  5.3453737e-01
 -2.1695769e-01
 -1.1616834e+00
 -3.6239173e-02
  2.7465129e-01
 -1.8216046e+00
 -2.6988094e+00
 -3.1974394e+00
 -1.1719675e+00
  9.1534004e-02
  1.4464246e-01
  5.9592599e-01
 -1.3497040e+00
  3.4570670e-01
  1.6286819e-01
  8.5210311e-01
  2.1524863e-01
 -1.7943183e-01
 -1.0137194e-01
 -1.4625434e+00
 -2.7342286e+00
  4.8100026e-03
  3.2936287e-01
  1.2085284e+00
  5.3697467e-01
  7.4802709e-01
  4.4329035e-01
 -6.0288495e-01
  2.1033475e+00
 -1.9712470e+00
 -5.8463860e-01
  2.1652211e-01
 -6.1313915e-01
  1.2258227e+00
 -5.9626371e-01
  1.5545312e+00
 -7.4837273e-01
 -1.0021585e-01
  1.2029873e+00
  1.3746618e-01
  1.1440818e+00
 -8.9604288e-02
 -4.8683897e-01
 -2.4143317e-01
  2.0148342e+00
  2.8765743e+00
 -3.3792084e-01
  1.6034083e+00
 -2.3902481e+00
  2.1480556e-01
  4.5776328e-01
 -1.5260248e+00
 -1.0912627e+00
  3.5551882e+00
  2.4722160e-01
  2.1516871e-01
 -2.0792878e-01
 -1.1216945e-01
 -3.2694480e-01
  6.6456568e-01
  9.7226751e-01
 -2.0862985e-01
 -3.6383343e-01
  2.4478674e+00
  3.3357888e-03
  5.7822134e-02
 -1.0535218e-01
  1.8988352e-01
  1.5123309e-01
  8.5149592e-01
  5.3278130e-01
  1.7146453e+00
  4.1594413e-01
  1.2513596e-01
  2.1851438e-01
 -2.0486488e+00
 -3.4809804e-03
  1.4087298e+00
  1.7729457e-02
  8.6421740e-01
  1.4174600e-01
  7.1183676e-01
  3.0138883e-01
  1.0159882e+00
 -3.1326634e-01
 -4.8957419e-01
  6.1638925e-02
 -9.4197637e-01
 -3.0236951e-01
  1.7200729e-01
 -1.2012595e-01
  8.8967569e-02
  2.5891596e-03
  1.3037249e+00
  3.5383143e-02
  9.4036326e-02
  1.2892473e-01
  2.4057826e-02
 -6.5939911e-02
  1.9736995e-01
  1.0170467e+00
 -1.9015527e-01
 -1.3037714e-01
 -1.1040745e-01
  4.4843103e-03
  1.6342066e-01
 -5.2148116e-01
 -1.1729413e-01
  1.8292232e-01
 -1.9086112e+00
 -9.6123889e-02
  8.6171307e-02
  1.1875186e+00
 -1.4979737e+00
  1.2037922e-01
  2.2180046e-01
  5.3577483e-01
  1.1197164e-01
  8.6598283e-01
  4.2663553e-01
 -7.8603971e-01
  2.0556729e+00
  1.4117671e+00
  1.4073689e+00
  2.1552703e+00
  2.0895240e+00
  1.2615649e+00
 -1.2107552e+00
 -2.7631170e-01
 -1.4687820e-01
 -4.9748369e-02
  1.1801299e+00
  6.0512251e-01
  2.2068849e+00
 -8.0738944e-01
  6.4664656e-01
  1.9878109e-01
  3.9261046e-01
  2.6645607e-01
  5.2279872e-01
  3.4964493e-01
  7.1883982e-01
  3.0380103e-01
  1.0532103e+00
  7.7164066e-01
  1.6689466e+00
  1.5957996e-01
  2.2207801e-01
 -5.0167769e-01
  1.4765191e+00
 -9.0257895e-01
 -1.7186983e-01
  1.0279454e-01
 -1.3184629e-01
 -7.4871045e-01
 -7.6748520e-02
  1.7201302e+00
 -8.0172494e-02
  2.5903431e-01
  1.5122913e-02
  7.3909080e-01
 -8.2795203e-01
 -4.9156372e-02
  4.4557410e-01
 -4.7665898e-02
 -7.2695136e-01
 -1.3373317e-01
 -1.2833206e-01
  3.0778611e-01
 -4.4197768e-01
  5.9359562e-01
 -5.2669007e-01
  8.6480230e-01
  3.8559876e-02
 -2.2458699e-02
  1.4052479e-01
 -7.7947813e-01
 -8.9262709e-02
  1.6965792e+00
  4.0341467e-01
 -1.3291087e+00
  2.3589242e+00
 -9.6681900e-02
 -5.5196422e-01
 -1.2650719e+00
 -9.7639883e-01
  3.9108214e-01
 -2.1539974e+00
 -1.0323215e+00
  8.6809450e-01
  5.3286228e-02
 -8.3419345e-02
 -1.7829429e-01
  2.5844362e+00
 -1.1509209e-02
  2.6495798e+00
  2.8426797e+00
  7.0681131e-01
 -8.0134690e-02
  6.1415303e-01
  3.7345383e-01
  1.4155426e+00
  3.6893942e+00
 -1.2551510e-01
  1.2217935e+00
  1.6428078e+00
 -1.1745093e-01
  9.2382199e-01
  2.0905719e+00
  1.8769913e+00
  2.1151423e+00
  2.0000322e+00
  2.6661043e+00
  2.3018942e+00
  1.0871885e+00
 -1.0999054e-02
  2.1231911e+00
  8.3526182e-01
  5.4817688e-01
 -1.1864594e+00
 -2.8525296e-01
  6.8752623e-01
 -3.1427991e-01
 -2.7677486e+00
  2.4668181e+00
  2.4010754e-01
 -8.3960688e-01
  3.7376603e-01
 -2.4486193e-01
 -4.5036036e-01
 -8.2404387e-01
 -1.5825192e+00
  7.6906896e-01
  2.9448360e-01
 -9.2580938e-01
  1.8568504e-01
  8.5981965e-01
  1.1413662e+00
 -2.6798286e+00
  1.2413543e+00
  3.0667087e-01
 -1.0089117e+00
 -1.3570356e-01
  2.1122000e+00
  1.7504497e+00
  8.6091036e-01
  4.9188632e-01
  6.7174608e-01
 -1.0476719e-01
 -3.0629337e-02
 -2.8588173e-01
  5.3880129e-02
 -4.1556618e-01
  1.4173282e+00
 -6.1801487e-01
  4.1960459e+00
  2.2319660e+00
  2.0522082e+00
 -2.1016183e+00
 -2.8268092e+00
 -1.4185183e+00
 -1.9095723e-01
 -3.0013323e-01
 -4.1656411e-01
 -1.1018500e+00
 -2.8464141e-01
 -3.2788527e-01
 -1.3862452e-01
  5.4785371e-01
  1.5904026e-01
  6.8501389e-01
  7.0134485e-01
 -1.9124545e-02
  1.0809280e-02
  7.4440056e-01
  2.7222059e+00
  2.1091800e+00
  1.5999372e-01
 -1.2903410e-01
 -2.6926777e+00
 -2.2473555e-02
 -1.0917104e+00
 -2.1713309e+00
 -1.2727406e+00
  1.6178954e+00
  4.6082479e-01
  4.1154447e-01
 -7.6015003e-02
 -1.1953604e+00
 -1.9892707e-02
  1.2401862e-01
 -5.2831036e-01
  2.2719942e-02
  2.4437215e-02
 -5.0975543e-02
 -1.4131685e-01
 -4.4154644e-01
  1.0450848e-01
  1.0604244e+00
  1.0065629e+00
  2.4068899e+00
  1.5344638e-01
  2.6821429e-01
 -2.4923813e+00
 -9.5593941e-01
 -1.0816874e-01
 -7.9458487e-01
 -2.2300024e-01
  3.0089472e-03
 -2.7143025e-01
 -8.1062138e-02
 -6.3111521e-03
  6.7097105e-02
 -7.4953210e-01
  1.6611246e+00
 -4.7532561e-01
 -1.0261285e+00
 -1.7170855e+00
 -1.1667771e+00
 -1.2915286e+00
  9.6399881e-02
 -3.9411062e-01
  6.3566908e-02
 -1.6422131e+00
 -5.7890189e-01
  1.3552105e-01
 -8.0610859e-01
 -1.8057331e-02
  7.9835653e-01
  3.7425873e-01
 -2.1028103e-01
  1.1854225e+00
  1.3665400e+00
  3.1380937e-02
 -1.2686348e-02
  6.7241800e-01
 -1.3299203e-01
 -4.3322898e-02
  1.6012262e+00
  2.5075606e-01
  5.1884824e-01
 -1.0580295e-01
 -1.4668049e-01
  7.6776487e-01
 -4.8532861e-01
 -3.8827929e-01
  4.3128490e-01
 -4.2395136e-01
  8.1170923e-01
  4.9011776e-01
  8.0199070e-02
  1.3099829e+00
  2.5466709e+00
  4.1016769e-01
  4.1664428e-01
 -6.7425287e-01
 -1.0934956e+00
 -2.2923222e-01
  4.0953916e-02
  5.1383728e-01
  1.1729157e+00
  3.2458559e-01
  7.7278209e-01
 -7.8270221e-01
 -1.7681263e-01
 -7.6474100e-01
 -2.1116734e+00
 -2.1518241e-01
  1.1326268e+00
 -3.5498377e-02
  1.5764750e+00
  8.9249998e-01
 -1.1347925e-01
  1.2607889e+00
  5.9847271e-01
  2.4257169e+00
  4.2304665e-02
  1.1636955e+00
 -1.6179439e+00
 -1.3199788e+00
 -1.5644556e+00
 -2.5980015e+00
 -1.5693465e+00
 -3.3305693e-01
  1.8491463e-01
  2.3983163e-01
  2.1928848e-01
 -5.9671873e-01
 -1.9052113e+00
 -1.3924702e+00
  4.5838878e-03
 -8.2813060e-01
 -3.2988328e-01
 -9.8917715e-02
  4.6629789e-01
  1.1735500e-01
 -1.1100262e+00
  3.0002844e-01
  1.5544801e+00
 -6.1869216e-01
 -6.8914855e-01
  9.9703699e-01
 -1.6953756e-01
 -5.7694253e-02
 -7.3333025e-01
  1.5367413e+00
  8.6031035e-02
 -1.6489718e-02
 -1.0817962e-01
  2.3164766e-01
 -1.4963589e-02
 -7.5429514e-02
 -2.8735220e+00
  1.1027408e+00
  2.0046883e+00
 -7.8948873e-01
  9.8948568e-01
  6.2069160e-01
  9.2293239e-01
  5.8808976e-01
 -2.5494385e-01
  2.1647820e-01
 -4.1630858e-01
  4.6264526e-01
  1.8218313e+00
 -6.1047312e-02
 -1.2028093e+00
  3.0011711e-01
  1.2895479e+00
  1.5227078e+00
 -3.8594982e-01
  2.1838145e+00
  2.2032032e+00
  2.2887705e-01
 -6.0323346e-01
  8.1062263e-01
 -1.3493447e-01
  2.0928936e-01
 -5.7022101e-01
 -1.4266384e+00
  4.2632991e-01
 -2.4702878e+00
 -6.3288832e-01
 -5.8753574e-01
 -1.2667534e+00
 -8.2430661e-01
  1.0046121e+00
 -1.9460762e+00
  2.0110822e+00
  1.4498676e+00
  2.6151426e+00
  1.3597231e+00
  1.6094693e+00
 -8.3607382e-01
 -3.8036648e-02
 -3.3267329e+00
 -7.5299728e-01
  6.8672816e-03
  6.6335952e-01
  9.2711091e-01
  3.2339817e-01
  1.3808426e+00
  1.3456148e+00
 -1.0384203e+00
 -3.3728881e+00
 -6.9635320e-01
 -5.8740079e-01
  9.0030325e-04
  8.0726761e-01
 -1.9398567e-01
  5.6672242e-02
  5.2758604e-02
 -4.3528009e-02
  4.5194930e-01
  2.9584610e-01
  2.4852448e+00
  7.3009707e-02
 -1.8586461e-02
 -1.2950652e+00
 -3.2144475e+00
 -3.1842258e+00
 -1.1940546e+00
 -2.2014072e+00
 -1.6639031e-02
  4.6344602e-01
 -2.8178864e+00
  7.3646925e-02
  3.8396028e-01
 -1.8278348e+00
  5.1910281e-01
 -5.8857673e-01
 -3.9033561e+00
  8.5322261e-01
  4.0626830e-01
  1.8583344e+00
  2.5547451e-01
  2.3325583e-02
  7.2354156e-01
  5.1381016e-01
  1.6753464e+00
  4.8289165e-01
  1.8794896e-01
 -4.5499837e-01
 -1.3112439e+00
 -1.7685097e+00
 -3.5934186e-01
 -1.2272955e+00
 -6.5629232e-01
 -8.4797543e-01
 -1.8124064e+00
  1.3140367e+00
  1.3417425e+00
  2.8177232e-01
  7.3259987e-02
 -3.5409659e-01
 -4.2959574e-01
 -7.1478024e-02
 -5.2952206e-01
 -9.1088591e-03
  1.7721575e+00
  1.3668740e-01
  9.0712890e-02
  6.6534236e-02
  8.3819580e-01
  1.3957975e+00
  1.1194299e+00
  7.3334640e-01
  1.9180018e+00
 -4.0419091e-02
 -2.6244116e-01
 -1.6908447e-01
  6.9223005e-01
 -8.8027641e-02
  2.6121023e-01
 -8.0111158e-01
 -3.6120939e-01
 -1.2950554e+00
 -1.7068437e-01
  2.8744720e-02
 -8.2101303e-01
  1.3988353e+00
 -8.0534309e-02
  3.4526810e-01
 -9.1796674e-02
  8.4033400e-01
  7.4563585e-03
 -1.5838189e-02
  2.1104877e-01
  7.4255608e-02
 -2.3212407e+00
 -2.9107440e+00
 -5.4761305e-02
 -7.2948623e-01
 -7.4685283e-02
  1.9053742e-01
 -6.6319448e-01
 -3.7459430e-01
  2.2132391e-01
  5.5604929e-01
 -2.5387163e+00
  8.0161786e-01
  3.0132934e-01
  9.7313046e-01
 -1.9229418e+00
 -3.4780593e+00
 -2.7218401e+00
 -7.9831213e-01
 -2.5138967e-02
  5.1381981e-01
  1.1224935e+00
  1.3997718e+00
 -2.0592570e-01
 -7.5186435e-03
  2.6425459e+00
 -1.1367706e+00
  9.0386599e-01
  8.7787640e-01
  3.7518117e-01
 -2.7107003e-01
 -3.4557521e-01
 -1.3531109e+00
 -1.8830962e-02
 -1.2656243e+00
  1.5262369e+00
  1.9903957e+00
 -9.3696460e-02
  5.2618378e-01
 -6.8234497e-01
  2.2079968e+00
 -3.4626707e-01
 -1.1974386e-01
 -3.4791764e-02
 -3.3742353e-01
  3.0927349e-02
  6.2441945e-01
  1.7306574e-01
 -1.2687175e-01
  8.1271559e-02
  1.2023183e-01
  3.8624723e-02
  2.5363743e+00
  3.0991859e+00
 -9.8275155e-02
 -1.0074848e-01
 -3.7578575e-02
  4.1242398e-02
  6.2664437e-01
 -4.8301893e-01
 -2.2664893e-01
 -7.6704812e-01
 -7.3469371e-02
 -6.6287422e-01
  6.6947602e-02
  1.2530725e+00
  6.8950474e-02
  8.9785933e-02
 -5.3109348e-01
  8.5874617e-01
  7.6191741e-01
 -1.3896985e+00
  1.9983795e-01
  1.0081478e+00
  4.6080244e-01
  4.1434988e-01
  1.8468946e+00
 -7.6785022e-01
  1.0901240e+00
  2.5091577e-01
 -2.4062730e-02
 -7.7418095e-01
 -1.3525964e-01
 -2.2856320e-01
  4.2551037e-02
 -3.1502249e+00
  7.6242501e-01
 -2.5391600e-01
 -1.0112700e+00
 -2.1401753e+00
 -1.5563242e+00
 -6.5609396e-01
 -1.6994456e+00
 -1.1587977e+00
 -4.3235168e+00
 -1.0219675e-01
  1.8657418e+00
  2.7159113e-01
 -6.6491801e-01
  1.6959792e-01
 -1.8745250e+00
  4.1042507e-01
  7.2016031e-02
 -7.2137848e-02
  4.8515752e-01
 -5.7372701e-01
 -9.1631681e-01
 -3.6979619e-01
 -2.1939809e+00
 -2.1820176e-01
  1.0175991e+00
  9.7449493e-01
 -5.5261242e-01
  4.8740980e-01
  7.7580744e-01
 -4.9336606e-01
 -1.8113015e-02
 -8.8262641e-01
  4.9273767e-02
 -1.1267657e+00
 -3.6080876e-01
  1.3495630e+00
  1.9214764e-02
  8.1708968e-02
 -4.1140284e-02
  4.0679932e-01
 -3.0069095e-01
 -1.4319339e+00
  3.3051753e-01
  7.4115306e-01
 -2.6519630e+00
 -5.5499041e-01
 -1.2537013e+00
 -3.1609061e+00
 -1.6666549e+00
  6.4035761e-05
 -1.5294880e+00
 -1.0451632e-02
 -9.3069953e-01
  2.1129797e+00
 -3.8494149e-01
 -8.2395357e-01
 -1.4702610e+00
 -2.6757240e-01
 -2.9051142e+00
  1.4766873e+00
 -4.3202159e-01
  9.7263122e-01
  1.6039524e+00
  1.2957112e+00
  1.8315018e+00
  1.3938878e-01
  8.2609391e-01
  1.7919521e+00
  1.8184190e+00
 -8.8688046e-01
 -9.0939510e-01
  9.0550315e-01
  8.9998299e-01
 -8.2263939e-02
 -1.0291159e+00
  4.3758518e-01
 -1.2355428e+00
 -7.0641047e-01
 -3.0434707e-01
 -1.6443237e+00
 -8.1615001e-01
 -1.2121768e+00
 -8.1750944e-02
 -2.1747727e+00
 -8.3916575e-01
  2.2043202e+00
  1.0196062e+00
 -3.1528521e-01
 -5.1687878e-01
 -8.8205320e-01
  1.7272089e+00
  6.7808473e-01
  1.3949769e+00
  4.4345775e-01
 -7.0079136e-01
  5.6005906e-02
  1.6530609e+00
  1.8318417e+00
  1.6500669e+00
 -3.6962906e-01
  1.8075407e-02
 -1.3457232e+00
 -1.6081387e+00
 -2.5145924e+00
 -2.0484431e+00
  4.9703747e-02
 -1.2681927e-01
  4.8826363e-02
 -1.8176764e-02
 -5.4201490e-04
  1.8214288e+00
 -2.0540416e-01
 -1.6184765e-01
 -3.7535959e-01
 -5.6648504e-02
  5.6761350e-02
  1.2511909e+00
  6.0581791e-01
  7.8871958e-02
 -7.3538208e-03
 -6.7672594e-03
 -3.0701730e-02
  1.8392317e+00
  4.5486763e-01
 -3.0172607e-01
 -9.9686772e-02
 -7.0932293e-01
 -1.6085936e+00
 -3.3495545e-01
  8.8821977e-01
 -2.6414967e-01
  2.3287249e-01
 -1.2159886e-01
 -2.2354743e-02
 -1.2708640e-01
 -1.5694804e+00
 -7.7257830e-01
 -5.3250405e-04
 -1.8023424e-01
  5.9794266e-02
  1.9218700e+00
  1.1617771e+00
  5.3125143e-01
  7.1357417e-01
  3.7145975e-01
  1.1696316e-01
 -3.0973949e-02
  2.4944854e+00
  6.7720762e-03
  9.4061233e-02
 -2.1302798e+00
 -3.3871630e-01
 -2.2667964e-01
 -5.3541207e-01
 -3.6821580e-01
  1.5050539e-01
 -1.2174219e-01
 -4.6093842e-01
  1.2253720e-01
 -1.6712744e+00
 -9.7349697e-01
 -9.1204690e-03
 -2.9151535e-01
 -1.1706848e-01
  2.4559541e+00
  1.4239372e+00
 -1.2359312e-01
 -1.3766564e-01
  1.5488726e+00
  6.9182611e-01
  1.1201670e-01
  6.9701433e-01
 -3.5761881e-01
  1.5421731e+00
  9.3477637e-01
  1.8630804e-02
 -3.4634730e-01
 -8.1579305e-02
  2.3565854e-01
 -3.0579572e+00
 -1.1754001e-02
 -9.7580308e-01
  2.1539949e-01
 -6.4975345e-01
  1.6057507e+00
  1.3324801e+00
  4.3515131e-01
  8.8131851e-01
  7.8449810e-01
  3.9339623e-01
  1.1293647e+00
 -7.9312049e-02
  2.3739322e-01
  1.4695632e-01
 -4.8172176e-02
  1.9820888e-01
 -1.2109716e-01
  1.3500350e+00
  6.9268808e-02
 -1.6123089e+00
 -1.8357767e+00
 -1.2469746e+00
 -8.9870346e-01
 -2.1238074e+00
 -2.7473822e-02
  1.0776690e-01
  6.6321522e-01
  6.5459356e-02
  3.5763800e-01
  1.1442468e+00
  1.2920700e+00
  1.7062010e-02
  6.5262854e-01
 -5.4389733e-01
 -2.5754809e-01
  5.9995174e-02
  1.3618789e+00
  1.5794909e-01
  4.5978850e-01
  1.6315584e+00
  1.8121071e+00
  1.5106959e+00
  1.4465282e+00
 -3.8878601e-02
 -1.9546905e-01
  9.6968472e-01
  7.8047550e-01
 -2.5176613e+00
  1.3709884e+00
  1.6536936e+00
 -7.7845253e-02
 -3.5072011e-01
 -4.2220229e-01
  7.6966923e-01
 -1.3423688e+00
 -2.2532184e+00
 -2.5545909e+00
 -4.6274939e-01
 -2.9580047e+00
  1.1433971e+00
 -7.6120138e-01
  1.1563654e+00
  1.4544607e+00
  2.2209449e+00
  4.5338807e-01
 -3.1182331e-01
  7.9183271e-03
  2.4972656e+00
 -1.7297765e-02
 -3.2286171e-02
 -2.8280070e+00
 -4.8530066e-01
 -1.0320166e-01
  3.7353563e-01
  9.2599499e-01
  2.8667057e-01
 -4.0502873e-01
  2.9536074e-01
 -8.6993945e-01
  1.0526729e+00
  1.2666500e+00
 -6.5135682e-01
  2.6535456e+00
  5.3258345e-02
  2.6435287e+00
  1.5310415e+00
  3.4655565e-01
  3.8661489e-01
  5.4924732e-01
  3.7124956e-01
  1.1486462e+00
  4.2653650e-02
  2.0553362e+00
  2.3755640e-01
 -1.8645373e-01
  2.5094134e-01
 -1.7867151e+00
  1.3125216e+00
 -1.4306970e-01
 -3.0139594e+00
 -5.6445605e-01
  1.3904907e-01
 -1.5693740e+00
 -3.6932603e-01
 -1.3482307e-02
  2.5801605e-01
 -6.1168866e-03
  9.7271127e-01
  9.7231013e-01
 -7.1147993e-02
  2.4448976e-01
  1.3506393e+00
 -1.6810054e+00
 -8.7955959e-02
  1.8663885e-02
  1.8453016e+00
 -2.4148181e-02
 -1.1153047e+00
  2.5311998e-01
 -3.3801076e+00
 -8.6138493e-01
 -1.1660811e+00
 -7.5950009e-01
 -8.7506586e-01
  1.6549587e+00
  8.0668324e-01
  1.3347445e+00
  8.6030227e-01
  6.0060269e-01
 -8.7007934e-01
 -3.9345595e-01
 -7.7375662e-01
 -1.7891791e+00
 -1.0466158e+00
  2.5106277e+00
  3.6649276e-02
 -7.9633689e-01
  4.3881068e-01
  3.7182692e-02
  6.6440113e-02
  7.3553747e-01
  1.8290206e+00
  7.2305816e-01
  1.1914499e-01
 -2.4563649e+00
 -2.1378548e-01
 -2.1215799e+00
 -1.0167921e+00
 -1.6695386e+00
 -6.2767589e-01
 -7.9527022e-03
  1.0482097e-01
  2.0787381e-01
 -1.0732234e-01
 -6.0739321e-01
  2.8690186e+00
 -7.9950798e-01
  1.1271700e-01
 -1.5413166e+00
  1.8346454e-01
  1.9762674e-01
 -5.8458173e-01
 -3.2417405e-02
 -6.4431000e-01
  2.0165789e+00
 -2.4831192e+00
 -1.3054413e+00
  1.0957189e+00
 -2.0649602e-01
 -2.9287776e-01
  1.7976696e-02
 -3.9023337e-01
 -6.9912589e-01
 -1.2855268e+00
 -6.6901463e-01
 -1.4668659e-02
 -4.1009501e-01
 -6.4982630e-02
 -8.7702565e-02
 -5.9191465e-01
 -4.6325293e-01
 -3.5157087e-01
 -2.0086019e+00
 -8.0325586e-01
  2.0255052e-01
 -5.7245958e-01
  9.8231547e-02
  2.0090697e+00
  1.4918267e+00
 -3.0381885e-01
  1.4928675e+00
  1.9439432e-01
  2.7808687e-01
 -5.6844962e-01
  1.8952598e-01
  9.6600682e-02
  1.6664927e-01
 -2.1038517e-01
  1.9206264e+00
  2.9213920e+00
  6.6276306e-01
  1.8141167e-01
  3.7713778e-01
  4.4466349e-01
 -1.1043614e+00
 -2.2683983e+00
 -1.5829986e+00
 -8.8458073e-01
 -3.5309413e-01
  1.5410715e+00
  5.5431908e-01
  1.5558360e+00
  2.6158156e+00
  1.9818593e+00
  2.9355094e+00
  2.6571789e+00
  6.3117665e-01
  2.5780281e-01
  3.8309276e-01
 -3.2300131e+00
 -7.6232505e-01
 -2.2670763e+00
 -2.3358164e+00
 -1.1639097e+00
 -2.7599260e-01
  6.8993974e-01
  1.5381463e-01
  1.5544397e-01
  1.2303965e-01
 -4.3361565e-01
  2.7500668e-01
 -4.1222572e-01
  3.9304996e-01
 -2.0388620e+00
 -2.1858280e+00
 -3.3127036e+00
 -1.4894576e+00
 -6.2560910e-01
 -2.4057550e+00
 -1.8674694e+00
  1.3318456e+00
 -1.1034776e+00
 -4.2280345e+00
 -2.4881022e+00
 -6.9961524e-01
 -1.2450840e-01
  2.7894886e-02
 -6.7722851e-01
 -8.3240688e-01
  1.4595611e-01
 -2.9669654e-01
  6.6479817e-02
 -1.8193334e-02
 -1.5942177e-01
 -4.4843179e-01
 -3.5067523e-01
  4.6556242e-02
 -1.7428075e+00
 -1.3368748e+00
 -1.6472813e-02
 -7.8318584e-01
 -1.2869462e+00
  2.2375729e+00
 -2.3800573e+00
 -1.7501915e-01
  1.1984892e-01
 -6.4999080e-01
  5.0930196e-01
  1.0724288e+00
  3.8404521e-01
 -6.5579891e-01
 -1.6899605e-01
 -5.0416851e-01
 -1.2009298e+00
 -1.1396391e+00
  1.0267597e+00
 -1.4612677e-02
  2.4768990e-01
  4.1584888e-01
 -2.1683066e+00
  2.2505385e-01
 -2.7192235e-01
 -1.4689032e+00
  4.1841111e-01
  3.4418442e+00
  2.4230390e+00
  3.5974844e+00
  2.8604844e+00
  1.5575886e+00
  2.7083084e-01
  2.3278868e+00
  2.6432078e+00
  1.3901995e+00
  3.4665735e+00
  4.2786885e-02
 -3.3157125e+00
 -5.2650863e-01
 -1.3416040e+00
 -1.5261456e+00
  2.9867929e-01
  4.2662133e-02
 -5.8553230e-02
  8.9183986e-02
  3.0224806e-01
 -5.1936382e-01
 -8.9101368e-01
 -2.7727003e+00
  1.8175669e+00
 -1.8033667e+00
 -1.3534020e+00
 -2.1329845e-01
 -1.5425957e+00
 -1.2209903e+00
  6.0163938e-02
 -1.0069777e+00
  9.9665456e-02
 -3.0835941e-01
  3.8147739e-01
 -1.0412892e+00
 -1.0120198e+00
 -2.6312992e-01
  4.4448569e-01
 -2.3444276e+00
  2.8194660e-01
 -4.8354316e-01
 -1.5189181e-01
  2.0729341e-02
  1.2962717e-01
  6.2419516e-01
  1.4244622e+00
  5.6634164e-01
  1.1138433e+00
 -2.1639705e-01
  1.6315520e-01
 -1.3053355e+00
 -6.8028837e-01
 -2.5782769e+00
 -1.3419921e+00
 -1.6488467e-01
 -1.6481576e+00
 -8.7644166e-01
 -3.2867411e-01
 -6.9029401e-03
  5.4509852e-02
 -6.5584868e-01
 -9.3188858e-01
 -1.5884635e+00
 -2.3281576e-02
 -1.3499566e+00
  1.9575649e+00
  1.2308479e-01
  1.8433335e+00
  3.1698614e-02
  1.3302494e-02
  7.8368723e-01
 -1.3287324e+00
 -7.3375094e-01
  8.4368962e-01
 -2.4244390e+00
 -3.9890552e-01
  1.8728608e+00
 -6.3368969e-04
 -1.9991914e-02
  1.8916020e+00
 -1.2381563e+00
  1.0023401e+00
  6.6039711e-02
 -9.4081181e-01
 -1.8877745e-01
 -1.3702235e+00
 -5.2300934e-02
  3.0683750e-02
  5.8439618e-01
 -7.1951084e-02
  1.2004880e+00
  7.9049207e-02
  2.4075605e-02
  9.7323135e-02
  2.4616887e-01
  5.8608234e-02
 -2.3148637e+00
  8.8147804e-02
  1.2180238e-01
 -9.0653747e-01
  2.2040510e+00
  2.1155073e-01
  7.5685102e-01
  5.8259451e-01
  3.2707033e-01
 -1.1635021e-02
  6.3499087e-01
  1.1471317e+00
 -1.8272425e+00
  4.0550351e-01
  1.2076820e-01
  2.9687887e-02
 -7.3070282e-01
 -2.7934188e-01
 -2.2859244e+00
 -2.3390467e+00
 -4.5341408e-01
 -1.2616206e+00
 -3.6066931e-02
 -5.1372749e-01
  6.8613386e-01
  1.2678562e+00
  8.7252963e-01
  3.7376818e-03
  1.0710170e+00
 -1.4790297e+00
  6.8474972e-01
 -6.9572389e-01
 -7.8659064e-01
  4.4107959e-02
  5.1235956e-01
 -1.4461982e+00
 -1.5098829e+00
  8.1100518e-01
  1.1554187e-01
  1.6567922e+00
  3.7988573e-01
  9.5212144e-01
  1.6894896e+00
  1.9959836e+00
  1.3225890e+00
 -4.0507978e-01
 -6.5009326e-01
  2.6605062e+00
  7.3436129e-01
 -1.8293285e+00
 -5.0113219e-01
 -1.5162088e+00
 -1.7310370e+00
 -1.5884127e-01
  7.5933176e-01
 -1.3131766e+00
  1.3532100e+00
  8.7395120e-01
  1.4480171e+00
 -2.7523512e-01
 -1.1829124e-01
  4.4737199e-01
  1.2652328e+00
  4.5756096e-01
 -4.2973980e-02
  5.0952655e-01
 -1.3174607e+00
 -3.3600965e-01
  1.3188735e-01
  2.6422343e-01
  3.0291867e-01
  4.5968971e-01
 -6.3616341e-01
  1.4190918e-01
 -3.1717607e-01
 -1.8988509e+00
 -2.1615441e-01
  6.5545815e-01
  9.1068184e-01
  3.0680301e+00
  3.2564616e-01
  1.2410502e+00
  1.4698226e+00
  2.5844305e+00
 -3.3306840e-01
  3.1710153e+00
  4.0295343e+00
 -3.0880244e+00
 -1.7004271e+00
 -1.8169332e+00
 -1.1808704e+00
 -3.2315526e+00
 -1.4678113e+00
 -2.7736704e+00
 -2.2334204e+00
 -1.9618103e-01
 -1.3993351e+00
 -2.8070354e-01
 -7.2882408e-01
  6.1036155e-02
  3.0018994e-01
  1.5546268e-01
 -3.0946451e-01
  2.7096727e-01
 -5.1889122e-01
 -2.4708946e+00
 -2.4745142e+00
 -1.5559895e+00
 -3.7394252e+00
  1.2846024e-01
 -1.3652799e+00
 -4.3148103e-01
  1.3197354e+00
  5.2383952e-02
  1.8682823e+00
  5.5602753e-01
  1.3423394e+00
  4.7491300e-01
  6.2522250e-01
  1.1393349e-02
  5.5153209e-01
  6.5313679e-01
  2.6307860e-01
  9.4945133e-01
  2.6585034e-01
  1.3169056e+00
  9.9100018e-01
 -4.3568796e-01
  1.2232302e+00
  2.4969194e+00
  1.1832730e+00
  2.5314698e+00
  2.5815578e+00
  1.6073343e-01
  4.6408001e-01
 -7.6327175e-01
 -1.6094450e+00
  2.3228127e-01
 -6.1561152e-02
 -4.2754266e-02
 -5.4248327e-01
  3.9397937e-01
 -1.5244895e+00
 -1.7171374e-01
  2.6080120e-01
 -2.2390813e-01
  7.0614284e-01
 -9.5858544e-01
  8.8817221e-01
 -1.3016616e+00
  2.7057254e-01
 -5.0730921e-02
 -1.0592890e+00
  3.0617678e-01
 -5.0149113e-01
 -2.8186518e-01
  5.6969684e-01
 -5.4131364e-03
 -5.2355874e-01
  3.1511688e-01
 -5.3466642e-01
 -4.0429583e-01
 -1.9820967e-01
 -4.0277609e-01
 -1.6957816e-01
 -4.0254131e-01
 -4.5001477e-01
 -1.2236396e+00
 -6.1072898e-01
  5.2707875e-01
 -2.6614566e-03
  5.7757181e-01
 -9.0219724e-01
 -6.4477526e-02
  1.1796142e-01
 -8.7405756e-02
  7.4658900e-01
  8.2865375e-01
  1.3942664e+00
  1.1383624e-01
 -1.7673536e-01
  8.5914189e-01
  6.5859818e-01
  7.6625240e-01
  3.4086332e-01
  6.8223208e-01
  1.1381365e+00
 -2.1610053e+00
 -7.5102419e-01
 -2.6836547e-01
 -4.1119132e-02
  7.7569947e-02
  2.6623925e-02
 -2.4378332e-01
  5.2747464e-01
  6.3044536e-01
  8.1177551e-01
  2.2048958e-01
  9.2123276e-01
 -1.1657822e+00
  3.8713714e-01
 -9.4547868e-01
 -6.0928458e-01
 -1.7842770e+00
  1.2501602e+00
 -1.0791609e-01
 -2.1372700e-01
 -1.4512108e-01
  7.9017460e-01
  1.1194454e+00
 -1.8167111e+00
 -1.4547233e-01
 -3.0318742e+00
 -4.2144150e-01
 -5.1372659e-01
 -1.2302566e+00
  2.5830567e-01
  1.0462528e+00
 -8.9655948e-01
  1.2827305e-02
 -1.0060162e-02
  7.0258087e-01
 -6.9793919e-03
  6.1438579e-02
 -1.0689372e+00
  3.2027689e-01
 -1.8538341e-01
  3.0290121e-02
 -5.7103866e-01
  1.0594375e-01
 -5.7821698e-02
 -1.3763185e+00
 -1.2281243e+00
  8.7869120e-01
 -8.1319757e-02
  9.1072932e-02
  2.3568638e-01
 -9.6267968e-01
  2.0967364e-01
 -2.0283955e-01
  2.8222805e-02
 -7.7065557e-02
 -5.7931828e-01
  2.1334372e+00
 -5.0126606e-01
 -3.5182559e-01
 -1.1453152e+00
 -3.5398055e-02
 -9.1708839e-02
  1.4650890e-01
 -1.9860329e-01
  5.7811117e-01
 -5.3431529e-01
  5.7828702e-02
 -1.2394926e-02
  1.0844029e+00
 -9.5533812e-01
  1.8748472e+00
 -2.2723057e+00
 -7.4058813e-01
  7.9108948e-01
 -5.9783626e-01
  5.3248250e-01
 -1.2928636e+00
 -4.0153787e-01
  1.8529613e+00
 -2.7785318e-02
 -8.6357075e-01
  1.1741066e+00
  1.8636968e+00
  1.5099727e+00
  1.3141073e+00
  1.2565920e+00
  2.3247912e+00
 -1.2121218e+00
 -1.5971062e+00
 -1.4778388e+00
 -1.0148079e+00
  6.5262353e-01
  4.1009131e-01
 -1.8901944e+00
  1.2041112e+00
  7.9313922e-01
  1.1797889e+00
 -2.3349549e-01
  4.2610013e-01
  1.2606949e+00
